{"learner":{"attributes":{"best_iteration":"12","best_score":"0.6886338984766213"},"feature_names":[],"feature_types":[],"gradient_booster":{"model":{"cats":{"enc":[],"feature_segments":[],"sorted_idx":[]},"gbtree_model_param":{"num_parallel_tree":"1","num_trees":"33"},"iteration_indptr":[0,1,2,3,4,5,6,7,8,9,10,11,12,13,14,15,16,17,18,19,20,21,22,23,24,25,26,27,28,29,30,31,32,33],"tree_info":[0,0,0,0,0,0,0,0,0,0,0,0,0,0,0,0,0,0,0,0,0,0,0,0,0,0,0,0,0,0,0,0,0],"trees":[{"base_weights":[7.955239E-3,-4.7948787E-1,5.10203E-1,-9.4809425E-1,-1.8662591E-1,2.3455283E-1,8.222767E-1,-6.945011E-1,-1.3028677E0,3.7127382E-1,-3.669011E-1,-3.8293773E-1,3.1671122E-1,1.3824408E-1,8.948964E-1,-4.0253936E-3,-1.7713672E-3,-6.7802602E-3,-4.3729534E-3,2.2767126E-3,-0E0,-2.326733E-3,-2.7911956E-4,1.387652E-4,-3.3425235E-3,2.0942963E-3,-0E0,-2.5549426E-3,2.0388342E-3,5.2089356E-3,3.241708E-3],"categories":[],"categories_nodes":[],"categories_segments":[],"categories_sizes":[],"default_left":[0,0,0,0,0,0,0,0,0,0,0,0,0,0,0,0,0,0,0,0,0,0,0,0,0,0,0,0,0,0,0],"id":0,"left_children":[1,3,5,7,9,11,13,15,17,19,21,23,25,27,29,-1,-1,-1,-1,-1,-1,-1,-1,-1,-1,-1,-1,-1,-1,-1,-1],"loss_changes":[5.0643448E2,1.4271425E2,8.65863E1,3.3765747E1,6.515402E1,2.757733E1,2.2582E1,1.3528053E1,8.740845E0,8.283834E0,2.3080292E1,1.0392557E1,2.4231167E1,1.0978437E1,1.7381104E1,0E0,0E0,0E0,0E0,0E0,0E0,0E0,0E0,0E0,0E0,0E0,0E0,0E0,0E0,0E0,0E0],"parents":[2147483647,0,0,1,1,2,2,3,3,4,4,5,5,6,6,7,7,8,8,9,9,10,10,11,11,12,12,13,13,14,14],"right_children":[2,4,6,8,10,12,14,16,18,20,22,24,26,28,30,-1,-1,-1,-1,-1,-1,-1,-1,-1,-1,-1,-1,-1,-1,-1,-1],"split_conditions":[4E-1,1.4344526E3,6.7E0,1.551802E3,1.5012125E3,1.4170486E3,1.4588977E3,1.3735312E3,-9.8E0,1.114E2,1.5624497E3,-3E-1,1.5452373E3,7E0,1.3858835E3,-4.0253936E-3,-1.7713672E-3,-6.7802602E-3,-4.3729534E-3,2.2767126E-3,-0E0,-2.326733E-3,-2.7911956E-4,1.387652E-4,-3.3425235E-3,2.0942963E-3,-0E0,-2.5549426E-3,2.0388342E-3,5.2089356E-3,3.241708E-3],"split_indices":[141,117,141,118,118,117,117,117,137,135,117,148,118,105,118,0,0,0,0,0,0,0,0,0,0,0,0,0,0,0,0],"split_type":[0,0,0,0,0,0,0,0,0,0,0,0,0,0,0,0,0,0,0,0,0,0,0,0,0,0,0,0,0,0,0],"sum_hessian":[2.0675989E3,1.0482688E3,1.01933E3,4.014721E2,6.467967E2,5.433623E2,4.7596774E2,2.3653265E2,1.6493947E2,1.5649464E2,4.90302E2,6.2190384E1,4.811719E2,4.7121418E1,4.288463E2,1.3416943E2,1.0236322E2,9.262651E1,7.231295E1,1.12606895E2,4.3887753E1,3.196255E2,1.7067653E2,2.8365005E1,3.382538E1,3.2350894E2,1.5766295E2,1.3568512E1,3.3552906E1,1.5345752E2,2.753888E2],"tree_param":{"num_deleted":"0","num_feature":"205","num_nodes":"31","size_leaf_vector":"1"}},{"base_weights":[2.2073975E-2,-5.4792607E-1,5.897409E-1,-1.066672E0,-2.9239884E-1,3.4357113E-1,8.940462E-1,-1.4977744E0,-8.948206E-1,-4.6699557E-1,2.2471389E-2,-2.6028E-1,3.9970723E-1,7.037431E-1,1.090582E0,-7.12215E-3,-4.151272E-3,-2.7474472E-3,-4.6891547E-3,-3.4261555E-3,-1.5988756E-3,1.0076952E-3,-1.1410277E-3,-2.9699581E-3,1.5461034E-3,-4.133507E-4,2.0447676E-3,4.0182434E-3,2.1427479E-3,5.0828066E-3,2.0578147E-3],"categories":[],"categories_nodes":[],"categories_segments":[],"categories_sizes":[],"default_left":[0,0,0,0,0,0,0,0,0,0,0,0,0,0,0,0,0,0,0,0,0,0,0,0,0,0,0,0,0,0,0],"id":1,"left_children":[1,3,5,7,9,11,13,15,17,19,21,23,25,27,29,-1,-1,-1,-1,-1,-1,-1,-1,-1,-1,-1,-1,-1,-1,-1,-1],"loss_changes":[6.672486E2,1.347763E2,7.608722E1,2.2043854E1,3.841635E1,1.9647377E1,1.508548E1,2.6495667E0,9.057541E0,1.3239464E1,1.4074666E1,1.2344927E1,1.657618E1,9.074348E0,6.229553E0,0E0,0E0,0E0,0E0,0E0,0E0,0E0,0E0,0E0,0E0,0E0,0E0,0E0,0E0,0E0,0E0],"parents":[2147483647,0,0,1,1,2,2,3,3,4,4,5,5,6,6,7,7,8,8,9,9,10,10,11,11,12,12,13,13,14,14],"right_children":[2,4,6,8,10,12,14,16,18,20,22,24,26,28,30,-1,-1,-1,-1,-1,-1,-1,-1,-1,-1,-1,-1,-1,-1,-1,-1],"split_conditions":[4.1525874E0,-1.4925996E2,1.1945574E2,-2.6542593E2,-3E-1,-6.1E0,8.7E0,8E-1,1.05E2,-1.12E1,2.1900452E7,6.666667E-1,-1.56E1,1.07E2,6.8E-2,-7.12215E-3,-4.151272E-3,-2.7474472E-3,-4.6891547E-3,-3.4261555E-3,-1.5988756E-3,1.0076952E-3,-1.1410277E-3,-2.9699581E-3,1.5461034E-3,-4.133507E-4,2.0447676E-3,4.0182434E-3,2.1427479E-3,5.0828066E-3,2.0578147E-3],"split_indices":[119,119,119,119,141,141,141,138,130,137,0,128,63,131,156,0,0,0,0,0,0,0,0,0,0,0,0,0,0,0,0],"split_type":[0,0,0,0,0,0,0,0,0,0,0,0,0,0,0,0,0,0,0,0,0,0,0,0,0,0,0,0,0,0,0],"sum_hessian":[2.0611177E3,1.0275785E3,1.0335391E3,3.3736728E2,6.902112E2,5.7368243E2,4.598567E2,9.351576E1,2.4385152E2,4.4590057E2,2.443106E2,4.7148518E1,5.2653394E2,2.3725185E2,2.2260484E2,7.580257E1,1.7713194E1,9.46074E1,1.4924411E2,1.1105407E2,3.348465E2,1.4314151E2,1.01169075E2,2.9116257E1,1.8032263E1,5.724782E1,4.6928607E2,1.19865036E2,1.173868E2,2.019585E2,2.064634E1],"tree_param":{"num_deleted":"0","num_feature":"205","num_nodes":"31","size_leaf_vector":"1"}},{"base_weights":[3.681547E-2,-4.60034E-1,5.571834E-1,-9.4643617E-1,-1.4103158E-1,3.105144E-1,8.505219E-1,-6.5103954E-1,-1.3437696E0,5.6196246E-2,-4.601464E-1,8.8682E-2,5.0350785E-1,1.9223794E-1,9.133709E-1,-4.2212685E-3,-1.1957302E-3,-6.1998162E-3,-9.4896945E-4,-3.635715E-4,2.1302835E-3,-3.7145969E-3,-1.2893545E-3,1.1004872E-3,-9.355333E-4,3.2906756E-3,7.2129373E-4,2.7415815E-3,-1.6458743E-3,4.501673E-3,2.5528949E-3],"categories":[],"categories_nodes":[],"categories_segments":[],"categories_sizes":[],"default_left":[0,0,0,0,0,0,0,0,0,0,0,0,0,0,0,0,0,0,0,0,0,0,0,0,0,0,0,0,0,0,0],"id":2,"left_children":[1,3,5,7,9,11,13,15,17,19,21,23,25,27,29,-1,-1,-1,-1,-1,-1,-1,-1,-1,-1,-1,-1,-1,-1,-1,-1],"loss_changes":[5.34244E2,1.6269682E2,7.181204E1,4.6554535E1,4.0659706E1,2.2990147E1,1.7822723E1,2.650544E1,9.595123E0,2.3569057E1,1.45259285E1,1.2512281E1,2.2932419E1,1.0466621E1,1.2740021E1,0E0,0E0,0E0,0E0,0E0,0E0,0E0,0E0,0E0,0E0,0E0,0E0,0E0,0E0,0E0,0E0],"parents":[2147483647,0,0,1,1,2,2,3,3,4,4,5,5,6,6,7,7,8,8,9,9,10,10,11,11,12,12,13,13,14,14],"right_children":[2,4,6,8,10,12,14,16,18,20,22,24,26,28,30,-1,-1,-1,-1,-1,-1,-1,-1,-1,-1,-1,-1,-1,-1,-1,-1],"split_conditions":[5E-1,1.4357794E3,7E0,1.551802E3,1.5906428E3,1.5319716E3,1.4588977E3,1.3735312E3,5.4E0,1.564843E3,1.144E2,1.5036522E3,1.5472E3,1.006E2,1.5048485E3,-4.2212685E-3,-1.1957302E-3,-6.1998162E-3,-9.4896945E-4,-3.635715E-4,2.1302835E-3,-3.7145969E-3,-1.2893545E-3,1.1004872E-3,-9.355333E-4,3.2906756E-3,7.2129373E-4,2.7415815E-3,-1.6458743E-3,4.501673E-3,2.5528949E-3],"split_indices":[141,117,141,118,118,117,117,117,142,117,24,118,118,6,118,0,0,0,0,0,0,0,0,0,0,0,0,0,0,0,0],"split_type":[0,0,0,0,0,0,0,0,0,0,0,0,0,0,0,0,0,0,0,0,0,0,0,0,0,0,0,0,0,0,0],"sum_hessian":[2.0650825E3,1.0554624E3,1.00962006E3,4.1645883E2,6.390036E2,5.5078326E2,4.588368E2,2.4098787E2,1.7547096E2,3.9322473E2,2.457789E2,2.5895038E2,2.918329E2,4.1528004E1,4.1730878E2,1.32431E2,1.0855688E2,1.6608943E2,9.381531E0,2.95189E2,9.803573E1,7.335279E1,1.724261E2,1.7111723E2,8.783316E1,1.6915541E2,1.2267749E2,2.4610168E1,1.6917835E1,3.1600552E2,1.0130326E2],"tree_param":{"num_deleted":"0","num_feature":"205","num_nodes":"31","size_leaf_vector":"1"}},{"base_weights":[-9.33371E-3,-5.727229E-1,5.6083703E-1,-1.1427754E0,-3.0557033E-1,3.4862527E-1,9.2892325E-1,-1.4329281E0,-9.3186265E-1,-5.607912E-1,-1.3713561E-1,2.3044677E-1,6.5471786E-1,7.828149E-1,1.1352144E0,-8.482131E-3,-5.251972E-3,-4.4210874E-3,-7.9693034E-4,-2.6276112E-3,1.110421E-3,2.729837E-3,-8.1026164E-4,2.6502712E-3,5.815774E-4,-0E0,3.155806E-3,2.4583542E-3,4.2355442E-3,2.241398E-3,5.415206E-3],"categories":[],"categories_nodes":[],"categories_segments":[],"categories_sizes":[],"default_left":[0,0,0,0,0,0,0,0,0,0,0,0,0,0,0,0,0,0,0,0,0,0,0,0,0,0,0,0,0,0,0],"id":3,"left_children":[1,3,5,7,9,11,13,15,17,19,21,23,25,27,29,-1,-1,-1,-1,-1,-1,-1,-1,-1,-1,-1,-1,-1,-1,-1,-1],"loss_changes":[6.75544E2,1.5962436E2,8.0157196E1,1.763684E1,3.0335617E1,2.310141E1,9.142792E0,1.2419189E1,8.735443E0,8.016426E0,1.4799706E1,1.6848919E1,7.580139E0,7.2331696E0,6.5369263E0,0E0,0E0,0E0,0E0,0E0,0E0,0E0,0E0,0E0,0E0,0E0,0E0,0E0,0E0,0E0,0E0],"parents":[2147483647,0,0,1,1,2,2,3,3,4,4,5,5,6,6,7,7,8,8,9,9,10,10,11,11,12,12,13,13,14,14],"right_children":[2,4,6,8,10,12,14,16,18,20,22,24,26,28,30,-1,-1,-1,-1,-1,-1,-1,-1,-1,-1,-1,-1,-1,-1,-1,-1],"split_conditions":[4.1525874E0,-1.520331E2,1.4449736E2,-1.18E1,-5E0,6.4E0,2.3045969E2,5.9E1,1.72E1,2.94E1,-1.42E1,2.1300224E7,-1.7E1,0E0,-9.4E-2,-8.482131E-3,-5.251972E-3,-4.4210874E-3,-7.9693034E-4,-2.6276112E-3,1.110421E-3,2.729837E-3,-8.1026164E-4,2.6502712E-3,5.815774E-4,-0E0,3.155806E-3,2.4583542E-3,4.2355442E-3,2.241398E-3,5.415206E-3],"split_indices":[119,119,119,137,137,141,119,112,34,178,139,0,54,193,156,0,0,0,0,0,0,0,0,0,0,0,0,0,0,0,0],"split_type":[0,0,0,0,0,0,0,0,0,0,0,0,0,0,0,0,0,0,0,0,0,0,0,0,0,0,0,0,0,0,0],"sum_hessian":[2.1020679E3,1.0581986E3,1.0438694E3,3.3601285E2,7.221858E2,6.644022E2,3.7946713E2,1.383547E2,1.9765814E2,2.8435748E2,4.378283E2,4.8225052E2,1.8215169E2,2.2622226E2,1.5324486E2,4.428955E1,9.4065155E1,1.8011746E2,1.754068E1,2.7457114E2,9.78635E0,2.358181E1,4.142465E2,9.957409E1,3.8267642E2,1.3744028E1,1.6840765E2,1.0143234E2,1.24789925E2,2.0638344E1,1.3260652E2],"tree_param":{"num_deleted":"0","num_feature":"205","num_nodes":"31","size_leaf_vector":"1"}},{"base_weights":[2.2769121E-2,-4.8107052E-1,6.113791E-1,-1.0892287E0,-2.5542465E-1,3.9806366E-1,9.5787984E-1,-1.4829506E0,-9.001658E-1,-5.80478E-1,-1.5821916E-1,-4.2516783E-1,4.47933E-1,6.678392E-1,1.0843438E0,-7.3981793E-3,-4.2862482E-3,-4.2318287E-3,-4.043964E-4,-2.1164767E-3,-5.894711E-3,-1.2852927E-3,3.3762908E-4,-3.9972616E-3,2.5781238E-4,3.54104E-3,1.55814E-3,3.4668958E-3,7.727674E-4,4.95525E-3,1.9486614E-3],"categories":[],"categories_nodes":[],"categories_segments":[],"categories_sizes":[],"default_left":[0,0,0,0,0,0,0,0,0,0,0,0,0,0,0,0,0,0,0,0,0,0,0,0,0,0,0,0,0,0,0],"id":4,"left_children":[1,3,5,7,9,11,13,15,17,19,21,23,25,27,29,-1,-1,-1,-1,-1,-1,-1,-1,-1,-1,-1,-1,-1,-1,-1,-1],"loss_changes":[6.13894E2,1.514347E2,6.9096375E1,1.9374084E1,2.4957573E1,2.4490005E1,1.1207062E1,5.863846E0,8.234116E0,1.2125603E1,1.9750395E1,8.492891E0,1.7679062E1,5.4488106E0,3.8831177E0,0E0,0E0,0E0,0E0,0E0,0E0,0E0,0E0,0E0,0E0,0E0,0E0,0E0,0E0,0E0,0E0],"parents":[2147483647,0,0,1,1,2,2,3,3,4,4,5,5,6,6,7,7,8,8,9,9,10,10,11,11,12,12,13,13,14,14],"right_children":[2,4,6,8,10,12,14,16,18,20,22,24,26,28,30,-1,-1,-1,-1,-1,-1,-1,-1,-1,-1,-1,-1,-1,-1,-1,-1],"split_conditions":[1.751152E1,-1.6110484E2,1.4449736E2,-2.6542593E2,-5E0,-6.8E0,6E-1,1.41E0,6E0,6.8E0,9E0,-3E-1,2.1300224E7,1.096E2,1.14E2,-7.3981793E-3,-4.2862482E-3,-4.2318287E-3,-4.043964E-4,-2.1164767E-3,-5.894711E-3,-1.2852927E-3,3.3762908E-4,-3.9972616E-3,2.5781238E-4,3.54104E-3,1.55814E-3,3.4668958E-3,7.727674E-4,4.95525E-3,1.9486614E-3],"split_indices":[119,119,119,119,125,125,138,152,142,149,113,81,0,123,130,0,0,0,0,0,0,0,0,0,0,0,0,0,0,0,0],"split_type":[0,0,0,0,0,0,0,0,0,0,0,0,0,0,0,0,0,0,0,0,0,0,0,0,0,0,0,0,0,0,0],"sum_hessian":[2.068682E3,1.1137357E3,9.549463E2,2.9974237E2,8.139933E2,5.93444E2,3.615023E2,9.4534424E1,2.0520793E2,1.8451297E2,6.2948035E2,3.2563023E1,5.60881E2,1.1301026E2,2.4849202E2,6.70155E1,2.7518927E1,1.9069093E2,1.4516999E1,1.6422308E2,2.028989E1,4.052044E2,2.2427591E2,1.7211872E1,1.53511505E1,1.17095665E2,4.437853E2,8.9719246E1,2.3291016E1,2.3380608E2,1.4685956E1],"tree_param":{"num_deleted":"0","num_feature":"205","num_nodes":"31","size_leaf_vector":"1"}},{"base_weights":[-0E0,-5.1979107E-1,6.118206E-1,-1.1086099E0,-2.987154E-1,3.9196107E-1,9.1732156E-1,-1.3360846E0,-8.495853E-1,-5.877791E-1,-1.5489057E-1,-4.4139224E-1,4.3421862E-1,9.940912E-1,3.4233803E-1,-6.153845E-3,-2.1579377E-3,-1.6710393E-3,-4.4055986E-3,-2.0168128E-3,-4.5539634E-3,-3.4618992E-4,-3.020649E-3,-4.03342E-3,8.218049E-4,2.1228543E-3,-7.0129894E-4,4.8425845E-3,3.2682575E-3,2.7088174E-3,-8.448523E-4],"categories":[],"categories_nodes":[],"categories_segments":[],"categories_sizes":[],"default_left":[0,0,0,0,0,0,0,0,0,0,0,0,0,0,0,0,0,0,0,0,0,0,0,0,0,0,0,0,0,0,0],"id":5,"left_children":[1,3,5,7,9,11,13,15,17,19,21,23,25,27,29,-1,-1,-1,-1,-1,-1,-1,-1,-1,-1,-1,-1,-1,-1,-1,-1],"loss_changes":[6.534415E2,1.4314496E2,6.189798E1,1.5110291E1,3.2894417E1,1.9491455E1,1.5845093E1,5.11322E0,8.412575E0,1.3850319E1,2.1215982E1,8.368914E0,1.4518341E1,6.628113E0,7.439917E0,0E0,0E0,0E0,0E0,0E0,0E0,0E0,0E0,0E0,0E0,0E0,0E0,0E0,0E0,0E0,0E0],"parents":[2147483647,0,0,1,1,2,2,3,3,4,4,5,5,6,6,7,7,8,8,9,9,10,10,11,11,12,12,13,13,14,14],"right_children":[2,4,6,8,10,12,14,16,18,20,22,24,26,28,30,-1,-1,-1,-1,-1,-1,-1,-1,-1,-1,-1,-1,-1,-1,-1,-1],"split_conditions":[1.751152E1,-1.6110484E2,1.3474728E2,-2.230925E2,-3.3E0,-7.7E0,1.138E2,1.4741149E3,1.018E2,5.4E0,1E0,2.1E-1,1.6704655E3,1E0,2.84E-1,-6.153845E-3,-2.1579377E-3,-1.6710393E-3,-4.4055986E-3,-2.0168128E-3,-4.5539634E-3,-3.4618992E-4,-3.020649E-3,-4.03342E-3,8.218049E-4,2.1228543E-3,-7.0129894E-4,4.8425845E-3,3.2682575E-3,2.7088174E-3,-8.448523E-4],"split_indices":[119,119,119,119,125,125,130,117,123,129,116,153,117,186,14,0,0,0,0,0,0,0,0,0,0,0,0,0,0,0,0],"split_type":[0,0,0,0,0,0,0,0,0,0,0,0,0,0,0,0,0,0,0,0,0,0,0,0,0,0,0,0,0,0,0],"sum_hessian":[2.0540027E3,1.1110992E3,9.429034E2,3.015736E2,8.0952563E2,5.507963E2,3.9210703E2,1.5752452E2,1.4404907E2,2.662006E2,5.433251E2,2.5240372E1,5.2555597E2,3.44105E2,4.8002026E1,1.466677E2,1.0856834E1,3.599473E1,1.08054344E2,2.0730505E2,5.8895535E1,4.7648764E2,6.683745E1,1.5218303E1,1.0022069E1,4.8977377E2,3.57822E1,2.4343434E2,1.0067066E2,3.307301E1,1.4929016E1],"tree_param":{"num_deleted":"0","num_feature":"205","num_nodes":"31","size_leaf_vector":"1"}},{"base_weights":[6.8062395E-3,-5.1292205E-1,6.13744E-1,-1.1099616E0,-2.542386E-1,4.048862E-1,9.446184E-1,-1.4010075E0,-8.887115E-1,-4.7800118E-1,-4.5339756E-2,-4.2437127E-1,4.4298637E-1,8.682163E-1,6.076043E-3,-4.035903E-3,-6.7504966E-3,-5.3093494E-3,-2.8762396E-3,-1.2241007E-3,-3.0255208E-3,5.8529776E-4,-1.2200294E-3,1.2463695E-4,-3.5755914E-3,1.4944485E-3,3.004158E-3,3.2731583E-3,4.5492128E-3],"categories":[],"categories_nodes":[],"categories_segments":[],"categories_sizes":[],"default_left":[0,0,0,0,0,0,0,0,0,0,0,0,0,0,0,0,0,0,0,0,0,0,0,0,0,0,0,0,0],"id":6,"left_children":[1,3,5,7,9,11,13,15,17,19,21,23,25,27,-1,-1,-1,-1,-1,-1,-1,-1,-1,-1,-1,-1,-1,-1,-1],"loss_changes":[6.5330237E2,1.706648E2,6.455789E1,1.8775818E1,3.5902977E1,1.8704857E1,9.268127E0,5.5935974E0,1.2205154E1,1.444725E1,1.676134E1,5.115475E0,1.2898354E1,4.3764954E0,0E0,0E0,0E0,0E0,0E0,0E0,0E0,0E0,0E0,0E0,0E0,0E0,0E0,0E0,0E0],"parents":[2147483647,0,0,1,1,2,2,3,3,4,4,5,5,6,6,7,7,8,8,9,9,10,10,11,11,12,12,13,13],"right_children":[2,4,6,8,10,12,14,16,18,20,22,24,26,28,-1,-1,-1,-1,-1,-1,-1,-1,-1,-1,-1,-1,-1,-1,-1],"split_conditions":[1.751152E1,-1.520331E2,1.4449736E2,-2.3222815E2,-1.1E0,-7.7E0,3.0797516E2,1.024E2,-1E-1,2.1700384E7,2.1900238E7,1.109E2,6.4E0,1.5E-1,6.076043E-3,-4.035903E-3,-6.7504966E-3,-5.3093494E-3,-2.8762396E-3,-1.2241007E-3,-3.0255208E-3,5.8529776E-4,-1.2200294E-3,1.2463695E-4,-3.5755914E-3,1.4944485E-3,3.004158E-3,3.2731583E-3,4.5492128E-3],"split_indices":[119,119,119,119,125,125,119,127,168,0,0,127,141,168,0,0,0,0,0,0,0,0,0,0,0,0,0,0,0],"split_type":[0,0,0,0,0,0,0,0,0,0,0,0,0,0,0,0,0,0,0,0,0,0,0,0,0,0,0,0,0],"sum_hessian":[2.0698481E3,1.1141866E3,9.556615E2,3.3520627E2,7.789804E2,5.8830994E2,3.6735156E2,1.417907E2,1.9341557E2,3.7353E2,4.054504E2,2.4495026E1,5.6381494E2,3.148632E2,5.2488365E1,3.1105564E1,1.10685135E2,8.143002E1,1.1198555E2,1.9166507E2,1.8186493E2,2.2660327E2,1.7884714E2,1.0237581E1,1.4257445E1,3.9341068E2,1.7040427E2,1.7922021E2,1.3564296E2],"tree_param":{"num_deleted":"0","num_feature":"205","num_nodes":"29","size_leaf_vector":"1"}},{"base_weights":[3.1144023E-3,-5.510733E-1,5.727475E-1,-1.0566965E0,-3.047993E-1,3.3524564E-1,8.575845E-1,-1.3906333E0,-8.470381E-1,-4.4372463E-1,-2.1926288E-2,4.3567488E-1,-2.6989342E-3,6.383073E-1,1.0147635E0,-5.1872972E-3,-7.854898E-3,-3.951143E-3,8.660718E-5,-2.451521E-3,-6.592464E-4,-2.386489E-3,4.4668958E-4,-0E0,2.3091107E-3,-1.3955176E-3,1.0270688E-3,5.842133E-4,3.363313E-3,4.13381E-3,5.9942985E-3],"categories":[],"categories_nodes":[],"categories_segments":[],"categories_sizes":[],"default_left":[0,0,0,0,0,0,0,0,0,0,0,0,0,0,0,0,0,0,0,0,0,0,0,0,0,0,0,0,0,0,0],"id":7,"left_children":[1,3,5,7,9,11,13,15,17,19,21,23,25,27,29,-1,-1,-1,-1,-1,-1,-1,-1,-1,-1,-1,-1,-1,-1,-1,-1],"loss_changes":[6.490677E2,1.2815811E2,6.733133E1,2.1015808E1,2.7125694E1,1.930178E1,1.3890686E1,6.9158936E0,9.258041E0,1.4481033E1,1.533798E1,1.635122E1,9.33021E0,1.1111382E1,4.395172E0,0E0,0E0,0E0,0E0,0E0,0E0,0E0,0E0,0E0,0E0,0E0,0E0,0E0,0E0,0E0,0E0],"parents":[2147483647,0,0,1,1,2,2,3,3,4,4,5,5,6,6,7,7,8,8,9,9,10,10,11,11,12,12,13,13,14,14],"right_children":[2,4,6,8,10,12,14,16,18,20,22,24,26,28,30,-1,-1,-1,-1,-1,-1,-1,-1,-1,-1,-1,-1,-1,-1,-1,-1],"split_conditions":[4.1525874E0,-1.520331E2,1.1945574E2,-1.2E1,0E0,3.3E0,7.2E0,1.1E1,8.6E0,1.5287797E3,9.92E1,1.4499985E3,4.0262966E1,7E0,3.0797516E2,-5.1872972E-3,-7.854898E-3,-3.951143E-3,8.660718E-5,-2.451521E-3,-6.592464E-4,-2.386489E-3,4.4668958E-4,-0E0,2.3091107E-3,-1.3955176E-3,1.0270688E-3,5.842133E-4,3.363313E-3,4.13381E-3,5.9942985E-3],"split_indices":[119,119,119,137,141,133,141,110,142,117,131,117,119,90,119,0,0,0,0,0,0,0,0,0,0,0,0,0,0,0,0],"split_type":[0,0,0,0,0,0,0,0,0,0,0,0,0,0,0,0,0,0,0,0,0,0,0,0,0,0,0,0,0,0,0],"sum_hessian":[2.055102E3,1.0407953E3,1.01430676E3,3.3909067E2,7.017047E2,5.555512E2,4.5875552E2,1.2797584E2,2.1111482E2,4.6805756E2,2.3364713E2,4.3044687E2,1.25104355E2,1.9513437E2,2.6362115E2,8.43791E1,4.359674E1,2.0161427E2,9.5005455E0,3.3795267E2,1.301049E2,4.6102436E1,1.875447E2,7.036427E1,3.600826E2,5.5407223E1,6.969713E1,3.9562397E1,1.5557198E2,2.1671873E2,4.6902424E1],"tree_param":{"num_deleted":"0","num_feature":"205","num_nodes":"31","size_leaf_vector":"1"}},{"base_weights":[-2.4003587E-3,-5.336577E-1,6.2198293E-1,-1.0703486E0,-2.9179585E-1,4.343719E-1,9.82027E-1,-1.5356231E0,-8.8430035E-1,-4.686481E-1,2.4319893E-2,3.1171542E-1,6.836764E-1,1.0608342E0,3.4869212E-1,-3.5295668E-3,-7.329623E-3,-4.236851E-3,-6.620417E-4,-1.2764452E-3,-2.817298E-3,4.318874E-4,-3.3719458E-3,1.6384934E-3,-7.779308E-4,-0E0,3.2476617E-3,3.5762736E-3,5.0882436E-3,4.12518E-3,-9.896909E-4],"categories":[],"categories_nodes":[],"categories_segments":[],"categories_sizes":[],"default_left":[0,0,0,0,0,0,0,0,0,0,0,0,0,0,0,0,0,0,0,0,0,0,0,0,0,0,0,0,0,0,0],"id":8,"left_children":[1,3,5,7,9,11,13,15,17,19,21,23,25,27,29,-1,-1,-1,-1,-1,-1,-1,-1,-1,-1,-1,-1,-1,-1,-1,-1],"loss_changes":[6.9621924E2,1.4583499E2,6.3524628E1,2.7378357E1,4.429493E1,1.8376343E1,1.4807648E1,5.695114E0,1.2428146E1,1.4280052E1,1.5487961E1,1.24878845E1,6.8890305E0,4.1511536E0,1.3611824E1,0E0,0E0,0E0,0E0,0E0,0E0,0E0,0E0,0E0,0E0,0E0,0E0,0E0,0E0,0E0,0E0],"parents":[2147483647,0,0,1,1,2,2,3,3,4,4,5,5,6,6,7,7,8,8,9,9,10,10,11,11,12,12,13,13,14,14],"right_children":[2,4,6,8,10,12,14,16,18,20,22,24,26,28,30,-1,-1,-1,-1,-1,-1,-1,-1,-1,-1,-1,-1,-1,-1,-1,-1],"split_conditions":[1.8476126E1,-1.4925996E2,1.6116786E2,-2.6542593E2,1E-1,6.5E0,1.133E2,-2.8E0,5.4E0,2.1700832E7,9.8E0,6E0,-3.55E1,4E-1,1.6285452E3,-3.5295668E-3,-7.329623E-3,-4.236851E-3,-6.620417E-4,-1.2764452E-3,-2.817298E-3,4.318874E-4,-3.3719458E-3,1.6384934E-3,-7.779308E-4,-0E0,3.2476617E-3,3.5762736E-3,5.0882436E-3,4.12518E-3,-9.896909E-4],"split_indices":[119,119,119,119,141,141,134,139,142,0,139,150,175,138,117,0,0,0,0,0,0,0,0,0,0,0,0,0,0,0,0],"split_type":[0,0,0,0,0,0,0,0,0,0,0,0,0,0,0,0,0,0,0,0,0,0,0,0,0,0,0,0,0,0,0],"sum_hessian":[2.0982556E3,1.1345669E3,9.636887E2,3.5070306E2,7.8386383E2,6.3602563E2,3.2766306E2,9.77176E1,2.5298547E2,5.0453204E2,2.793318E2,4.2964572E2,2.0637993E2,2.897359E2,3.7927174E1,1.5352371E1,8.236523E1,2.2876328E2,2.4222197E1,2.4678368E2,2.5774835E2,2.5703864E2,2.2293152E1,3.8553137E2,4.4114353E1,1.4497806E1,1.9188213E2,7.944184E1,2.1029405E2,1.9502918E1,1.8424255E1],"tree_param":{"num_deleted":"0","num_feature":"205","num_nodes":"31","size_leaf_vector":"1"}},{"base_weights":[1.28155155E-2,-5.5024946E-1,5.827586E-1,-1.0811853E0,-2.9373658E-1,3.000385E-1,8.233301E-1,-1.3146378E0,-8.321161E-1,-4.4186014E-1,-4.786373E-2,6.209634E-1,2.2421408E-1,6.995531E-1,1.135661E0,-6.542135E-3,-4.535111E-3,-2.9019876E-3,-5.959409E-3,-3.204705E-3,-1.485782E-3,3.5089436E-3,-4.925673E-4,-1.2753507E-3,3.2760305E-3,-1.2518743E-3,1.2333089E-3,3.2505495E-3,-1.521477E-3,2.2742723E-3,5.2286005E-3],"categories":[],"categories_nodes":[],"categories_segments":[],"categories_sizes":[],"default_left":[0,0,0,0,0,0,0,0,0,0,0,0,0,0,0,0,0,0,0,0,0,0,0,0,0,0,0,0,0,0,0],"id":9,"left_children":[1,3,5,7,9,11,13,15,17,19,21,23,25,27,29,-1,-1,-1,-1,-1,-1,-1,-1,-1,-1,-1,-1,-1,-1,-1,-1],"loss_changes":[6.609816E2,1.394704E2,6.844571E1,1.6895874E1,2.4991074E1,1.0619923E1,1.9129517E1,4.9122314E0,1.2651604E1,1.1843208E1,1.3553562E1,1.0057964E1,1.0695993E1,1.5005157E1,2.4038544E0,0E0,0E0,0E0,0E0,0E0,0E0,0E0,0E0,0E0,0E0,0E0,0E0,0E0,0E0,0E0,0E0],"parents":[2147483647,0,0,1,1,2,2,3,3,4,4,5,5,6,6,7,7,8,8,9,9,10,10,11,11,12,12,13,13,14,14],"right_children":[2,4,6,8,10,12,14,16,18,20,22,24,26,28,30,-1,-1,-1,-1,-1,-1,-1,-1,-1,-1,-1,-1,-1,-1,-1,-1],"split_conditions":[4.1525874E0,-1.520331E2,9.518114E1,-2.1380817E2,-8E-1,2.12009E7,2.3045969E2,-4E0,1.181E2,-1.16E1,-1.42E1,-7.4E0,-6.1E0,3.89E0,-2.4E0,-6.542135E-3,-4.535111E-3,-2.9019876E-3,-5.959409E-3,-3.204705E-3,-1.485782E-3,3.5089436E-3,-4.925673E-4,-1.2753507E-3,3.2760305E-3,-1.2518743E-3,1.2333089E-3,3.2505495E-3,-1.521477E-3,2.2742723E-3,5.2286005E-3],"split_indices":[119,119,119,119,141,0,119,121,7,137,139,154,141,10,125,0,0,0,0,0,0,0,0,0,0,0,0,0,0,0,0],"split_type":[0,0,0,0,0,0,0,0,0,0,0,0,0,0,0,0,0,0,0,0,0,0,0,0,0,0,0,0,0,0,0],"sum_hessian":[2.0586782E3,1.0347175E3,1.02396075E3,3.3532645E2,6.9939105E2,4.7310892E2,5.508518E2,1.7003427E2,1.6529218E2,4.3370465E2,2.656864E2,8.729187E1,3.8581705E2,3.9783316E2,1.5301866E2,1.053409E2,6.469338E1,1.2528257E2,4.000961E1,1.1525946E2,3.184452E2,1.7176239E1,2.4851015E2,9.080719E0,7.821115E1,3.5456665E1,3.5036038E2,3.860074E2,1.1825786E1,1.235037E1,1.4066829E2],"tree_param":{"num_deleted":"0","num_feature":"205","num_nodes":"31","size_leaf_vector":"1"}},{"base_weights":[9.368619E-3,-6.465769E-1,4.722692E-1,-1.1456088E0,-4.114304E-1,2.3080908E-1,8.7192446E-1,-1.263305E0,-7.2217673E-1,-5.2299964E-1,-1.01735495E-1,4.0080346E-2,3.8790727E-1,7.605427E-1,1.1166437E0,-1.4065276E-3,-5.8021396E-3,-1.7064507E-3,-5.023151E-3,-2.703506E-3,-9.3937066E-4,-2.5066938E-3,3.5179208E-4,-3.0512111E-3,5.196639E-4,-9.764154E-4,1.9173993E-3,3.0073465E-3,5.519673E-3,5.20003E-3,1.2340851E-3],"categories":[],"categories_nodes":[],"categories_segments":[],"categories_sizes":[],"default_left":[0,0,0,0,0,0,0,0,0,0,0,0,0,0,0,0,0,0,0,0,0,0,0,0,0,0,0,0,0,0,0],"id":10,"left_children":[1,3,5,7,9,11,13,15,17,19,21,23,25,27,29,-1,-1,-1,-1,-1,-1,-1,-1,-1,-1,-1,-1,-1,-1,-1,-1],"loss_changes":[6.246414E2,9.8037964E1,1.1531662E2,1.1109009E1,1.9399544E1,2.2182041E1,1.0097168E1,7.633362E0,6.8751945E0,1.0698372E1,1.3688253E1,1.8888828E1,1.1589203E1,1.0143555E1,5.14209E0,0E0,0E0,0E0,0E0,0E0,0E0,0E0,0E0,0E0,0E0,0E0,0E0,0E0,0E0,0E0,0E0],"parents":[2147483647,0,0,1,1,2,2,3,3,4,4,5,5,6,6,7,7,8,8,9,9,10,10,11,11,12,12,13,13,14,14],"right_children":[2,4,6,8,10,12,14,16,18,20,22,24,26,28,30,-1,-1,-1,-1,-1,-1,-1,-1,-1,-1,-1,-1,-1,-1,-1,-1],"split_conditions":[-2.9338337E1,-1.7278366E2,1.2148805E2,-4E-1,1E-1,3.292136E1,2.3621416E2,-7E0,-2.8E-2,1.5278667E3,9.95E1,-1.11E0,-1.98E1,1.42E1,5E0,-1.4065276E-3,-5.8021396E-3,-1.7064507E-3,-5.023151E-3,-2.703506E-3,-9.3937066E-4,-2.5066938E-3,3.5179208E-4,-3.0512111E-3,5.196639E-4,-9.764154E-4,1.9173993E-3,3.0073465E-3,5.519673E-3,5.20003E-3,1.2340851E-3],"split_indices":[119,119,119,121,141,119,119,193,177,117,6,153,63,141,61,0,0,0,0,0,0,0,0,0,0,0,0,0,0,0,0],"split_type":[0,0,0,0,0,0,0,0,0,0,0,0,0,0,0,0,0,0,0,0,0,0,0,0,0,0,0,0,0,0,0],"sum_hessian":[2.0568633E3,8.500236E2,1.2068397E3,2.7033694E2,5.7968665E2,7.54308E2,4.5253177E2,2.0900137E2,6.1335575E1,4.235704E2,1.5611629E2,3.4380365E2,4.1050436E2,3.1505215E2,1.3747963E2,1.1200034E1,1.9780135E2,3.559242E1,2.5743155E1,3.273811E2,9.618928E1,4.5076633E1,1.1103964E2,3.1379868E1,3.1242377E2,2.6813644E1,3.836907E2,2.727514E2,4.2300724E1,1.2725691E2,1.0222716E1],"tree_param":{"num_deleted":"0","num_feature":"205","num_nodes":"31","size_leaf_vector":"1"}},{"base_weights":[-1.5626423E-2,-5.722358E-1,5.509091E-1,-1.278989E0,-4.0040642E-1,3.4829113E-1,8.94894E-1,-1.6038615E0,-1.1277839E0,-6.1331326E-1,-2.1593858E-1,4.1556343E-1,-2.9295132E-2,9.2661965E-1,-1.1262792E-3,-4.1629816E-3,-7.664438E-3,-2.530768E-4,-5.2930694E-3,-8.8808674E-4,-3.0878985E-3,-4.333938E-4,-1.9159265E-3,2.8763833E-3,1.5066956E-3,-1.7556698E-3,1.3329588E-3,2.9532264E-3,4.4666864E-3],"categories":[],"categories_nodes":[],"categories_segments":[],"categories_sizes":[],"default_left":[0,0,0,0,0,0,0,0,0,0,0,0,0,0,0,0,0,0,0,0,0,0,0,0,0,0,0,0,0],"id":11,"left_children":[1,3,5,7,9,11,13,15,17,19,21,23,25,27,-1,-1,-1,-1,-1,-1,-1,-1,-1,-1,-1,-1,-1,-1,-1],"loss_changes":[6.59186E2,1.2625348E2,7.0763306E1,6.540924E0,3.252545E1,1.7000366E1,1.4688751E1,1.8651428E0,9.198059E0,1.2699402E1,1.1204685E1,8.727211E0,1.1934666E1,6.0052185E0,0E0,0E0,0E0,0E0,0E0,0E0,0E0,0E0,0E0,0E0,0E0,0E0,0E0,0E0,0E0],"parents":[2147483647,0,0,1,1,2,2,3,3,4,4,5,5,6,6,7,7,8,8,9,9,10,10,11,11,12,12,13,13],"right_children":[2,4,6,8,10,12,14,16,18,20,22,24,26,28,-1,-1,-1,-1,-1,-1,-1,-1,-1,-1,-1,-1,-1,-1,-1],"split_conditions":[4.1525874E0,-1.9826341E2,1.4449736E2,-9E0,-8.39379E1,2.2300396E7,1.191E2,1E1,-1.04E1,9.96E1,1E0,2.130016E7,-1E-2,-6E-1,-1.1262792E-3,-4.1629816E-3,-7.664438E-3,-2.530768E-4,-5.2930694E-3,-8.8808674E-4,-3.0878985E-3,-4.333938E-4,-1.9159265E-3,2.8763833E-3,1.5066956E-3,-1.7556698E-3,1.3329588E-3,2.9532264E-3,4.4666864E-3],"split_indices":[119,119,119,121,119,0,134,36,125,127,195,0,153,138,0,0,0,0,0,0,0,0,0,0,0,0,0,0,0],"split_type":[0,0,0,0,0,0,0,0,0,0,0,0,0,0,0,0,0,0,0,0,0,0,0,0,0,0,0,0,0],"sum_hessian":[2.0894377E3,1.0548356E3,1.0346022E3,2.0460092E2,8.502346E2,6.5347974E2,3.811224E2,6.1520115E1,1.4308081E2,3.917034E2,4.5853122E2,5.568578E2,9.662195E1,3.7181235E2,9.310053E0,1.1810812E1,4.97093E1,9.488893E0,1.3359192E2,6.876529E1,3.229381E2,3.0038046E2,1.5815076E2,1.3113248E2,4.2572528E2,4.71383E1,4.9483646E1,9.372572E1,2.7808664E2],"tree_param":{"num_deleted":"0","num_feature":"205","num_nodes":"29","size_leaf_vector":"1"}},{"base_weights":[-6.593844E-3,-5.349178E-1,4.0570194E-1,-9.229993E-1,-2.4840802E-1,1.5227295E-1,7.528241E-1,-5.860789E-1,-1.2300292E0,-4.312526E-2,-5.4621667E-1,-7.862088E-2,4.002191E-1,9.269194E-1,4.4448858E-1,-3.594174E-3,-1.0380071E-3,-5.7917433E-3,-2.9594235E-3,-6.806761E-4,2.308267E-3,-3.1542405E-3,-7.790216E-4,5.50069E-4,-2.0287526E-3,2.4760962E-3,-0E0,4.9304456E-4,4.444534E-3,1.3750532E-3,4.5099817E-3],"categories":[],"categories_nodes":[],"categories_segments":[],"categories_sizes":[],"default_left":[0,0,0,0,0,0,0,0,0,0,0,0,0,0,0,0,0,0,0,0,0,0,0,0,0,0,0,0,0,0,0],"id":12,"left_children":[1,3,5,7,9,11,13,15,17,19,21,23,25,27,29,-1,-1,-1,-1,-1,-1,-1,-1,-1,-1,-1,-1,-1,-1,-1,-1],"loss_changes":[4.5282104E2,1.0013504E2,1.0164293E2,3.776703E1,3.1605568E1,3.9052658E1,2.4773315E1,1.3675411E1,6.4568787E0,1.9310404E1,1.2181301E1,2.721277E1,2.1110756E1,1.8444092E1,1.2362789E1,0E0,0E0,0E0,0E0,0E0,0E0,0E0,0E0,0E0,0E0,0E0,0E0,0E0,0E0,0E0,0E0],"parents":[2147483647,0,0,1,1,2,2,3,3,4,4,5,5,6,6,7,7,8,8,9,9,10,10,11,11,12,12,13,13,14,14],"right_children":[2,4,6,8,10,12,14,16,18,20,22,24,26,28,30,-1,-1,-1,-1,-1,-1,-1,-1,-1,-1,-1,-1,-1,-1,-1,-1],"split_conditions":[-1.2E0,1.4357794E3,6.5E0,1.5359387E3,1.593473E3,1.5359932E3,1.4677928E3,1.3735312E3,1.6E1,1.5911172E3,4.4E0,1.5060778E3,1.5871449E3,1.4325304E3,1.6914398E3,-3.594174E-3,-1.0380071E-3,-5.7917433E-3,-2.9594235E-3,-6.806761E-4,2.308267E-3,-3.1542405E-3,-7.790216E-4,5.50069E-4,-2.0287526E-3,2.4760962E-3,-0E0,4.9304456E-4,4.444534E-3,1.3750532E-3,4.5099817E-3],"split_indices":[141,117,141,118,118,117,118,117,103,117,48,118,118,117,117,0,0,0,0,0,0,0,0,0,0,0,0,0,0,0,0],"split_type":[0,0,0,0,0,0,0,0,0,0,0,0,0,0,0,0,0,0,0,0,0,0,0,0,0,0,0,0,0,0,0],"sum_hessian":[2.0773345E3,9.1154395E2,1.1657906E3,3.8524792E2,5.26296E2,6.7586487E2,4.8992572E2,1.8585182E2,1.9939612E2,3.1382745E2,2.1246855E2,3.4804773E2,3.2781714E2,3.104865E2,1.7943922E2,1.1104095E2,7.481088E1,1.7282542E2,2.6570683E1,2.641461E2,4.9681362E1,1.4441962E2,6.8048935E1,2.2533565E2,1.2271209E2,2.3498119E2,9.283595E1,2.8095598E1,2.8239093E2,1.4751128E2,3.192794E1],"tree_param":{"num_deleted":"0","num_feature":"205","num_nodes":"31","size_leaf_vector":"1"}},{"base_weights":[3.152577E-3,-4.4261712E-1,6.1980116E-1,-1.0868417E0,-2.418046E-1,3.8508585E-1,9.1634065E-1,-1.1345872E0,-0E0,-3.7533113E-1,2.873556E-2,-3.040604E-3,4.2790836E-1,7.17753E-1,1.0837228E0,-2.8840709E-3,-5.406045E-3,-3.8002948E-3,-1.4200886E-3,-1.9334053E-3,5.6662527E-4,1.3280943E-3,2.9150762E-3,4.190213E-3,2.185693E-3,5.1840027E-3,2.7848857E-3],"categories":[],"categories_nodes":[],"categories_segments":[],"categories_sizes":[],"default_left":[0,0,0,0,0,0,0,0,0,0,0,0,0,0,0,0,0,0,0,0,0,0,0,0,0,0,0],"id":13,"left_children":[1,3,5,7,9,11,13,15,-1,17,19,-1,21,23,25,-1,-1,-1,-1,-1,-1,-1,-1,-1,-1,-1,-1],"loss_changes":[5.6854425E2,1.5369594E2,5.899521E1,1.359198E1,3.3438404E1,2.2252281E1,1.0539032E1,9.144531E0,0E0,1.4912697E1,1.3616215E1,0E0,1.2816574E1,7.511223E0,5.9747314E0,0E0,0E0,0E0,0E0,0E0,0E0,0E0,0E0,0E0,0E0,0E0,0E0],"parents":[2147483647,0,0,1,1,2,2,3,3,4,4,5,5,6,6,7,7,9,9,10,10,12,12,13,13,14,14],"right_children":[2,4,6,8,10,12,14,16,-1,18,20,-1,22,24,26,-1,-1,-1,-1,-1,-1,-1,-1,-1,-1,-1,-1],"split_conditions":[3.13126E1,-1.668264E2,1.4245491E2,1.3E0,6E-1,-7.7E0,3.7E0,1.003E2,-0E0,-1.66E1,-5.6E0,-3.040604E-3,6.3E0,0E0,1.116E2,-2.8840709E-3,-5.406045E-3,-3.8002948E-3,-1.4200886E-3,-1.9334053E-3,5.6662527E-4,1.3280943E-3,2.9150762E-3,4.190213E-3,2.185693E-3,5.1840027E-3,2.7848857E-3],"split_indices":[119,119,119,141,141,125,125,127,0,137,149,0,141,192,134,0,0,0,0,0,0,0,0,0,0,0,0],"split_type":[0,0,0,0,0,0,0,0,0,0,0,0,0,0,0,0,0,0,0,0,0,0,0,0,0,0,0],"sum_hessian":[2.0667717E3,1.1987322E3,8.680394E2,2.832147E2,9.155175E2,4.869783E2,3.8106113E2,2.7040146E2,1.281322E1,6.1532465E2,3.0019287E2,1.755172E1,4.6942657E2,1.7809113E2,2.0297002E2,4.3563766E1,2.2683769E2,5.979358E1,5.5553107E2,5.0736637E1,2.4945624E2,3.0552136E2,1.6390521E2,8.5125046E1,9.296607E1,1.6774289E2,3.5227116E1],"tree_param":{"num_deleted":"0","num_feature":"205","num_nodes":"27","size_leaf_vector":"1"}},{"base_weights":[-7.7873967E-3,-6.7425627E-1,4.7471863E-1,-1.282054E0,-4.7985303E-1,1.9166559E-1,7.9598045E-1,-1.7238298E-3,-1.3263342E0,-5.7578343E-1,-1.997392E-1,-1.1191456E-1,2.6660103E-1,5.284089E-1,9.799166E-1,-6.058462E-3,-1.8469966E-3,-2.760269E-3,-8.207554E-5,-2.6698331E-3,1.0825762E-4,1.7300877E-3,-1.2141162E-3,1.5861398E-4,1.7892343E-3,1.8727517E-4,2.7703547E-3,4.0170792E-3,6.15948E-3],"categories":[],"categories_nodes":[],"categories_segments":[],"categories_sizes":[],"default_left":[0,0,0,0,0,0,0,0,0,0,0,0,0,0,0,0,0,0,0,0,0,0,0,0,0,0,0,0,0],"id":14,"left_children":[1,3,5,7,9,11,13,-1,15,17,19,21,23,25,27,-1,-1,-1,-1,-1,-1,-1,-1,-1,-1,-1,-1,-1,-1],"loss_changes":[6.7006244E2,1.01433655E2,1.08745544E2,6.38739E0,1.7056763E1,1.4820528E1,2.6012177E1,0E0,5.6834717E0,1.2506668E1,1.6240347E1,1.0157211E1,1.6055737E1,1.0363846E1,7.005127E0,0E0,0E0,0E0,0E0,0E0,0E0,0E0,0E0,0E0,0E0,0E0,0E0,0E0,0E0],"parents":[2147483647,0,0,1,1,2,2,3,3,4,4,5,5,6,6,8,8,9,9,10,10,11,11,12,12,13,13,14,14],"right_children":[2,4,6,8,10,12,14,-1,16,18,20,22,24,26,28,-1,-1,-1,-1,-1,-1,-1,-1,-1,-1,-1,-1,-1,-1],"split_conditions":[-2.6643272E1,-1.9826341E2,9.326932E1,-8.8E0,1E-1,3.33E-1,6.5E0,-1.7238298E-3,2.7E0,1.5722583E3,-1.1E-1,-1.14E-1,-1.2E0,-1E0,3.0797516E2,-6.058462E-3,-1.8469966E-3,-2.760269E-3,-8.207554E-5,-2.6698331E-3,1.0825762E-4,1.7300877E-3,-1.2141162E-3,1.5861398E-4,1.7892343E-3,1.8727517E-4,2.7703547E-3,4.0170792E-3,6.15948E-3],"split_indices":[119,119,119,145,141,47,141,0,125,117,159,162,137,167,119,0,0,0,0,0,0,0,0,0,0,0,0,0,0],"split_type":[0,0,0,0,0,0,0,0,0,0,0,0,0,0,0,0,0,0,0,0,0,0,0,0,0,0,0,0,0],"sum_hessian":[2.0821729E3,8.7518866E2,1.2069843E3,2.102407E2,6.6494794E2,6.436772E2,5.63307E2,1.1207544E1,1.9903317E2,4.923173E2,1.7263065E2,1.24757195E2,5.1892E2,2.3239453E2,3.309125E2,1.8886784E2,1.0165325E1,4.5165915E2,4.0658165E1,6.2972992E1,1.0965765E2,2.880822E1,9.5948975E1,1.9681647E2,3.2210355E2,4.0653843E1,1.9174069E2,2.8479224E2,4.6120277E1],"tree_param":{"num_deleted":"0","num_feature":"205","num_nodes":"29","size_leaf_vector":"1"}},{"base_weights":[1.0943417E-2,-6.877007E-1,4.4358718E-1,-1.2757922E0,-4.7874615E-1,1.0950962E-1,7.631413E-1,-1.3199728E0,-8.895593E-4,-7.166819E-1,-3.3126906E-1,4.5361567E-2,4.6462047E-1,6.513722E-1,1.1510372E0,-1.9300139E-3,-6.0408986E-3,1.1686016E-3,-3.3773812E-3,-3.4237462E-3,-1.1165744E-3,5.780603E-4,-1.0616506E-3,-2.1512148E-3,2.5629264E-3,-1.9609286E-4,3.0374215E-3,5.5937036E-3,3.884199E-3],"categories":[],"categories_nodes":[],"categories_segments":[],"categories_sizes":[],"default_left":[0,0,0,0,0,0,0,0,0,0,0,0,0,0,0,0,0,0,0,0,0,0,0,0,0,0,0,0,0],"id":15,"left_children":[1,3,5,7,9,11,13,15,-1,17,19,21,23,25,27,-1,-1,-1,-1,-1,-1,-1,-1,-1,-1,-1,-1,-1,-1],"loss_changes":[6.346904E2,9.65896E1,1.3767651E2,8.28479E0,1.9695923E1,1.39866E1,2.6565308E1,5.872864E0,0E0,1.080275E1,1.1822987E1,1.3088466E1,1.0556501E1,1.3210831E1,1.8587646E0,0E0,0E0,0E0,0E0,0E0,0E0,0E0,0E0,0E0,0E0,0E0,0E0,0E0,0E0],"parents":[2147483647,0,0,1,1,2,2,3,3,4,4,5,5,6,6,7,7,9,9,10,10,11,11,12,12,13,13,14,14],"right_children":[2,4,6,8,10,12,14,16,-1,18,20,22,24,26,28,-1,-1,-1,-1,-1,-1,-1,-1,-1,-1,-1,-1,-1,-1],"split_conditions":[-4.100836E1,-1.9826341E2,7.7040596E1,1.78E1,-7.4E0,1.67E1,2.3621416E2,-9E0,-8.895593E-4,8.9E1,-1.5850409E2,1.122E2,-1.1E1,-8.8E0,1.7E1,-1.9300139E-3,-6.0408986E-3,1.1686016E-3,-3.3773812E-3,-3.4237462E-3,-1.1165744E-3,5.780603E-4,-1.0616506E-3,-2.1512148E-3,2.5629264E-3,-1.9609286E-4,3.0374215E-3,5.5937036E-3,3.884199E-3],"split_indices":[119,119,119,34,137,181,119,145,0,135,119,127,137,137,36,0,0,0,0,0,0,0,0,0,0,0,0,0,0],"split_type":[0,0,0,0,0,0,0,0,0,0,0,0,0,0,0,0,0,0,0,0,0,0,0,0,0,0,0,0,0],"sum_hessian":[2.0996885E3,8.020128E2,1.2976757E3,2.0840622E2,5.9360657E2,6.362384E2,6.614372E2,1.9918994E2,9.216271E0,2.2389581E2,3.6971075E2,5.416947E2,9.454371E1,5.164085E2,1.450287E2,1.09446745E1,1.8824527E2,9.056563E0,2.1483926E2,5.350642E1,3.1620435E2,4.199238E2,1.2177092E2,9.069106E0,8.54746E1,2.3318956E1,4.9308957E2,9.892849E1,4.6100212E1],"tree_param":{"num_deleted":"0","num_feature":"205","num_nodes":"29","size_leaf_vector":"1"}},{"base_weights":[1.34989675E-2,-6.583463E-1,4.8606548E-1,-1.3053322E0,-4.5070663E-1,2.0454027E-1,8.0791897E-1,-1.552872E-3,-1.35027E0,-5.4790187E-1,-1.0986669E-1,2.4036421E-1,-4.3266943E-1,-9.269012E-4,8.382327E-1,-2.9119544E-3,-6.2252535E-3,-1.1469981E-3,-2.7207066E-3,-1.4095274E-3,9.321052E-4,-1.6541837E-3,1.236049E-3,-3.947184E-3,-2.4099648E-4,3.1471313E-3,4.8122397E-3],"categories":[],"categories_nodes":[],"categories_segments":[],"categories_sizes":[],"default_left":[0,0,0,0,0,0,0,0,0,0,0,0,0,0,0,0,0,0,0,0,0,0,0,0,0,0,0],"id":16,"left_children":[1,3,5,7,9,11,13,-1,15,17,19,21,23,-1,25,-1,-1,-1,-1,-1,-1,-1,-1,-1,-1,-1,-1],"loss_changes":[6.595521E2,1.1314157E2,1.0952942E2,6.9666443E0,2.0877167E1,1.4771208E1,1.82146E1,0E0,5.186432E0,8.784775E0,9.980766E0,1.4781002E1,4.847942E0,0E0,1.5356598E1,0E0,0E0,0E0,0E0,0E0,0E0,0E0,0E0,0E0,0E0,0E0,0E0],"parents":[2147483647,0,0,1,1,2,2,3,3,4,4,5,5,6,6,8,8,9,9,10,10,11,11,12,12,14,14],"right_children":[2,4,6,8,10,12,14,-1,16,18,20,22,24,-1,26,-1,-1,-1,-1,-1,-1,-1,-1,-1,-1,-1,-1],"split_conditions":[-2.9338337E1,-1.9826341E2,9.518114E1,-8.8E0,8E-1,6E0,-6.6E0,-1.552872E-3,-2E0,9.94E1,1.9E0,-7.7E0,-2E0,-9.269012E-4,2.1592433E2,-2.9119544E-3,-6.2252535E-3,-1.1469981E-3,-2.7207066E-3,-1.4095274E-3,9.321052E-4,-1.6541837E-3,1.236049E-3,-3.947184E-3,-2.4099648E-4,3.1471313E-3,4.8122397E-3],"split_indices":[119,119,119,145,141,196,125,0,188,130,172,125,48,0,119,0,0,0,0,0,0,0,0,0,0,0,0],"split_type":[0,0,0,0,0,0,0,0,0,0,0,0,0,0,0,0,0,0,0,0,0,0,0,0,0,0,0],"sum_hessian":[2.0770215E3,8.567303E2,1.2202913E3,2.0640907E2,6.5032117E2,6.529677E2,5.6732355E2,1.04548855E1,1.959542E2,5.0353775E2,1.4678343E2,6.199555E2,3.3012234E1,1.5388579E1,5.51935E2,1.6497854E1,1.7945634E2,9.7858E1,4.0567975E2,9.079081E1,5.599262E1,3.519216E1,5.847633E2,1.3445976E1,1.9566257E1,3.692019E2,1.827331E2],"tree_param":{"num_deleted":"0","num_feature":"205","num_nodes":"27","size_leaf_vector":"1"}},{"base_weights":[1.422509E-2,-4.4468588E-1,4.9214077E-1,-8.758731E-1,-1.6702725E-1,2.5825998E-1,8.166155E-1,-6.575643E-1,-1.3358306E0,3.0431038E-1,-3.2892814E-1,3.705784E-1,-0E0,9.644394E-1,3.7581727E-1,-3.9236583E-3,-1.5127498E-3,-8.5338484E-4,-6.37277E-3,-9.309713E-4,2.0616075E-3,-2.5515864E-3,-4.0272067E-4,9.219845E-4,2.6539487E-3,-3.0655854E-3,3.7344397E-4,7.5656996E-4,4.584683E-3,4.706238E-3,1.0122735E-3],"categories":[],"categories_nodes":[],"categories_segments":[],"categories_sizes":[],"default_left":[0,0,0,0,0,0,0,0,0,0,0,0,0,0,0,0,0,0,0,0,0,0,0,0,0,0,0,0,0,0,0],"id":17,"left_children":[1,3,5,7,9,11,13,15,17,19,21,23,25,27,29,-1,-1,-1,-1,-1,-1,-1,-1,-1,-1,-1,-1,-1,-1,-1,-1],"loss_changes":[4.55267E2,1.2553844E2,7.607463E1,3.9075165E1,4.932068E1,1.6900414E1,2.6153503E1,1.9053116E1,1.3831909E1,1.3902999E1,2.7718529E1,1.44356575E1,1.0175334E1,1.6625885E1,9.628078E0,0E0,0E0,0E0,0E0,0E0,0E0,0E0,0E0,0E0,0E0,0E0,0E0,0E0,0E0,0E0,0E0],"parents":[2147483647,0,0,1,1,2,2,3,3,4,4,5,5,6,6,7,7,8,8,9,9,10,10,11,11,12,12,13,13,14,14],"right_children":[2,4,6,8,10,12,14,16,18,20,22,24,26,28,30,-1,-1,-1,-1,-1,-1,-1,-1,-1,-1,-1,-1,-1,-1,-1,-1],"split_conditions":[3E-1,1.4344526E3,7.3E0,1.5766636E3,1.5048485E3,1.5452373E3,1.4967974E3,1.3735312E3,9.8E1,-6.9E0,1.5287797E3,1.540703E3,-6E0,1.4391271E3,1.22E1,-3.9236583E-3,-1.5127498E-3,-8.5338484E-4,-6.37277E-3,-9.309713E-4,2.0616075E-3,-2.5515864E-3,-4.0272067E-4,9.219845E-4,2.6539487E-3,-3.0655854E-3,3.7344397E-4,7.5656996E-4,4.584683E-3,4.706238E-3,1.0122735E-3],"split_indices":[141,117,141,118,118,118,118,117,134,142,117,117,129,117,13,0,0,0,0,0,0,0,0,0,0,0,0,0,0,0,0],"split_type":[0,0,0,0,0,0,0,0,0,0,0,0,0,0,0,0,0,0,0,0,0,0,0,0,0,0,0,0,0,0,0],"sum_hessian":[2.074691E3,1.0573431E3,1.0173478E3,4.1238348E2,6.449596E2,5.9345844E2,4.2388937E2,2.8186053E2,1.3052295E2,1.6322511E2,4.817345E2,4.1106775E2,1.8239066E2,3.1534515E2,1.0854423E2,1.6108452E2,1.2077602E2,1.1798421E1,1.1872453E2,3.748289E1,1.2574222E2,2.3371063E2,2.4802388E2,2.4367264E2,1.6739511E2,1.8317112E1,1.6407355E2,2.7329151E1,2.88016E2,1.7443789E1,9.110044E1],"tree_param":{"num_deleted":"0","num_feature":"205","num_nodes":"31","size_leaf_vector":"1"}},{"base_weights":[-8.660183E-3,-5.433856E-1,5.338459E-1,-1.0278163E0,-3.1220752E-1,3.5725108E-1,9.354802E-1,-1.5267462E0,-9.27313E-1,-4.4822085E-1,-5.261648E-2,2.3256508E-1,6.24146E-1,8.0724925E-1,1.2753484E0,-3.5695578E-3,-7.883735E-3,-5.811555E-4,-4.268917E-3,-2.5601466E-3,-7.3181064E-4,-3.0058855E-3,2.4195878E-4,1.4292336E-3,-1.2521615E-3,-1.1397079E-3,2.9536642E-3,3.8016248E-3,-3.403236E-4,5.9175515E-3,3.0170893E-3],"categories":[],"categories_nodes":[],"categories_segments":[],"categories_sizes":[],"default_left":[0,0,0,0,0,0,0,0,0,0,0,0,0,0,0,0,0,0,0,0,0,0,0,0,0,0,0,0,0,0,0],"id":18,"left_children":[1,3,5,7,9,11,13,15,17,19,21,23,25,27,29,-1,-1,-1,-1,-1,-1,-1,-1,-1,-1,-1,-1,-1,-1,-1,-1],"loss_changes":[5.9981604E2,1.1523898E2,7.1293884E1,1.372464E1,2.4473396E1,2.2866364E1,1.1026245E1,6.6478043E0,7.20343E0,1.6226753E1,1.7194113E1,2.2924858E1,9.051491E0,1.1292419E1,5.9773254E-1,0E0,0E0,0E0,0E0,0E0,0E0,0E0,0E0,0E0,0E0,0E0,0E0,0E0,0E0,0E0,0E0],"parents":[2147483647,0,0,1,1,2,2,3,3,4,4,5,5,6,6,7,7,8,8,9,9,10,10,11,11,12,12,13,13,14,14],"right_children":[2,4,6,8,10,12,14,16,18,20,22,24,26,28,30,-1,-1,-1,-1,-1,-1,-1,-1,-1,-1,-1,-1,-1,-1,-1,-1],"split_conditions":[4.1525874E0,-1.520331E2,1.5818538E2,-1.82E1,-3E-1,5.9E0,1.58E1,-6E-1,1.109E2,-4.569751E1,-1.96E1,2.2300396E7,-1.31E1,2.230102E7,4.3E-2,-3.5695578E-3,-7.883735E-3,-5.811555E-4,-4.268917E-3,-2.5601466E-3,-7.3181064E-4,-3.0058855E-3,2.4195878E-4,1.4292336E-3,-1.2521615E-3,-1.1397079E-3,2.9536642E-3,3.8016248E-3,-3.403236E-4,5.9175515E-3,3.0170893E-3],"split_indices":[119,119,119,137,141,141,137,153,24,119,169,0,151,0,20,0,0,0,0,0,0,0,0,0,0,0,0,0,0,0,0],"split_type":[0,0,0,0,0,0,0,0,0,0,0,0,0,0,0,0,0,0,0,0,0,0,0,0,0,0,0,0,0,0,0],"sum_hessian":[2.0667444E3,1.0417594E3,1.0249849E3,3.3465015E2,7.0710925E2,7.142591E2,3.107258E2,5.3378723E1,2.8127142E2,4.6126724E2,2.45842E2,4.8994168E2,2.2431743E2,2.2883351E2,8.1892296E1,1.5450345E1,3.7928375E1,1.3855679E1,2.6741577E2,3.1311548E2,1.4815178E2,3.694715E1,2.0889484E2,4.186492E2,7.1292465E1,9.304159E0,2.1501326E2,2.172627E2,1.1570823E1,7.2152695E1,9.739596E0],"tree_param":{"num_deleted":"0","num_feature":"205","num_nodes":"31","size_leaf_vector":"1"}},{"base_weights":[-6.5093283E-3,-5.602029E-1,5.5697674E-1,-1.11486E0,-3.2706353E-1,3.6533576E-1,8.884249E-1,-1.379926E0,-8.402391E-1,-7.297752E-1,-2.546215E-1,4.3474832E-1,-0E0,6.7823744E-1,1.0528418E0,-4.6277167E-3,-7.2037443E-3,-1.4711069E-3,-4.2204713E-3,-6.274955E-3,-2.4347312E-3,-1.708866E-3,-2.522855E-4,-1.0600701E-3,2.0875363E-3,-2.045826E-3,1.2083167E-3,3.6053336E-3,1.2259443E-3,5.825009E-3,4.251755E-3],"categories":[],"categories_nodes":[],"categories_segments":[],"categories_sizes":[],"default_left":[0,0,0,0,0,0,0,0,0,0,0,0,0,0,0,0,0,0,0,0,0,0,0,0,0,0,0,0,0,0,0],"id":19,"left_children":[1,3,5,7,9,11,13,15,17,19,21,23,25,27,29,-1,-1,-1,-1,-1,-1,-1,-1,-1,-1,-1,-1,-1,-1,-1,-1],"loss_changes":[6.4376794E2,1.3309433E2,6.3506897E1,1.9602356E1,2.0386719E1,1.6744835E1,1.081604E1,9.293732E0,7.4255447E0,1.1258495E1,1.5814575E1,1.391745E1,1.3152073E1,7.9640274E0,2.1485596E0,0E0,0E0,0E0,0E0,0E0,0E0,0E0,0E0,0E0,0E0,0E0,0E0,0E0,0E0,0E0,0E0],"parents":[2147483647,0,0,1,1,2,2,3,3,4,4,5,5,6,6,7,7,8,8,9,9,10,10,11,11,12,12,13,13,14,14],"right_children":[2,4,6,8,10,12,14,16,18,20,22,24,26,28,30,-1,-1,-1,-1,-1,-1,-1,-1,-1,-1,-1,-1,-1,-1,-1,-1],"split_conditions":[4.1525874E0,-1.5850409E2,1.4245491E2,-2.2739404E2,-1.24E1,2.2300324E7,8.6E0,4.6E0,9.97E1,1.137E2,-4.9212402E1,-7.7E0,1.137E2,1.1E2,-3.1E0,-4.6277167E-3,-7.2037443E-3,-1.4711069E-3,-4.2204713E-3,-6.274955E-3,-2.4347312E-3,-1.708866E-3,-2.522855E-4,-1.0600701E-3,2.0875363E-3,-2.045826E-3,1.2083167E-3,3.6053336E-3,1.2259443E-3,5.825009E-3,4.251755E-3],"split_indices":[119,119,119,119,137,0,137,143,134,4,119,125,29,134,149,0,0,0,0,0,0,0,0,0,0,0,0,0,0,0,0],"split_type":[0,0,0,0,0,0,0,0,0,0,0,0,0,0,0,0,0,0,0,0,0,0,0,0,0,0,0,0,0,0,0],"sum_hessian":[2.0624583E3,1.0411603E3,1.0212981E3,3.063531E2,7.348072E2,6.496327E2,3.716654E2,1.5312366E2,1.5322942E2,1.0931249E2,6.254947E2,5.4721234E2,1.02420296E2,1.6679494E2,2.0487048E2,6.788473E1,8.523893E1,2.988777E1,1.2334165E2,2.0844372E1,8.846812E1,3.7230374E2,2.5319093E2,2.6884441E1,5.2032794E2,3.8726315E1,6.3693985E1,1.2228676E2,4.450818E1,4.877126E1,1.5609921E2],"tree_param":{"num_deleted":"0","num_feature":"205","num_nodes":"31","size_leaf_vector":"1"}},{"base_weights":[-6.6612195E-3,-5.29998E-1,5.399105E-1,-1.0312976E0,-2.92709E-1,2.991221E-1,8.499718E-1,-1.0972364E0,-2.17703E-2,-4.2112026E-1,-3.6778532E-2,-5.293701E-1,3.433082E-1,2.523063E-1,9.190818E-1,-6.0395175E-3,-4.0404825E-3,2.4773045E-3,-3.288348E-3,-2.114176E-3,1.2701146E-4,8.2731777E-4,-1.4610403E-3,-5.0299237E-3,-1.5303017E-4,1.8664253E-3,-3.131834E-4,-1.8667998E-3,2.1035408E-3,3.539596E-3,5.0665517E-3],"categories":[],"categories_nodes":[],"categories_segments":[],"categories_sizes":[],"default_left":[0,0,0,0,0,0,0,0,0,0,0,0,0,0,0,0,0,0,0,0,0,0,0,0,0,0,0,0,0,0,0],"id":20,"left_children":[1,3,5,7,9,11,13,15,17,19,21,23,25,27,29,-1,-1,-1,-1,-1,-1,-1,-1,-1,-1,-1,-1,-1,-1,-1,-1],"loss_changes":[5.897328E2,1.239451E2,7.3965576E1,2.1319275E1,2.3116867E1,2.07496E1,1.6836975E1,1.2722961E1,9.619572E0,1.25439E1,1.610323E1,7.1918993E0,1.7965698E1,7.2906866E0,8.1901245E0,0E0,0E0,0E0,0E0,0E0,0E0,0E0,0E0,0E0,0E0,0E0,0E0,0E0,0E0,0E0,0E0],"parents":[2147483647,0,0,1,1,2,2,3,3,4,4,5,5,6,6,7,7,8,8,9,9,10,10,11,11,12,12,13,13,14,14],"right_children":[2,4,6,8,10,12,14,16,18,20,22,24,26,28,30,-1,-1,-1,-1,-1,-1,-1,-1,-1,-1,-1,-1,-1,-1,-1,-1],"split_conditions":[5.8217E0,-1.4925996E2,1.2148805E2,6E0,0E0,-7.8E0,4E-1,-2.3641429E2,1E-2,2.59E1,1E0,-8E-1,2.2300396E7,3.8E1,2.3621416E2,-6.0395175E-3,-4.0404825E-3,2.4773045E-3,-3.288348E-3,-2.114176E-3,1.2701146E-4,8.2731777E-4,-1.4610403E-3,-5.0299237E-3,-1.5303017E-4,1.8664253E-3,-3.131834E-4,-1.8667998E-3,2.1035408E-3,3.539596E-3,5.0665517E-3],"split_indices":[119,119,119,142,141,141,141,119,156,184,191,172,0,107,119,0,0,0,0,0,0,0,0,0,0,0,0,0,0,0,0],"split_type":[0,0,0,0,0,0,0,0,0,0,0,0,0,0,0,0,0,0,0,0,0,0,0,0,0,0,0,0,0,0,0],"sum_hessian":[2.0608418E3,1.0537354E3,1.0071065E3,3.367066E2,7.170287E2,5.6918207E2,4.3792444E2,3.151006E2,2.1606037E1,4.746821E2,2.423466E2,2.7429005E1,5.417531E2,4.70992E1,3.9082523E2,1.25192665E2,1.899079E2,1.1253513E1,1.0352525E1,4.2359183E2,5.1090286E1,1.3565977E2,1.0668684E2,1.1151446E1,1.6277557E1,4.5751523E2,8.423785E1,1.0498273E1,3.660093E1,2.5988406E2,1.3094116E2],"tree_param":{"num_deleted":"0","num_feature":"205","num_nodes":"31","size_leaf_vector":"1"}},{"base_weights":[2.2004208E-2,-4.9971166E-1,5.5677897E-1,-9.7608024E-1,-2.6746932E-1,2.4930446E-1,8.0675536E-1,-1.0477221E0,-5.082378E-2,-4.1307506E-1,-3.653179E-2,1.3327831E-1,4.7039416E-1,5.791519E-1,9.602166E-1,-6.26422E-3,-4.0238933E-3,-1.9118284E-3,2.099893E-3,-8.4518763E-4,-2.3509678E-3,1.3906001E-4,-3.4469266E-3,-2.0588846E-3,8.5259415E-4,-3.7737092E-4,2.4604567E-3,-1.8298562E-3,2.8481889E-3,3.7188798E-3,5.143356E-3],"categories":[],"categories_nodes":[],"categories_segments":[],"categories_sizes":[],"default_left":[0,0,0,0,0,0,0,0,0,0,0,0,0,0,0,0,0,0,0,0,0,0,0,0,0,0,0,0,0,0,0],"id":21,"left_children":[1,3,5,7,9,11,13,15,17,19,21,23,25,27,29,-1,-1,-1,-1,-1,-1,-1,-1,-1,-1,-1,-1,-1,-1,-1,-1],"loss_changes":[5.81004E2,1.15148224E2,7.796335E1,2.1656464E1,2.3418491E1,1.1272486E1,1.7976562E1,1.3297272E1,5.2876034E0,1.0588707E1,1.4760357E1,1.0706345E1,7.93071E0,1.5148148E1,5.6712646E0,0E0,0E0,0E0,0E0,0E0,0E0,0E0,0E0,0E0,0E0,0E0,0E0,0E0,0E0,0E0,0E0],"parents":[2147483647,0,0,1,1,2,2,3,3,4,4,5,5,6,6,7,7,8,8,9,9,10,10,11,11,12,12,13,13,14,14],"right_children":[2,4,6,8,10,12,14,16,18,20,22,24,26,28,30,-1,-1,-1,-1,-1,-1,-1,-1,-1,-1,-1,-1,-1,-1,-1,-1],"split_conditions":[4.1525874E0,-1.4925996E2,9.326932E1,5.4E0,-1.1E0,7.4E0,6.3E0,-2.7164587E2,1E0,1.042E2,1E0,-6.1E0,1.4499985E3,2.26E-1,2.3045969E2,-6.26422E-3,-4.0238933E-3,-1.9118284E-3,2.099893E-3,-8.4518763E-4,-2.3509678E-3,1.3906001E-4,-3.4469266E-3,-2.0588846E-3,8.5259415E-4,-3.7737092E-4,2.4604567E-3,-1.8298562E-3,2.8481889E-3,3.7188798E-3,5.143356E-3],"split_indices":[119,119,119,142,141,181,141,119,176,123,116,141,117,14,119,0,0,0,0,0,0,0,0,0,0,0,0,0,0,0,0],"split_type":[0,0,0,0,0,0,0,0,0,0,0,0,0,0,0,0,0,0,0,0,0,0,0,0,0,0,0,0,0,0,0],"sum_hessian":[2.0813464E3,1.0526097E3,1.0287368E3,3.4310922E2,7.095005E2,4.635019E2,5.652349E2,3.1739838E2,2.5710865E1,4.3228314E2,2.7721732E2,3.0740152E2,1.5610037E2,2.3110565E2,3.341293E2,8.3763336E1,2.3363503E2,1.6043753E1,9.667113E0,1.5341411E2,2.7886902E2,2.5313466E2,2.408266E1,2.594973E1,2.8145178E2,1.9273148E1,1.3682722E2,1.2988552E1,2.181171E2,2.1415962E2,1.1996967E2],"tree_param":{"num_deleted":"0","num_feature":"205","num_nodes":"31","size_leaf_vector":"1"}},{"base_weights":[5.267707E-3,-4.8933113E-1,5.780845E-1,-9.883075E-1,-2.6672068E-1,2.8693044E-1,7.905214E-1,-1.0342056E0,-3.1192336E-4,-4.3707886E-1,-8.672036E-3,-5.9287418E-2,3.8593823E-1,5.6115544E-1,9.523555E-1,-3.7975325E-3,-5.849466E-3,-2.5162213E-3,-9.411416E-4,-2.283116E-3,2.483423E-4,-1.9738511E-3,1.1473638E-3,-1.2582234E-3,1.9766348E-3,4.362705E-3,1.9440453E-3,4.784809E-3,3.161703E-3],"categories":[],"categories_nodes":[],"categories_segments":[],"categories_sizes":[],"default_left":[0,0,0,0,0,0,0,0,0,0,0,0,0,0,0,0,0,0,0,0,0,0,0,0,0,0,0,0,0],"id":22,"left_children":[1,3,5,7,9,11,13,15,-1,17,19,21,23,25,27,-1,-1,-1,-1,-1,-1,-1,-1,-1,-1,-1,-1,-1,-1],"loss_changes":[5.826938E2,1.21107605E2,5.7819E1,1.3132507E1,3.3160423E1,1.4219021E1,1.8639648E1,1.3597961E1,0E0,1.2684319E1,1.0550355E1,1.1104894E1,1.3120827E1,1.0335022E1,7.635193E0,0E0,0E0,0E0,0E0,0E0,0E0,0E0,0E0,0E0,0E0,0E0,0E0,0E0,0E0],"parents":[2147483647,0,0,1,1,2,2,3,3,4,4,5,5,6,6,7,7,9,9,10,10,11,11,12,12,13,13,14,14],"right_children":[2,4,6,8,10,12,14,16,-1,18,20,22,24,26,28,-1,-1,-1,-1,-1,-1,-1,-1,-1,-1,-1,-1,-1,-1],"split_conditions":[1.625509E1,-1.520331E2,9.518114E1,1.3E0,-8E-1,-4.4E0,6.3E0,7.7E0,-3.1192336E-4,1.5789089E3,-2.1E1,4E0,-6.6E0,3E0,2.1900452E7,-3.7975325E-3,-5.849466E-3,-2.5162213E-3,-9.411416E-4,-2.283116E-3,2.483423E-4,-1.9738511E-3,1.1473638E-3,-1.2582234E-3,1.9766348E-3,4.362705E-3,1.9440453E-3,4.784809E-3,3.161703E-3],"split_indices":[119,119,119,141,141,149,141,175,0,118,178,67,125,88,0,0,0,0,0,0,0,0,0,0,0,0,0,0,0],"split_type":[0,0,0,0,0,0,0,0,0,0,0,0,0,0,0,0,0,0,0,0,0,0,0,0,0,0,0,0,0],"sum_hessian":[2.0554924E3,1.1021602E3,9.5333215E2,3.3816165E2,7.639986E2,4.0457944E2,5.4875275E2,3.209697E2,1.7191952E1,4.5767996E2,3.063186E2,8.777416E1,3.1680527E2,2.3038623E2,3.183665E2,2.0227081E2,1.18698875E2,2.8539307E2,1.7228688E2,3.607989E1,2.702387E2,4.097463E1,4.679953E1,2.4801264E1,2.92004E2,4.8859333E1,1.815269E2,2.0284093E2,1.1552556E2],"tree_param":{"num_deleted":"0","num_feature":"205","num_nodes":"29","size_leaf_vector":"1"}},{"base_weights":[-1.4025025E-2,-4.8441088E-1,5.582706E-1,-1.0023756E0,-2.7276754E-1,3.4834298E-1,8.597756E-1,-5.807568E-1,-1.087656E0,-5.25499E-1,-1.3855393E-1,-7.341444E-2,4.2737842E-1,7.193638E-1,1.1234745E0,1.6363888E-3,-3.6480296E-3,-5.5782567E-3,-3.443488E-3,2.074517E-3,-2.5465055E-3,-2.6347018E-3,-2.822402E-4,6.8915915E-4,-1.8198849E-3,3.3102685E-3,1.5009028E-3,2.2015267E-3,4.423362E-3,2.2352077E-3,5.2226903E-3],"categories":[],"categories_nodes":[],"categories_segments":[],"categories_sizes":[],"default_left":[0,0,0,0,0,0,0,0,0,0,0,0,0,0,0,0,0,0,0,0,0,0,0,0,0,0,0,0,0,0,0],"id":23,"left_children":[1,3,5,7,9,11,13,15,17,19,21,23,25,27,29,-1,-1,-1,-1,-1,-1,-1,-1,-1,-1,-1,-1,-1,-1,-1,-1],"loss_changes":[5.61046E2,1.2412842E2,5.812097E1,9.943146E0,2.6946148E1,1.891655E1,1.1996429E1,1.4140789E1,1.2104736E1,1.4107834E1,1.7614626E1,6.9563994E0,1.2121567E1,1.4066757E1,2.6016693E0,0E0,0E0,0E0,0E0,0E0,0E0,0E0,0E0,0E0,0E0,0E0,0E0,0E0,0E0,0E0,0E0],"parents":[2147483647,0,0,1,1,2,2,3,3,4,4,5,5,6,6,7,7,8,8,9,9,10,10,11,11,12,12,13,13,14,14],"right_children":[2,4,6,8,10,12,14,16,18,20,22,24,26,28,30,-1,-1,-1,-1,-1,-1,-1,-1,-1,-1,-1,-1,-1,-1,-1,-1],"split_conditions":[1.8476126E1,-1.5428621E2,1.39673E2,1.003E2,-8.197494E1,-3.6E0,2.4155756E2,1.27E1,-1.9826341E2,-4E0,-1.98E1,1.112E2,2.1300296E7,1.67E-1,-2.58E1,1.6363888E-3,-3.6480296E-3,-5.5782567E-3,-3.443488E-3,2.074517E-3,-2.5465055E-3,-2.6347018E-3,-2.822402E-4,6.8915915E-4,-1.8198849E-3,3.3102685E-3,1.5009028E-3,2.2015267E-3,4.423362E-3,2.2352077E-3,5.2226903E-3],"split_indices":[119,119,119,127,119,125,119,13,119,176,169,127,0,168,184,0,0,0,0,0,0,0,0,0,0,0,0,0,0,0,0],"split_type":[0,0,0,0,0,0,0,0,0,0,0,0,0,0,0,0,0,0,0,0,0,0,0,0,0,0,0,0,0,0,0],"sum_hessian":[2.083497E3,1.1445593E3,9.3893774E2,3.3016034E2,8.143989E2,5.560493E2,3.828884E2,5.809989E1,2.7206046E2,2.7945157E2,5.349474E2,8.577413E1,4.702752E2,2.5340686E2,1.2948155E2,1.0968077E1,4.7131813E1,1.7168034E2,1.0038011E2,1.2216246E1,2.6723532E2,7.295026E1,4.619971E2,4.949611E1,3.6278023E1,9.835911E1,3.719161E2,1.4405867E2,1.09348175E2,1.2701604E1,1.16779945E2],"tree_param":{"num_deleted":"0","num_feature":"205","num_nodes":"31","size_leaf_vector":"1"}},{"base_weights":[-1.1039561E-3,-4.8655722E-1,5.793403E-1,-1.0477796E0,-2.6963934E-1,3.2492664E-1,8.561707E-1,-1.2440096E0,-7.720407E-1,-4.952015E-1,-1.4587948E-1,6.78245E-1,2.3626179E-1,7.3493963E-1,1.1347599E0,-6.751875E-3,-4.4062734E-3,5.3393298E-5,-3.8339915E-3,-2.7706649E-3,-5.111178E-4,-1.3219175E-3,4.309275E-4,6.317423E-3,2.2548747E-3,-2.970084E-3,1.2430322E-3,3.4850158E-3,6.1749044E-4,1.9424722E-3,5.260723E-3],"categories":[],"categories_nodes":[],"categories_segments":[],"categories_sizes":[],"default_left":[0,0,0,0,0,0,0,0,0,0,0,0,0,0,0,0,0,0,0,0,0,0,0,0,0,0,0,0,0,0,0],"id":24,"left_children":[1,3,5,7,9,11,13,15,17,19,21,23,25,27,29,-1,-1,-1,-1,-1,-1,-1,-1,-1,-1,-1,-1,-1,-1,-1,-1],"loss_changes":[5.841923E2,1.3614053E2,6.514633E1,1.4530304E1,2.213544E1,1.4500591E1,1.2951508E1,9.424438E0,1.0732857E1,1.34568405E1,1.9950571E1,9.965515E0,1.5803032E1,8.938751E0,3.1344147E0,0E0,0E0,0E0,0E0,0E0,0E0,0E0,0E0,0E0,0E0,0E0,0E0,0E0,0E0,0E0,0E0],"parents":[2147483647,0,0,1,1,2,2,3,3,4,4,5,5,6,6,7,7,8,8,9,9,10,10,11,11,12,12,13,13,14,14],"right_children":[2,4,6,8,10,12,14,16,18,20,22,24,26,28,30,-1,-1,-1,-1,-1,-1,-1,-1,-1,-1,-1,-1,-1,-1,-1,-1],"split_conditions":[1.8476126E1,-1.6110484E2,1.2148805E2,-2.1380817E2,-5.1E0,2.1300224E7,1.22E1,1E2,1.67E-1,1.5287797E3,8E0,-7.6E-2,-1E1,2.2300818E7,-3.6E0,-6.751875E-3,-4.4062734E-3,5.3393298E-5,-3.8339915E-3,-2.7706649E-3,-5.111178E-4,-1.3219175E-3,4.309275E-4,6.317423E-3,2.2548747E-3,-2.970084E-3,1.2430322E-3,3.4850158E-3,6.1749044E-4,1.9424722E-3,5.260723E-3],"split_indices":[119,119,119,119,141,0,141,6,56,117,113,162,121,0,148,0,0,0,0,0,0,0,0,0,0,0,0,0,0,0,0],"split_type":[0,0,0,0,0,0,0,0,0,0,0,0,0,0,0,0,0,0,0,0,0,0,0,0,0,0,0,0,0,0,0],"sum_hessian":[2.0726602E3,1.1296592E3,9.430009E2,3.1314993E2,8.165093E2,4.9377878E2,4.4922214E2,1.7992096E2,1.3322899E2,2.8595093E2,5.3055835E2,9.620415E1,3.9757465E2,3.1664047E2,1.3258165E2,8.13741E1,9.854687E1,1.3203824E1,1.2002516E2,2.1051099E2,7.5439926E1,3.283075E2,2.0225085E2,1.5986541E1,8.021761E1,1.7285093E1,3.8028955E2,2.8931815E2,2.7322334E1,1.1152108E1,1.2142954E2],"tree_param":{"num_deleted":"0","num_feature":"205","num_nodes":"31","size_leaf_vector":"1"}},{"base_weights":[-1.2595849E-3,-5.1368976E-1,5.114331E-1,-1.0153495E0,-2.7445972E-1,2.713852E-1,8.668861E-1,-1.3488754E0,-8.463615E-1,-4.7627106E-1,-7.471263E-2,4.7231928E-2,4.396079E-1,5.083355E-1,9.8546386E-1,-6.3811364E-3,-1.3241995E-3,-3.0269956E-3,-5.416607E-3,-2.7341743E-3,-1.2878737E-3,-2.704362E-3,-4.2592652E-7,6.2486314E-4,-1.7081744E-3,-1.1387427E-3,2.1301748E-3,2.8868695E-3,-0E0,4.4905148E-3,9.057875E-4],"categories":[],"categories_nodes":[],"categories_segments":[],"categories_sizes":[],"default_left":[0,0,0,0,0,0,0,0,0,0,0,0,0,0,0,0,0,0,0,0,0,0,0,0,0,0,0,0,0,0,0],"id":25,"left_children":[1,3,5,7,9,11,13,15,17,19,21,23,25,27,29,-1,-1,-1,-1,-1,-1,-1,-1,-1,-1,-1,-1,-1,-1,-1,-1],"loss_changes":[5.52433E2,1.24917206E2,8.836478E1,1.6373535E1,2.8245625E1,2.3229866E1,1.6206055E1,8.906113E0,1.1690811E1,8.268616E0,1.3886444E1,1.08828335E1,1.0648277E1,8.523188E0,5.8451233E0,0E0,0E0,0E0,0E0,0E0,0E0,0E0,0E0,0E0,0E0,0E0,0E0,0E0,0E0,0E0,0E0],"parents":[2147483647,0,0,1,1,2,2,3,3,4,4,5,5,6,6,7,7,8,8,9,9,10,10,11,11,12,12,13,13,14,14],"right_children":[2,4,6,8,10,12,14,16,18,20,22,24,26,28,30,-1,-1,-1,-1,-1,-1,-1,-1,-1,-1,-1,-1,-1,-1,-1,-1],"split_conditions":[4.1525874E0,-1.520331E2,6.7E0,-1.25E1,-3.4E0,6.3502834E1,9.518114E1,1.73E1,4.9E0,1.2E1,-2.31E1,2.2300674E7,-1E1,2.2200912E7,1E0,-6.3811364E-3,-1.3241995E-3,-3.0269956E-3,-5.416607E-3,-2.7341743E-3,-1.2878737E-3,-2.704362E-3,-4.2592652E-7,6.2486314E-4,-1.7081744E-3,-1.1387427E-3,2.1301748E-3,2.8868695E-3,-0E0,4.4905148E-3,9.057875E-4],"split_indices":[119,119,141,141,137,119,119,178,57,94,169,0,121,0,116,0,0,0,0,0,0,0,0,0,0,0,0,0,0,0,0],"split_type":[0,0,0,0,0,0,0,0,0,0,0,0,0,0,0,0,0,0,0,0,0,0,0,0,0,0,0,0,0,0,0],"sum_hessian":[2.1018425E3,1.0521606E3,1.0496819E3,3.379239E2,7.1423676E2,6.286967E2,4.2098514E2,1.1060272E2,2.2732117E2,3.5249484E2,3.6174188E2,2.7232303E2,3.563737E2,1.0730128E2,3.1368387E2,1.00582184E2,1.0020535E1,1.6166641E2,6.5654755E1,1.9621355E2,1.5628131E2,4.215671E1,3.1958517E2,2.2592288E2,4.6400154E1,1.8641726E1,3.3773196E2,8.502391E1,2.2277363E1,3.010332E2,1.2650654E1],"tree_param":{"num_deleted":"0","num_feature":"205","num_nodes":"31","size_leaf_vector":"1"}},{"base_weights":[8.587309E-4,-4.4830543E-1,4.4872853E-1,-8.708822E-1,-1.6837415E-1,2.6509032E-1,8.3007306E-1,-5.898113E-1,-1.1170641E0,2.3198147E-1,-2.8921616E-1,3.974168E-1,-2.6337177E-2,9.524917E-1,3.9989835E-1,-3.206902E-3,-8.649975E-4,-5.24885E-3,-0E0,-6.7610166E-4,2.2679497E-3,-2.3592722E-3,-2.0082001E-4,-2.2784506E-3,1.9999787E-3,-2.2901506E-3,5.4522377E-4,-0E0,4.5102155E-3,3.3365737E-3,3.596161E-4],"categories":[],"categories_nodes":[],"categories_segments":[],"categories_sizes":[],"default_left":[0,0,0,0,0,0,0,0,0,0,0,0,0,0,0,0,0,0,0,0,0,0,0,0,0,0,0,0,0,0,0],"id":26,"left_children":[1,3,5,7,9,11,13,15,17,19,21,23,25,27,29,-1,-1,-1,-1,-1,-1,-1,-1,-1,-1,-1,-1,-1,-1,-1,-1],"loss_changes":[4.2281113E2,1.229023E2,7.258865E1,2.6802917E1,3.0689032E1,2.7889553E1,1.6411942E1,9.50061E0,1.8062744E1,1.603885E1,2.8430378E1,2.454435E1,1.6641874E1,1.606131E1,7.9395247E0,0E0,0E0,0E0,0E0,0E0,0E0,0E0,0E0,0E0,0E0,0E0,0E0,0E0,0E0,0E0,0E0],"parents":[2147483647,0,0,1,1,2,2,3,3,4,4,5,5,6,6,7,7,8,8,9,9,10,10,11,11,12,12,13,13,14,14],"right_children":[2,4,6,8,10,12,14,16,18,20,22,24,26,28,30,-1,-1,-1,-1,-1,-1,-1,-1,-1,-1,-1,-1,-1,-1,-1,-1],"split_conditions":[0E0,1.4357794E3,8.8E0,1.5314764E3,1.4990355E3,1.5443094E3,1.4944576E3,5.5E-2,5.4E0,-5E0,1.5287797E3,1.3565243E3,-6.7E0,1.4374696E3,1.01E2,-3.206902E-3,-8.649975E-4,-5.24885E-3,-0E0,-6.7610166E-4,2.2679497E-3,-2.3592722E-3,-2.0082001E-4,-2.2784506E-3,1.9999787E-3,-2.2901506E-3,5.4522377E-4,-0E0,4.5102155E-3,3.3365737E-3,3.596161E-4],"split_indices":[141,117,141,118,118,118,118,162,142,137,117,117,151,117,123,0,0,0,0,0,0,0,0,0,0,0,0,0,0,0,0],"split_type":[0,0,0,0,0,0,0,0,0,0,0,0,0,0,0,0,0,0,0,0,0,0,0,0,0,0,0,0,0,0,0],"sum_hessian":[2.1008894E3,1.0478196E3,1.05307E3,4.1573422E2,6.320853E2,7.1306287E2,3.4000708E2,1.9671259E2,2.1902162E2,1.4454674E2,4.875386E2,4.9262906E2,2.2043384E2,2.624579E2,7.7549194E1,1.4444615E2,5.226643E1,2.0710316E2,1.191846E1,5.9532997E1,8.501373E1,2.414549E2,2.460837E2,2.6516262E1,4.661128E2,5.2745026E1,1.6768881E2,1.776624E1,2.4469164E2,3.4966526E1,4.258267E1],"tree_param":{"num_deleted":"0","num_feature":"205","num_nodes":"31","size_leaf_vector":"1"}},{"base_weights":[-1.63141E-4,-4.4086143E-1,4.433807E-1,-8.5275733E-1,-1.7478333E-1,2.0259519E-1,7.6821905E-1,-5.062802E-1,-1.2140167E0,1.3010086E-1,-3.6749557E-1,-4.8868528E-1,2.5085697E-1,9.012205E-1,3.660024E-1,-1.5730464E-3,-4.401444E-3,-6.455733E-3,-4.036397E-3,-3.2894913E-4,1.84935E-3,-1.9055092E-3,7.3103845E-4,-3.6710661E-3,5.7671365E-4,1.5783615E-3,-2.1402926E-5,5.7723746E-4,4.292826E-3,4.238079E-3,3.9627726E-4],"categories":[],"categories_nodes":[],"categories_segments":[],"categories_sizes":[],"default_left":[0,0,0,0,0,0,0,0,0,0,0,0,0,0,0,0,0,0,0,0,0,0,0,0,0,0,0,0,0,0,0],"id":27,"left_children":[1,3,5,7,9,11,13,15,17,19,21,23,25,27,29,-1,-1,-1,-1,-1,-1,-1,-1,-1,-1,-1,-1,-1,-1,-1,-1],"loss_changes":[4.0556824E2,1.1309836E2,7.975885E1,4.8995087E1,3.756855E1,1.9689249E1,2.2011627E1,1.3970791E1,1.1647644E1,1.4724855E1,1.343465E1,8.691688E0,1.5451984E1,1.616452E1,1.7141169E1,0E0,0E0,0E0,0E0,0E0,0E0,0E0,0E0,0E0,0E0,0E0,0E0,0E0,0E0,0E0,0E0],"parents":[2147483647,0,0,1,1,2,2,3,3,4,4,5,5,6,6,7,7,8,8,9,9,10,10,11,11,12,12,13,13,14,14],"right_children":[2,4,6,8,10,12,14,16,18,20,22,24,26,28,30,-1,-1,-1,-1,-1,-1,-1,-1,-1,-1,-1,-1,-1,-1,-1,-1],"split_conditions":[1E-1,1.4344526E3,7E0,1.5394783E3,1.5407383E3,-2.43E1,1.4954563E3,2.42E1,-9.8E0,1.5202869E3,1.85E1,0E0,1.5485516E3,1.4374696E3,-1E0,-1.5730464E-3,-4.401444E-3,-6.455733E-3,-4.036397E-3,-3.2894913E-4,1.84935E-3,-1.9055092E-3,7.3103845E-4,-3.6710661E-3,5.7671365E-4,1.5783615E-3,-2.1402926E-5,5.7723746E-4,4.292826E-3,4.238079E-3,3.9627726E-4],"split_indices":[141,117,141,118,118,181,118,175,137,117,181,182,118,117,192,0,0,0,0,0,0,0,0,0,0,0,0,0,0,0,0],"split_type":[0,0,0,0,0,0,0,0,0,0,0,0,0,0,0,0,0,0,0,0,0,0,0,0,0,0,0,0,0,0,0],"sum_hessian":[2.0739602E3,1.0414438E3,1.0325164E3,4.0686884E2,6.34575E2,5.951537E2,4.373626E2,2.0964072E2,1.9722813E2,2.43819E2,3.90756E2,3.7225784E1,5.579279E2,3.2639972E2,1.1096287E2,1.6230528E2,4.7335426E1,1.06189926E2,9.103821E1,1.4072281E2,1.030962E2,3.511467E2,3.9609314E1,2.4946325E1,1.2279459E1,3.9729608E2,1.6063187E2,2.8014915E1,2.983848E2,3.384141E1,7.712146E1],"tree_param":{"num_deleted":"0","num_feature":"205","num_nodes":"31","size_leaf_vector":"1"}},{"base_weights":[2.6091998E-2,-5.932758E-1,4.198558E-1,-1.1114174E0,-4.140169E-1,1.6264835E-1,7.575634E-1,-1.4990358E0,-9.2631435E-1,-5.308238E-1,-1.8908519E-1,2.3284681E-1,-1.7205806E-1,4.8360997E-1,9.4623953E-1,-3.938945E-3,-7.277399E-3,-2.9717842E-3,-5.236793E-3,-3.706386E-3,-1.8591878E-3,1.5430908E-4,-1.9526539E-3,2.4837798E-3,6.128696E-4,-1.2391293E-4,-2.9504995E-3,3.581603E-3,1.6094364E-3,2.8203109E-3,4.569985E-3],"categories":[],"categories_nodes":[],"categories_segments":[],"categories_sizes":[],"default_left":[0,0,0,0,0,0,0,0,0,0,0,0,0,0,0,0,0,0,0,0,0,0,0,0,0,0,0,0,0,0,0],"id":28,"left_children":[1,3,5,7,9,11,13,15,17,19,21,23,25,27,29,-1,-1,-1,-1,-1,-1,-1,-1,-1,-1,-1,-1,-1,-1,-1,-1],"loss_changes":[4.9868024E2,7.2023895E1,1.07729034E2,1.1484009E1,1.4794052E1,1.682229E1,2.6244415E1,2.3897858E0,6.9571915E0,1.1716026E1,1.2040937E1,1.7604786E1,7.9467936E0,7.411831E0,6.491638E0,0E0,0E0,0E0,0E0,0E0,0E0,0E0,0E0,0E0,0E0,0E0,0E0,0E0,0E0,0E0,0E0],"parents":[2147483647,0,0,1,1,2,2,3,3,4,4,5,5,6,6,7,7,8,8,9,9,10,10,11,11,12,12,13,13,14,14],"right_children":[2,4,6,8,10,12,14,16,18,20,22,24,26,28,30,-1,-1,-1,-1,-1,-1,-1,-1,-1,-1,-1,-1,-1,-1,-1,-1],"split_conditions":[-4.100836E1,-1.9826341E2,9.518114E1,-9E0,-8.39379E1,6.4E0,6.3E0,-1E0,6.4E0,-2E0,1.8E0,2.13001E7,2.6E0,2.1400084E7,4E-1,-3.938945E-3,-7.277399E-3,-2.9717842E-3,-5.236793E-3,-3.706386E-3,-1.8591878E-3,1.5430908E-4,-1.9526539E-3,2.4837798E-3,6.128696E-4,-1.2391293E-4,-2.9504995E-3,3.581603E-3,1.6094364E-3,2.8203109E-3,4.569985E-3],"split_indices":[119,119,119,121,119,129,141,144,129,194,139,0,148,0,138,0,0,0,0,0,0,0,0,0,0,0,0,0,0,0,0],"split_type":[0,0,0,0,0,0,0,0,0,0,0,0,0,0,0,0,0,0,0,0,0,0,0,0,0,0,0,0,0,0,0],"sum_hessian":[2.0445367E3,7.935591E2,1.2509777E3,2.0194745E2,5.9161163E2,7.121768E2,5.3880084E2,6.250007E1,1.3944737E2,3.8608334E2,2.055283E2,5.912772E2,1.2089962E2,2.225458E2,3.16255E2,1.3973458E1,4.852661E1,7.276733E1,6.668005E1,9.9275734E1,2.8680762E2,1.069582E2,9.857011E1,1.2914688E2,4.621303E2,9.555481E1,2.534481E1,5.69827E1,1.6556311E2,7.240791E1,2.438471E2],"tree_param":{"num_deleted":"0","num_feature":"205","num_nodes":"31","size_leaf_vector":"1"}},{"base_weights":[7.556019E-3,-5.9991837E-1,4.3343234E-1,-1.0119295E0,-3.700885E-1,2.1536028E-1,7.866817E-1,-1.2605796E0,-8.0498725E-1,-4.985113E-1,-1.007581E-1,3.843977E-2,3.494702E-1,6.4304346E-1,1.0974203E0,-1.5421544E-3,-5.850812E-3,-3.897691E-3,-4.2823283E-4,-1.0728575E-3,-2.6639742E-3,2.8687918E-3,-7.2908984E-4,5.2902533E-4,-1.5991075E-3,2.9852E-4,2.185677E-3,1.9468166E-3,3.8661773E-3,5.0904555E-3,9.467634E-4],"categories":[],"categories_nodes":[],"categories_segments":[],"categories_sizes":[],"default_left":[0,0,0,0,0,0,0,0,0,0,0,0,0,0,0,0,0,0,0,0,0,0,0,0,0,0,0,0,0,0,0],"id":29,"left_children":[1,3,5,7,9,11,13,15,17,19,21,23,25,27,29,-1,-1,-1,-1,-1,-1,-1,-1,-1,-1,-1,-1,-1,-1,-1,-1],"loss_changes":[5.397721E2,7.9814026E1,9.351402E1,1.32258E1,1.8535439E1,1.7677208E1,1.8784271E1,5.7439575E0,8.120476E0,8.955582E0,8.281352E0,1.0543586E1,1.693237E1,1.3622742E1,5.2778015E0,0E0,0E0,0E0,0E0,0E0,0E0,0E0,0E0,0E0,0E0,0E0,0E0,0E0,0E0,0E0,0E0],"parents":[2147483647,0,0,1,1,2,2,3,3,4,4,5,5,6,6,7,7,8,8,9,9,10,10,11,11,12,12,13,13,14,14],"right_children":[2,4,6,8,10,12,14,16,18,20,22,24,26,28,30,-1,-1,-1,-1,-1,-1,-1,-1,-1,-1,-1,-1,-1,-1,-1,-1],"split_conditions":[-3.0649954E1,-1.6110484E2,1.1945574E2,-1.08E1,-9.52381E-2,-1.9E0,2.3621416E2,-3.1E1,5.4E0,1.2E1,-1.42E1,6.4E0,-1.2E0,1E0,1.148E2,-1.5421544E-3,-5.850812E-3,-3.897691E-3,-4.2823283E-4,-1.0728575E-3,-2.6639742E-3,2.8687918E-3,-7.2908984E-4,5.2902533E-4,-1.5991075E-3,2.9852E-4,2.185677E-3,1.9468166E-3,3.8661773E-3,5.0904555E-3,9.467634E-4],"split_indices":[119,119,119,137,140,181,119,178,142,55,139,129,137,193,130,0,0,0,0,0,0,0,0,0,0,0,0,0,0,0,0],"split_type":[0,0,0,0,0,0,0,0,0,0,0,0,0,0,0,0,0,0,0,0,0,0,0,0,0,0,0,0,0,0,0],"sum_hessian":[2.0861455E3,8.587275E2,1.2274181E3,3.05394E2,5.533335E2,7.6110474E2,4.663133E2,1.3549403E2,1.6989998E2,3.7191754E2,1.8141595E2,3.316214E2,4.2948334E2,3.2203564E2,1.4427765E2,9.7567005E0,1.25737335E2,1.5212784E2,1.7772146E1,1.1017714E2,2.617404E2,1.2730256E1,1.686857E2,2.7802667E2,5.3594738E1,1.4798006E2,2.815033E2,1.7416066E2,1.47875E2,1.3495694E2,9.320705E0],"tree_param":{"num_deleted":"0","num_feature":"205","num_nodes":"31","size_leaf_vector":"1"}},{"base_weights":[-1.1603615E-2,-5.0748444E-1,4.994632E-1,-8.407337E-1,-2.2163408E-1,4.050209E-1,1.0993255E0,-1.2644327E0,-6.1054116E-1,-2.647894E-1,5.223836E-1,3.4230363E-1,8.961218E-1,1.1937265E0,7.115485E-1,-1.1507891E-3,-5.8248662E-3,-3.5112777E-3,-1.9101376E-3,-1.715033E-3,-1.4426364E-4,3.5197746E-3,-0E0,1.9165492E-3,1.7580269E-4,1.4017276E-3,4.443418E-3,3.7142816E-3,5.6927623E-3,1.2416305E-3,4.439653E-3],"categories":[],"categories_nodes":[],"categories_segments":[],"categories_sizes":[],"default_left":[0,0,0,0,0,0,0,0,0,0,0,0,0,0,0,0,0,0,0,0,0,0,0,0,0,0,0,0,0,0,0],"id":30,"left_children":[1,3,5,7,9,11,13,15,17,19,21,23,25,27,29,-1,-1,-1,-1,-1,-1,-1,-1,-1,-1,-1,-1,-1,-1,-1,-1],"loss_changes":[5.220797E2,9.855145E1,5.572017E1,4.474286E1,1.7964666E1,2.5666E1,2.7066803E0,6.9749146E0,8.911369E0,1.4852291E1,4.464595E0,2.0961678E1,4.6253586E0,9.0242004E-1,2.345621E0,0E0,0E0,0E0,0E0,0E0,0E0,0E0,0E0,0E0,0E0,0E0,0E0,0E0,0E0,0E0,0E0],"parents":[2147483647,0,0,1,1,2,2,3,3,4,4,5,5,6,6,7,7,8,8,9,9,10,10,11,11,12,12,13,13,14,14],"right_children":[2,4,6,8,10,12,14,16,18,20,22,24,26,28,30,-1,-1,-1,-1,-1,-1,-1,-1,-1,-1,-1,-1,-1,-1,-1,-1],"split_conditions":[4.1525874E0,-1.14206085E2,2.3621416E2,-1.18E1,8.3E0,1.22E1,3.38E-1,-6.36E-1,1.162E2,8E0,7.7E-1,1.111E2,1E0,8E-1,3.3333334E-1,-1.1507891E-3,-5.8248662E-3,-3.5112777E-3,-1.9101376E-3,-1.715033E-3,-1.4426364E-4,3.5197746E-3,-0E0,1.9165492E-3,1.7580269E-4,1.4017276E-3,4.443418E-3,3.7142816E-3,5.6927623E-3,1.2416305E-3,4.439653E-3],"split_indices":[119,119,119,137,141,141,35,177,4,113,31,127,114,121,140,0,0,0,0,0,0,0,0,0,0,0,0,0,0,0,0],"split_type":[0,0,0,0,0,0,0,0,0,0,0,0,0,0,0,0,0,0,0,0,0,0,0,0,0,0,0,0,0,0,0],"sum_hessian":[2.0591382E3,1.046086E3,1.0130522E3,4.8098798E2,5.6509814E2,8.7733655E2,1.3571564E2,1.6709142E2,3.1389655E2,5.356556E2,2.9442581E1,7.804559E2,9.688071E1,1.06329796E2,2.9385834E1,9.25198E0,1.5783945E2,1.5175327E2,1.6214328E2,3.4744055E2,1.8821501E2,1.950629E1,9.936292E0,5.977298E2,1.8272607E2,1.6930056E1,7.9950645E1,2.5174583E1,8.115521E1,1.3591063E1,1.5794771E1],"tree_param":{"num_deleted":"0","num_feature":"205","num_nodes":"31","size_leaf_vector":"1"}},{"base_weights":[-1.5014107E-2,-4.2707983E-1,6.0658747E-1,-9.655269E-1,-2.2468954E-1,4.0205836E-1,9.0119433E-1,-1.042173E0,-1.4978628E-1,-3.9501974E-1,-0E0,-1.4023672E-1,4.56695E-1,7.088629E-1,1.1129913E0,-5.573692E-3,-3.8221374E-3,-2.9472292E-3,1.1111846E-3,-1.3967602E-3,-3.3458688E-3,3.275454E-3,-2.2768944E-4,-2.102554E-3,1.8864556E-3,3.6975744E-3,1.5904146E-3,4.076548E-3,1.6306451E-3,2.2087686E-3,5.1677707E-3],"categories":[],"categories_nodes":[],"categories_segments":[],"categories_sizes":[],"default_left":[0,0,0,0,0,0,0,0,0,0,0,0,0,0,0,0,0,0,0,0,0,0,0,0,0,0,0,0,0,0,0],"id":31,"left_children":[1,3,5,7,9,11,13,15,17,19,21,23,25,27,29,-1,-1,-1,-1,-1,-1,-1,-1,-1,-1,-1,-1,-1,-1,-1,-1],"loss_changes":[5.239459E2,1.3291924E2,4.7634277E1,1.96857E1,3.4001293E1,1.4675514E1,1.1336334E1,9.226959E0,6.779363E0,1.3393898E1,1.4269758E1,8.286195E0,1.49435425E1,1.1383339E1,3.2641296E0,0E0,0E0,0E0,0E0,0E0,0E0,0E0,0E0,0E0,0E0,0E0,0E0,0E0,0E0,0E0,0E0],"parents":[2147483647,0,0,1,1,2,2,3,3,4,4,5,5,6,6,7,7,8,8,9,9,10,10,11,11,12,12,13,13,14,14],"right_children":[2,4,6,8,10,12,14,16,18,20,22,24,26,28,30,-1,-1,-1,-1,-1,-1,-1,-1,-1,-1,-1,-1,-1,-1,-1,-1],"split_conditions":[3.876994E1,-1.520331E2,1.556607E2,2.7E1,-9E-1,-4.5E0,3.3333334E-1,-2.3222815E2,-2.0622737E2,1.12E2,-1.38E1,4.1E-2,2.1201184E7,2.1800892E7,7.7E0,-5.573692E-3,-3.8221374E-3,-2.9472292E-3,1.1111846E-3,-1.3967602E-3,-3.3458688E-3,3.275454E-3,-2.2768944E-4,-2.102554E-3,1.8864556E-3,3.6975744E-3,1.5904146E-3,4.076548E-3,1.6306451E-3,2.2087686E-3,5.1677707E-3],"split_indices":[119,119,119,172,141,141,140,119,119,135,139,162,0,0,141,0,0,0,0,0,0,0,0,0,0,0,0,0,0,0,0],"split_type":[0,0,0,0,0,0,0,0,0,0,0,0,0,0,0,0,0,0,0,0,0,0,0,0,0,0,0,0,0,0,0],"sum_hessian":[2.0453323E3,1.2310193E3,8.1431305E2,3.3449728E2,8.96522E2,4.8325623E2,3.3105682E2,3.0453848E2,2.9958778E1,5.0765692E2,3.8886508E2,4.2500553E1,4.4075568E2,1.7698816E2,1.5406866E2,1.3366753E2,1.7087097E2,1.40514345E1,1.5907345E1,4.1905203E2,8.860486E1,2.3837225E1,3.6502786E2,2.7861477E1,1.4639076E1,8.7329155E1,3.534265E2,1.06749176E2,7.023898E1,1.44555235E1,1.3961314E2],"tree_param":{"num_deleted":"0","num_feature":"205","num_nodes":"31","size_leaf_vector":"1"}},{"base_weights":[-1.1914959E-2,-6.363303E-1,4.282003E-1,-1.0010585E0,-3.8317943E-1,1.4151105E-1,7.635764E-1,-1.351489E0,-8.2918715E-1,5.055657E-1,-4.1966903E-1,-4.1707484E-3,1.7440537E-1,-1.0299113E-3,7.938545E-1,-2.1313895E-3,-6.381095E-3,-2.9938074E-3,-6.2121414E-3,-0E0,4.504157E-3,-2.9688955E-3,-1.4709206E-3,1.1312232E-3,-8.5763086E-4,3.0519424E-3,4.7861887E-3],"categories":[],"categories_nodes":[],"categories_segments":[],"categories_sizes":[],"default_left":[0,0,0,0,0,0,0,0,0,0,0,0,0,0,0,0,0,0,0,0,0,0,0,0,0,0,0],"id":32,"left_children":[1,3,5,7,9,11,13,15,17,19,21,-1,23,-1,25,-1,-1,-1,-1,-1,-1,-1,-1,-1,-1,-1,-1],"loss_changes":[5.67157E2,7.728815E1,1.1531087E2,1.828247E1,1.643132E1,2.2629122E1,1.740036E1,6.5625916E0,1.8255386E1,5.3846974E0,9.596916E0,0E0,1.909797E1,0E0,1.4102692E1,0E0,0E0,0E0,0E0,0E0,0E0,0E0,0E0,0E0,0E0,0E0,0E0],"parents":[2147483647,0,0,1,1,2,2,3,3,4,4,5,5,6,6,7,7,8,8,9,9,10,10,12,12,14,14],"right_children":[2,4,6,8,10,12,14,16,18,20,22,-1,24,-1,26,-1,-1,-1,-1,-1,-1,-1,-1,-1,-1,-1,-1],"split_conditions":[-3.0649954E1,-1.4925996E2,9.326932E1,-1.25E1,-1.34E1,-1.24E1,-6.8E0,1.5325724E3,1.08E1,1.112E2,-8E0,-4.1707484E-3,2.2300324E7,-1.0299113E-3,2.3045969E2,-2.1313895E-3,-6.381095E-3,-2.9938074E-3,-6.2121414E-3,-0E0,4.504157E-3,-2.9688955E-3,-1.4709206E-3,1.1312232E-3,-8.5763086E-4,3.0519424E-3,4.7861887E-3],"split_indices":[119,119,119,141,139,121,125,118,178,130,141,0,0,0,119,0,0,0,0,0,0,0,0,0,0,0,0],"split_type":[0,0,0,0,0,0,0,0,0,0,0,0,0,0,0,0,0,0,0,0,0,0,0,0,0,0,0],"sum_hessian":[2.0621304E3,8.5341077E2,1.2087196E3,3.474956E2,5.0591516E2,6.536053E2,5.551143E2,1.1142786E2,2.3606775E2,1.8648909E1,4.8726624E2,1.7994488E1,6.3561084E2,1.5314928E1,5.397994E2,1.1783599E1,9.9644264E1,1.8862372E2,4.7444035E1,9.186462E0,9.462447E0,1.2199098E2,3.6527527E2,5.230978E2,1.12513054E2,3.9981418E2,1.3998523E2],"tree_param":{"num_deleted":"0","num_feature":"205","num_nodes":"27","size_leaf_vector":"1"}}]},"name":"gbtree"},"learner_model_param":{"base_score":"[5.9218967E-1]","boost_from_average":"1","num_class":"0","num_feature":"205","num_target":"1"},"objective":{"name":"binary:logistic","reg_loss_param":{"scale_pos_weight":"1.09927571"}}},"version":[3,1,2]}