{"learner":{"attributes":{"best_iteration":"237","best_score":"12.98621654808273"},"feature_names":[],"feature_types":[],"gradient_booster":{"model":{"cats":{"enc":[],"feature_segments":[],"sorted_idx":[]},"gbtree_model_param":{"num_parallel_tree":"1","num_trees":"238"},"iteration_indptr":[0,1,2,3,4,5,6,7,8,9,10,11,12,13,14,15,16,17,18,19,20,21,22,23,24,25,26,27,28,29,30,31,32,33,34,35,36,37,38,39,40,41,42,43,44,45,46,47,48,49,50,51,52,53,54,55,56,57,58,59,60,61,62,63,64,65,66,67,68,69,70,71,72,73,74,75,76,77,78,79,80,81,82,83,84,85,86,87,88,89,90,91,92,93,94,95,96,97,98,99,100,101,102,103,104,105,106,107,108,109,110,111,112,113,114,115,116,117,118,119,120,121,122,123,124,125,126,127,128,129,130,131,132,133,134,135,136,137,138,139,140,141,142,143,144,145,146,147,148,149,150,151,152,153,154,155,156,157,158,159,160,161,162,163,164,165,166,167,168,169,170,171,172,173,174,175,176,177,178,179,180,181,182,183,184,185,186,187,188,189,190,191,192,193,194,195,196,197,198,199,200,201,202,203,204,205,206,207,208,209,210,211,212,213,214,215,216,217,218,219,220,221,222,223,224,225,226,227,228,229,230,231,232,233,234,235,236,237,238],"tree_info":[0,0,0,0,0,0,0,0,0,0,0,0,0,0,0,0,0,0,0,0,0,0,0,0,0,0,0,0,0,0,0,0,0,0,0,0,0,0,0,0,0,0,0,0,0,0,0,0,0,0,0,0,0,0,0,0,0,0,0,0,0,0,0,0,0,0,0,0,0,0,0,0,0,0,0,0,0,0,0,0,0,0,0,0,0,0,0,0,0,0,0,0,0,0,0,0,0,0,0,0,0,0,0,0,0,0,0,0,0,0,0,0,0,0,0,0,0,0,0,0,0,0,0,0,0,0,0,0,0,0,0,0,0,0,0,0,0,0,0,0,0,0,0,0,0,0,0,0,0,0,0,0,0,0,0,0,0,0,0,0,0,0,0,0,0,0,0,0,0,0,0,0,0,0,0,0,0,0,0,0,0,0,0,0,0,0,0,0,0,0,0,0,0,0,0,0,0,0,0,0,0,0,0,0,0,0,0,0,0,0,0,0,0,0,0,0,0,0,0,0,0,0,0,0,0,0,0,0,0,0,0,0,0,0,0,0,0,0],"trees":[{"base_weights":[5.780798E-2,-3.7598095E0,4.074845E0,-7.44826E0,-2.078459E0,1.8809053E0,7.125279E0,-1.0165459E1,-5.461959E0,-4.780953E0,-9.4999206E-1,2.9570563E0,-2.3996805E-1,9.796853E0,5.6115556E0,-4.8060205E-2,-3.5942853E-3,-1.5215032E-2,-3.299702E-2,2.9421705E-3,-2.4238754E-2,4.941167E-3,-1.38372425E-2,-1.5518309E-2,1.5451391E-2,-7.073389E-3,1.112293E-2,6.4217877E-3,4.9232308E-2,1.9995471E-2,4.249563E-2],"categories":[],"categories_nodes":[],"categories_segments":[],"categories_sizes":[],"default_left":[0,0,0,0,0,0,0,0,0,0,0,0,0,0,0,0,0,0,0,0,0,0,0,0,0,0,0,0,0,0,0],"id":0,"left_children":[1,3,5,7,9,11,13,15,17,19,21,23,25,27,29,-1,-1,-1,-1,-1,-1,-1,-1,-1,-1,-1,-1,-1,-1,-1,-1],"loss_changes":[1.2426241E5,2.5747695E4,2.6409883E4,6.978242E3,8.6974E3,5.2466763E3,6.6384453E3,3.542664E3,3.0141035E3,3.1907246E3,9.063768E3,5.268532E3,2.8932007E3,6.586258E3,4.5722305E3,0E0,0E0,0E0,0E0,0E0,0E0,0E0,0E0,0E0,0E0,0E0,0E0,0E0,0E0,0E0,0E0],"parents":[2147483647,0,0,1,1,2,2,3,3,4,4,5,5,6,6,7,7,8,8,9,9,10,10,11,11,12,12,13,13,14,14],"right_children":[2,4,6,8,10,12,14,16,18,20,22,24,26,28,30,-1,-1,-1,-1,-1,-1,-1,-1,-1,-1,-1,-1,-1,-1,-1,-1],"split_conditions":[4E-1,-8.5E0,7.3E0,1.391682E3,1.4298156E3,1.5347714E3,1.3795457E3,3.2E0,8.4E0,-1E0,1.560027E3,1.3735312E3,1.173E2,1.4588977E3,1.6704655E3,-4.8060205E-2,-3.5942853E-3,-1.5215032E-2,-3.299702E-2,2.9421705E-3,-2.4238754E-2,4.941167E-3,-1.38372425E-2,-1.5518309E-2,1.5451391E-2,-7.073389E-3,1.112293E-2,6.4217877E-3,4.9232308E-2,1.9995471E-2,4.249563E-2],"split_indices":[141,141,141,117,117,118,118,142,129,182,118,117,25,117,117,0,0,0,0,0,0,0,0,0,0,0,0,0,0,0,0],"split_type":[0,0,0,0,0,0,0,0,0,0,0,0,0,0,0,0,0,0,0,0,0,0,0,0,0,0,0,0,0,0,0],"sum_hessian":[8.102E3,4.154E3,3.948E3,1.3E3,2.854E3,2.297E3,1.651E3,5.48E2,7.52E2,8.4E2,2.014E3,1.524E3,7.73E2,5.96E2,1.055E3,5.1E2,3.8E1,3.74E2,3.78E2,9.5E1,7.45E2,1.033E3,9.81E2,1.16E2,1.408E3,5.18E2,2.55E2,8.2E1,5.14E2,8.29E2,2.26E2],"tree_param":{"num_deleted":"0","num_feature":"205","num_nodes":"31","size_leaf_vector":"1"}},{"base_weights":[1.9270748E-1,-3.8336523E0,5.014845E0,-7.832952E0,-2.1203046E0,3.237234E0,8.595921E0,-1.0046378E1,-6.2237654E0,-3.4910772E0,2.0348093E-1,2.2503312E0,5.612496E0,7.008298E0,1.097642E1,-5.707458E-2,-3.7373625E-2,-2.850015E-2,4.9747083E-2,-2.6971987E-2,-1.3162635E-2,-1.6079716E-2,3.358715E-3,1.5106626E-2,3.2608504E-3,1.5064697E-2,3.1323902E-2,2.4908768E-2,3.8566664E-2,8.481609E-2,4.6189237E-2],"categories":[],"categories_nodes":[],"categories_segments":[],"categories_sizes":[],"default_left":[0,0,0,0,0,0,0,0,0,0,0,0,0,0,0,0,0,0,0,0,0,0,0,0,0,0,0,0,0,0,0],"id":1,"left_children":[1,3,5,7,9,11,13,15,17,19,21,23,25,27,29,-1,-1,-1,-1,-1,-1,-1,-1,-1,-1,-1,-1,-1,-1,-1,-1],"loss_changes":[1.5678058E5,3.0135348E4,2.3366367E4,4.655328E3,9.819184E3,5.744791E3,4.5524453E3,2.460621E3,2.9122715E3,2.5917285E3,2.43499E3,3.0512773E3,2.309998E3,1.6880898E3,2.0316055E3,0E0,0E0,0E0,0E0,0E0,0E0,0E0,0E0,0E0,0E0,0E0,0E0,0E0,0E0,0E0,0E0],"parents":[2147483647,0,0,1,1,2,2,3,3,4,4,5,5,6,6,7,7,8,8,9,9,10,10,11,11,12,12,13,13,14,14],"right_children":[2,4,6,8,10,12,14,16,18,20,22,24,26,28,30,-1,-1,-1,-1,-1,-1,-1,-1,-1,-1,-1,-1,-1,-1,-1,-1],"split_conditions":[1.8476126E1,-1.520331E2,1.6116786E2,-2.3222815E2,-3E-1,6.9E0,1.16E1,-1.52E1,1.81E1,-1.14E1,9.62E1,5E0,8.073691E1,6.67E-1,-1.35E-1,-5.707458E-2,-3.7373625E-2,-2.850015E-2,4.9747083E-2,-2.6971987E-2,-1.3162635E-2,-1.6079716E-2,3.358715E-3,1.5106626E-2,3.2608504E-3,1.5064697E-2,3.1323902E-2,2.4908768E-2,3.8566664E-2,8.481609E-2,4.6189237E-2],"split_indices":[119,119,119,119,141,141,141,137,143,138,131,113,119,47,162,0,0,0,0,0,0,0,0,0,0,0,0,0,0,0,0],"split_type":[0,0,0,0,0,0,0,0,0,0,0,0,0,0,0,0,0,0,0,0,0,0,0,0,0,0,0,0,0,0,0],"sum_hessian":[8.074E3,4.4E3,3.674E3,1.319E3,3.081E3,2.456E3,1.218E3,5.54E2,7.65E2,1.938E3,1.143E3,1.736E3,7.2E2,7.32E2,4.86E2,1.98E2,3.56E2,7.56E2,9E0,3.2E2,1.618E3,1.44E2,9.99E2,9.81E2,7.55E2,2.88E2,4.32E2,4.06E2,3.26E2,2.9E1,4.57E2],"tree_param":{"num_deleted":"0","num_feature":"205","num_nodes":"31","size_leaf_vector":"1"}},{"base_weights":[2.6493773E-1,-3.8274636E0,4.172587E0,-7.0054426E0,-1.625763E0,1.9907562E0,7.3551507E0,-5.2285194E0,-1.038435E1,-5.1212823E-1,-4.7205667E0,3.1060185E0,4.171815E-2,8.906229E0,5.2568297E0,-3.2753732E-2,-1.3129175E-2,-5.8267303E-2,-3.8636766E-2,-6.223487E-3,1.0329545E-2,-3.5094E-2,-1.4338229E-2,4.237548E-3,2.1094428E-2,-4.3193395E-3,1.9921772E-2,2.9077798E-2,5.0058022E-2,1.8951524E-2,4.8140366E-2],"categories":[],"categories_nodes":[],"categories_segments":[],"categories_sizes":[],"default_left":[0,0,0,0,0,0,0,0,0,0,0,0,0,0,0,0,0,0,0,0,0,0,0,0,0,0,0,0,0,0,0],"id":2,"left_children":[1,3,5,7,9,11,13,15,17,19,21,23,25,27,29,-1,-1,-1,-1,-1,-1,-1,-1,-1,-1,-1,-1,-1,-1,-1,-1],"loss_changes":[1.2933934E5,2.7627418E4,2.8713805E4,9.665305E3,8.0393423E3,5.3341943E3,5.4406484E3,5.190168E3,2.486793E3,4.370669E3,2.9113916E3,5.5620547E3,4.064792E3,5.377117E3,3.8891172E3,0E0,0E0,0E0,0E0,0E0,0E0,0E0,0E0,0E0,0E0,0E0,0E0,0E0,0E0,0E0,0E0],"parents":[2147483647,0,0,1,1,2,2,3,3,4,4,5,5,6,6,7,7,8,8,9,9,10,10,11,11,12,12,13,13,14,14],"right_children":[2,4,6,8,10,12,14,16,18,20,22,24,26,28,30,-1,-1,-1,-1,-1,-1,-1,-1,-1,-1,-1,-1,-1,-1,-1,-1],"split_conditions":[-1E-1,1.4357794E3,7.3E0,1.5755469E3,9E0,1.5347714E3,1.4423081E3,1.3645376E3,-7.4E0,1.5743174E3,1.131E2,1.5043276E3,1.49E1,1.5733386E3,1.702195E3,-3.2753732E-2,-1.3129175E-2,-5.8267303E-2,-3.8636766E-2,-6.223487E-3,1.0329545E-2,-3.5094E-2,-1.4338229E-2,4.237548E-3,2.1094428E-2,-4.3193395E-3,1.9921772E-2,2.9077798E-2,5.0058022E-2,1.8951524E-2,4.8140366E-2],"split_indices":[141,117,141,118,129,118,118,117,121,117,25,117,169,117,117,0,0,0,0,0,0,0,0,0,0,0,0,0,0,0,0],"split_type":[0,0,0,0,0,0,0,0,0,0,0,0,0,0,0,0,0,0,0,0,0,0,0,0,0,0,0,0,0,0,0],"sum_hessian":[8.087E3,3.95E3,4.137E3,1.616E3,2.334E3,2.455E3,1.682E3,1.06E3,5.56E2,1.717E3,6.17E2,1.561E3,8.94E2,9.66E2,7.16E2,5.4E2,5.2E2,2.06E2,3.5E2,1.307E3,4.1E2,1.94E2,4.23E2,6.81E2,8.8E2,7.28E2,1.66E2,4.91E2,4.75E2,6.11E2,1.05E2],"tree_param":{"num_deleted":"0","num_feature":"205","num_nodes":"31","size_leaf_vector":"1"}},{"base_weights":[7.151353E-4,-4.013806E0,4.801624E0,-8.210625E0,-2.2089684E0,3.288451E0,9.114451E0,-1.0435762E1,-6.4482203E0,-3.2286391E0,1.6853143E-1,-2.211361E0,3.695047E0,8.247285E0,1.2682795E1,-5.500953E-2,-3.7543017E-2,-2.58928E-2,-4.853479E-2,-4.3859385E-2,-1.3189697E-2,3.0099584E-2,-1.5471939E-3,-3.8414247E-2,-1.84157E-3,7.946984E-3,2.048813E-2,3.0380161E-2,4.855983E-2,2.5278123E-2,6.5356575E-2],"categories":[],"categories_nodes":[],"categories_segments":[],"categories_sizes":[],"default_left":[0,0,0,0,0,0,0,0,0,0,0,0,0,0,0,0,0,0,0,0,0,0,0,0,0,0,0,0,0,0,0],"id":3,"left_children":[1,3,5,7,9,11,13,15,17,19,21,23,25,27,29,-1,-1,-1,-1,-1,-1,-1,-1,-1,-1,-1,-1,-1,-1,-1,-1],"loss_changes":[1.5884978E5,3.397957E4,2.4469398E4,5.2449297E3,7.6141553E3,6.2205586E3,2.9474219E3,2.2500703E3,1.992127E3,3.6216855E3,3.2460813E3,2.212479E3,4.5829727E3,2.9080625E3,2.6945332E3,0E0,0E0,0E0,0E0,0E0,0E0,0E0,0E0,0E0,0E0,0E0,0E0,0E0,0E0,0E0,0E0],"parents":[2147483647,0,0,1,1,2,2,3,3,4,4,5,5,6,6,7,7,8,8,9,9,10,10,11,11,12,12,13,13,14,14],"right_children":[2,4,6,8,10,12,14,16,18,20,22,24,26,28,30,-1,-1,-1,-1,-1,-1,-1,-1,-1,-1,-1,-1,-1,-1,-1,-1],"split_conditions":[1.751152E1,-1.520331E2,1.884584E2,-2.3222815E2,1.1E0,-5.9E0,4.17E-1,-6.6E0,1.184E2,-1.23E1,-1.42E1,-4.9E-1,6.1927135E1,1.4E1,1.5743174E3,-5.500953E-2,-3.7543017E-2,-2.58928E-2,-4.853479E-2,-4.3859385E-2,-1.3189697E-2,3.0099584E-2,-1.5471939E-3,-3.8414247E-2,-1.84157E-3,7.946984E-3,2.048813E-2,3.0380161E-2,4.855983E-2,2.5278123E-2,6.5356575E-2],"split_indices":[119,119,119,119,141,141,174,125,130,125,139,153,119,137,117,0,0,0,0,0,0,0,0,0,0,0,0,0,0,0,0],"split_type":[0,0,0,0,0,0,0,0,0,0,0,0,0,0,0,0,0,0,0,0,0,0,0,0,0,0,0,0,0,0,0],"sum_hessian":[8.241E3,4.488E3,3.753E3,1.349E3,3.139E3,2.779E3,9.74E2,5.95E2,7.54E2,2.197E3,9.42E2,1.91E2,2.588E3,7.85E2,1.89E2,2.93E2,3.02E2,6.67E2,8.7E1,7.8E1,2.119E3,6.8E1,8.74E2,4.1E1,1.5E2,8.54E2,1.734E3,5.22E2,2.63E2,4.4E1,1.45E2],"tree_param":{"num_deleted":"0","num_feature":"205","num_nodes":"31","size_leaf_vector":"1"}},{"base_weights":[1.7060001E-1,-3.7864637E0,4.890111E0,-8.148002E0,-2.1518736E0,3.405052E0,9.471636E0,-1.048731E1,-6.2929926E0,-5.8543973E0,-1.6692653E0,-2.1278796E0,3.753255E0,1.2615403E1,8.414579E0,-5.1868457E-2,-3.283524E-2,-4.7419757E-2,-2.4817288E-2,-8.844129E-3,-3.2126643E-2,-1.091234E-2,-1.3342282E-3,-2.4040446E-3,-6.5001294E-2,1.2584083E-2,2.3224674E-2,4.318497E-2,7.3257916E-2,-2.414563E-2,3.8275827E-2],"categories":[],"categories_nodes":[],"categories_segments":[],"categories_sizes":[],"default_left":[0,0,0,0,0,0,0,0,0,0,0,0,0,0,0,0,0,0,0,0,0,0,0,0,0,0,0,0,0,0,0],"id":4,"left_children":[1,3,5,7,9,11,13,15,17,19,21,23,25,27,29,-1,-1,-1,-1,-1,-1,-1,-1,-1,-1,-1,-1,-1,-1,-1,-1],"loss_changes":[1.5136331E5,3.1411148E4,2.512271E4,5.167242E3,5.719408E3,5.3851016E3,2.9369453E3,1.9474141E3,1.9920605E3,1.9852227E3,3.0886982E3,3.2740645E3,3.5577422E3,2.4490938E3,2.2241055E3,0E0,0E0,0E0,0E0,0E0,0E0,0E0,0E0,0E0,0E0,0E0,0E0,0E0,0E0,0E0,0E0],"parents":[2147483647,0,0,1,1,2,2,3,3,4,4,5,5,6,6,7,7,8,8,9,9,10,10,11,11,12,12,13,13,14,14],"right_children":[2,4,6,8,10,12,14,16,18,20,22,24,26,28,30,-1,-1,-1,-1,-1,-1,-1,-1,-1,-1,-1,-1,-1,-1,-1,-1],"split_conditions":[1.751152E1,-1.6110484E2,1.9178436E2,-2.3641429E2,-1.36E1,-6.5E0,-9.5E0,1.41E0,-1.05E0,-1.73E1,8E0,7.27E0,7.4E0,1.5981497E3,-9.4E0,-5.1868457E-2,-3.283524E-2,-4.7419757E-2,-2.4817288E-2,-8.844129E-3,-3.2126643E-2,-1.091234E-2,-1.3342282E-3,-2.4040446E-3,-6.5001294E-2,1.2584083E-2,2.3224674E-2,4.318497E-2,7.3257916E-2,-2.414563E-2,3.8275827E-2],"split_indices":[119,119,119,119,137,125,133,152,11,172,113,154,137,117,137,0,0,0,0,0,0,0,0,0,0,0,0,0,0,0,0],"split_type":[0,0,0,0,0,0,0,0,0,0,0,0,0,0,0,0,0,0,0,0,0,0,0,0,0,0,0,0,0,0,0],"sum_hessian":[8.104E3,4.408E3,3.696E3,1.201E3,3.207E3,2.792E3,9.04E2,5.3E2,6.71E2,3.69E2,2.838E3,1.65E2,2.627E3,2.26E2,6.78E2,3.77E2,1.53E2,8.9E1,5.82E2,9.9E1,2.7E2,1.793E3,1.045E3,1.47E2,1.8E1,1.634E3,9.93E2,1.32E2,9.4E1,1.1E1,6.67E2],"tree_param":{"num_deleted":"0","num_feature":"205","num_nodes":"31","size_leaf_vector":"1"}},{"base_weights":[-1.9243833E-1,-4.0147896E0,4.648607E0,-8.342894E0,-2.4248834E0,2.823584E0,7.5015135E0,-1.1362668E1,-6.767342E0,-4.369625E0,-1.3265588E0,-4.041643E0,3.1327162E0,5.2292643E0,9.020621E0,-5.2093886E-2,-1.0136979E-2,-4.470799E-2,-2.6225748E-2,-2.1359691E-2,1.8840291E-3,-1.6152037E-3,-1.2078896E-2,-8.882638E-3,-5.403805E-2,1.537283E-2,-5.8607007E-3,4.092525E-2,1.8611474E-2,3.2737274E-2,4.56972E-2],"categories":[],"categories_nodes":[],"categories_segments":[],"categories_sizes":[],"default_left":[0,0,0,0,0,0,0,0,0,0,0,0,0,0,0,0,0,0,0,0,0,0,0,0,0,0,0,0,0,0,0],"id":5,"left_children":[1,3,5,7,9,11,13,15,17,19,21,23,25,27,29,-1,-1,-1,-1,-1,-1,-1,-1,-1,-1,-1,-1,-1,-1,-1,-1],"loss_changes":[1.4899319E5,3.0942164E4,1.8476445E4,5.696953E3,7.022121E3,4.6046855E3,4.7468906E3,1.5036094E3,2.1895469E3,2.6049824E3,2.8349314E3,1.5278868E3,3.1545781E3,2.2585312E3,1.7049844E3,0E0,0E0,0E0,0E0,0E0,0E0,0E0,0E0,0E0,0E0,0E0,0E0,0E0,0E0,0E0,0E0],"parents":[2147483647,0,0,1,1,2,2,3,3,4,4,5,5,6,6,7,7,8,8,9,9,10,10,11,11,12,12,13,13,14,14],"right_children":[2,4,6,8,10,12,14,16,18,20,22,24,26,28,30,-1,-1,-1,-1,-1,-1,-1,-1,-1,-1,-1,-1,-1,-1,-1,-1],"split_conditions":[2.1575325E1,-1.6110484E2,1.4449736E2,-1.25E1,-4.9E0,-7.8E0,7.7E0,4E0,-2.7164587E2,7.6E0,2.1900376E7,5E-1,1.6704655E3,1E1,0E0,-5.2093886E-2,-1.0136979E-2,-4.470799E-2,-2.6225748E-2,-2.1359691E-2,1.8840291E-3,-1.6152037E-3,-1.2078896E-2,-8.882638E-3,-5.403805E-2,1.537283E-2,-5.8607007E-3,4.092525E-2,1.8611474E-2,3.2737274E-2,4.56972E-2],"split_indices":[119,119,119,141,141,125,141,179,119,145,0,128,117,92,193,0,0,0,0,0,0,0,0,0,0,0,0,0,0,0,0],"split_type":[0,0,0,0,0,0,0,0,0,0,0,0,0,0,0,0,0,0,0,0,0,0,0,0,0,0,0,0,0,0,0],"sum_hessian":[8.051E3,4.499E3,3.552E3,1.208E3,3.291E3,2.167E3,1.385E3,4.13E2,7.95E2,1.187E3,2.104E3,9.3E1,2.074E3,5.56E2,8.29E2,3.95E2,1.8E1,1.59E2,6.36E2,1.084E3,1.03E2,1.249E3,8.55E2,7.5E1,1.8E1,1.927E3,1.47E2,1.12E2,4.44E2,3.71E2,4.58E2],"tree_param":{"num_deleted":"0","num_feature":"205","num_nodes":"31","size_leaf_vector":"1"}},{"base_weights":[3.0007882E-2,-3.9881084E0,4.8910966E0,-8.273147E0,-2.131251E0,3.1396976E0,8.726875E0,-1.1194434E1,-6.8709025E0,-3.55702E0,-6.9591516E-1,-4.300274E0,3.4417653E0,7.464706E0,1.2283184E1,-5.4998588E-2,-2.5548153E-2,-4.53377E-2,-2.7611118E-2,-1.3739926E-2,-3.1836055E-2,-1.1331744E-2,2.3602177E-3,-3.366957E-2,1.5627561E-2,7.873964E-3,1.9430434E-2,1.667565E-2,3.6053825E-2,7.602118E-2,4.6328228E-2],"categories":[],"categories_nodes":[],"categories_segments":[],"categories_sizes":[],"default_left":[0,0,0,0,0,0,0,0,0,0,0,0,0,0,0,0,0,0,0,0,0,0,0,0,0,0,0,0,0,0,0],"id":6,"left_children":[1,3,5,7,9,11,13,15,17,19,21,23,25,27,29,-1,-1,-1,-1,-1,-1,-1,-1,-1,-1,-1,-1,-1,-1,-1,-1],"loss_changes":[1.5846545E5,3.5321016E4,2.4640586E4,5.446586E3,6.337544E3,5.6724453E3,5.1031016E3,2.8525312E3,1.8921758E3,2.5375E3,3.5444995E3,2.5660168E3,3.8122031E3,2.1172227E3,2.5608281E3,0E0,0E0,0E0,0E0,0E0,0E0,0E0,0E0,0E0,0E0,0E0,0E0,0E0,0E0,0E0,0E0],"parents":[2147483647,0,0,1,1,2,2,3,3,4,4,5,5,6,6,7,7,8,8,9,9,10,10,11,11,12,12,13,13,14,14],"right_children":[2,4,6,8,10,12,14,16,18,20,22,24,26,28,30,-1,-1,-1,-1,-1,-1,-1,-1,-1,-1,-1,-1,-1,-1,-1,-1],"split_conditions":[1.8476126E1,-1.520331E2,1.6892966E2,-1.25E1,-2.6E0,-7.8E0,2.8158026E2,5.89E0,-2.7878433E2,2.2301092E7,-5.5E0,3E0,6.1927135E1,3E0,-1.01E1,-5.4998588E-2,-2.5548153E-2,-4.53377E-2,-2.7611118E-2,-1.3739926E-2,-3.1836055E-2,-1.1331744E-2,2.3602177E-3,-3.366957E-2,1.5627561E-2,7.873964E-3,1.9430434E-2,1.667565E-2,3.6053825E-2,7.602118E-2,4.6328228E-2],"split_indices":[119,119,119,141,137,125,119,154,119,0,178,163,119,46,133,0,0,0,0,0,0,0,0,0,0,0,0,0,0,0,0],"split_type":[0,0,0,0,0,0,0,0,0,0,0,0,0,0,0,0,0,0,0,0,0,0,0,0,0,0,0,0,0,0,0],"sum_hessian":[8.112E3,4.441E3,3.671E3,1.342E3,3.099E3,2.521E3,1.15E3,4.34E2,9.08E2,1.554E3,1.545E3,9.8E1,2.423E3,8.5E2,3E2,3.53E2,8.1E1,1.42E2,7.66E2,1.383E3,1.71E2,6.14E2,9.31E2,6.9E1,2.9E1,8.81E2,1.542E3,1.33E2,7.17E2,8E1,2.2E2],"tree_param":{"num_deleted":"0","num_feature":"205","num_nodes":"31","size_leaf_vector":"1"}},{"base_weights":[-9.300197E-2,-4.2692995E0,4.281548E0,-1.016423E1,-3.2515366E0,2.6373239E0,8.429735E0,-1.1969342E1,-7.590386E0,-4.4829445E0,-7.0105594E-1,1.5722134E0,4.945376E0,6.2046213E0,9.887811E0,-9.736134E-2,-5.1012855E-2,2.0371042E-2,-3.5884753E-2,-2.2728864E-2,-9.596406E-3,-9.143209E-3,6.354096E-3,3.3004421E-3,1.618158E-2,1.2412508E-2,2.7142283E-2,2.5537888E-2,7.969167E-2,3.0969786E-2,4.9438465E-2],"categories":[],"categories_nodes":[],"categories_segments":[],"categories_sizes":[],"default_left":[0,0,0,0,0,0,0,0,0,0,0,0,0,0,0,0,0,0,0,0,0,0,0,0,0,0,0,0,0,0,0],"id":7,"left_children":[1,3,5,7,9,11,13,15,17,19,21,23,25,27,29,-1,-1,-1,-1,-1,-1,-1,-1,-1,-1,-1,-1,-1,-1,-1,-1],"loss_changes":[1.4717662E5,2.4699016E4,2.6814102E4,2.757289E3,1.1034336E4,6.9186953E3,3.5785938E3,1.4322227E3,1.6075029E3,3.5683477E3,3.3424397E3,3.3176367E3,2.2442656E3,2.2029648E3,2.4434688E3,0E0,0E0,0E0,0E0,0E0,0E0,0E0,0E0,0E0,0E0,0E0,0E0,0E0,0E0,0E0,0E0],"parents":[2147483647,0,0,1,1,2,2,3,3,4,4,5,5,6,6,7,7,8,8,9,9,10,10,11,11,12,12,13,13,14,14],"right_children":[2,4,6,8,10,12,14,16,18,20,22,24,26,28,30,-1,-1,-1,-1,-1,-1,-1,-1,-1,-1,-1,-1,-1,-1,-1,-1],"split_conditions":[4.1525874E0,-2.2739404E2,1.6892966E2,-1.01E1,-8E-1,6.2E0,8.4E0,-1.17E-1,9E0,-4.4123077E1,8E0,9.5E0,7.35577E1,5.31E0,2.1592433E2,-9.736134E-2,-5.1012855E-2,2.0371042E-2,-3.5884753E-2,-2.2728864E-2,-9.596406E-3,-9.143209E-3,6.354096E-3,3.3004421E-3,1.618158E-2,1.2412508E-2,2.7142283E-2,2.5537888E-2,7.969167E-2,3.0969786E-2,4.9438465E-2],"split_indices":[119,119,119,141,141,141,141,162,92,119,113,181,119,152,119,0,0,0,0,0,0,0,0,0,0,0,0,0,0,0,0],"split_type":[0,0,0,0,0,0,0,0,0,0,0,0,0,0,0,0,0,0,0,0,0,0,0,0,0,0,0,0,0,0,0],"sum_hessian":[8.055E3,4.121E3,3.934E3,6.06E2,3.515E3,2.818E3,1.116E3,3.55E2,2.51E2,2.37E3,1.145E3,1.929E3,8.89E2,4.43E2,6.73E2,1.4E1,3.41E2,1E1,2.41E2,1.848E3,5.22E2,6.99E2,4.46E2,1.382E3,5.47E2,3.18E2,5.71E2,4.28E2,1.5E1,2.08E2,4.65E2],"tree_param":{"num_deleted":"0","num_feature":"205","num_nodes":"31","size_leaf_vector":"1"}},{"base_weights":[-5.6749336E-2,-4.1056414E0,4.808933E0,-8.06337E0,-2.3093996E0,3.4085326E0,8.987495E0,-1.1512275E1,-6.708423E0,-5.260713E0,-1.2148054E0,2.436047E0,5.582944E0,1.3067687E1,7.9684157E0,-6.510316E-2,-4.09432E-2,-3.1767055E-2,-9.6500665E-3,-1.5752915E-2,-3.2389343E-2,-1.0142999E-2,9.600368E-6,-8.611309E-3,1.2333218E-2,-3.6395367E-2,2.5448445E-2,1.1065472E-1,5.1869288E-2,3.7777282E-2,1.1441501E-2],"categories":[],"categories_nodes":[],"categories_segments":[],"categories_sizes":[],"default_left":[0,0,0,0,0,0,0,0,0,0,0,0,0,0,0,0,0,0,0,0,0,0,0,0,0,0,0,0,0,0,0],"id":8,"left_children":[1,3,5,7,9,11,13,15,17,19,21,23,25,27,29,-1,-1,-1,-1,-1,-1,-1,-1,-1,-1,-1,-1,-1,-1,-1,-1],"loss_changes":[1.6207436E5,3.1904094E4,2.183832E4,6.4962266E3,9.971121E3,5.9055723E3,3.8301875E3,2.7670898E3,2.1243398E3,2.9021484E3,2.9570974E3,2.9767275E3,2.012834E3,2.8310977E3,2.2737695E3,0E0,0E0,0E0,0E0,0E0,0E0,0E0,0E0,0E0,0E0,0E0,0E0,0E0,0E0,0E0,0E0],"parents":[2147483647,0,0,1,1,2,2,3,3,4,4,5,5,6,6,7,7,8,8,9,9,10,10,11,11,12,12,13,13,14,14],"right_children":[2,4,6,8,10,12,14,16,18,20,22,24,26,28,30,-1,-1,-1,-1,-1,-1,-1,-1,-1,-1,-1,-1,-1,-1,-1,-1],"split_conditions":[1.8476126E1,-1.4925996E2,1.9178436E2,-2.6542593E2,-6.2E0,7.2E0,-1.01E1,-8.4E0,5.4E0,1.106E2,3E-1,-6.8E0,2.5E-1,-9.1E0,1.14E2,-6.510316E-2,-4.09432E-2,-3.1767055E-2,-9.6500665E-3,-1.5752915E-2,-3.2389343E-2,-1.0142999E-2,9.600368E-6,-8.611309E-3,1.2333218E-2,-3.6395367E-2,2.5448445E-2,1.1065472E-1,5.1869288E-2,3.7777282E-2,1.1441501E-2],"split_indices":[119,119,119,119,141,141,133,121,142,130,141,125,124,146,134,0,0,0,0,0,0,0,0,0,0,0,0,0,0,0,0],"split_type":[0,0,0,0,0,0,0,0,0,0,0,0,0,0,0,0,0,0,0,0,0,0,0,0,0,0,0,0,0,0,0],"sum_hessian":[8.226E3,4.49E3,3.736E3,1.401E3,3.089E3,2.799E3,9.37E2,3.94E2,1.007E3,8.35E2,2.254E3,1.935E3,8.64E2,1.86E2,7.51E2,1.62E2,2.32E2,9.12E2,9.5E1,4.58E2,3.77E2,1.196E3,1.058E3,1.43E2,1.792E3,1E1,8.54E2,1.8E1,1.68E2,6.79E2,7.2E1],"tree_param":{"num_deleted":"0","num_feature":"205","num_nodes":"31","size_leaf_vector":"1"}},{"base_weights":[6.083046E-2,-3.9672275E0,4.9365964E0,-8.196301E0,-2.1268303E0,3.2868004E0,8.309978E0,-1.0257794E1,-6.5609865E0,-4.5373983E0,-1.0450709E0,2.385727E0,5.502066E0,6.3966904E0,9.883791E0,-5.5424143E-2,-3.78701E-2,-5.0221216E-2,-2.6390703E-2,-8.819195E-3,-2.482307E-2,-3.2931045E-4,-1.0855113E-2,-6.4427406E-3,1.1966495E-2,-3.7084512E-2,2.5171705E-2,3.041921E-2,-1.1590406E-2,3.3463154E-2,5.1197287E-2],"categories":[],"categories_nodes":[],"categories_segments":[],"categories_sizes":[],"default_left":[0,0,0,0,0,0,0,0,0,0,0,0,0,0,0,0,0,0,0,0,0,0,0,0,0,0,0,0,0,0,0],"id":9,"left_children":[1,3,5,7,9,11,13,15,17,19,21,23,25,27,29,-1,-1,-1,-1,-1,-1,-1,-1,-1,-1,-1,-1,-1,-1,-1,-1],"loss_changes":[1.5847305E5,3.437146E4,2.029236E4,4.468539E3,8.022454E3,4.881623E3,3.564086E3,2.2098984E3,2.0948398E3,2.586711E3,2.9028213E3,2.134504E3,1.8422344E3,2.3424453E3,2.5096523E3,0E0,0E0,0E0,0E0,0E0,0E0,0E0,0E0,0E0,0E0,0E0,0E0,0E0,0E0,0E0,0E0],"parents":[2147483647,0,0,1,1,2,2,3,3,4,4,5,5,6,6,7,7,8,8,9,9,10,10,11,11,12,12,13,13,14,14],"right_children":[2,4,6,8,10,12,14,16,18,20,22,24,26,28,30,-1,-1,-1,-1,-1,-1,-1,-1,-1,-1,-1,-1,-1,-1,-1,-1],"split_conditions":[1.8476126E1,-1.520331E2,1.637191E2,-2.2739404E2,-5.7E0,6.9E0,2.2212737E2,-7.2E0,-1.52E1,1.2E1,2.1900376E7,-6.9E0,1.3621614E3,3.43E0,4.4E0,-5.5424143E-2,-3.78701E-2,-5.0221216E-2,-2.6390703E-2,-8.819195E-3,-2.482307E-2,-3.2931045E-4,-1.0855113E-2,-6.4427406E-3,1.1966495E-2,-3.7084512E-2,2.5171705E-2,3.041921E-2,-1.1590406E-2,3.3463154E-2,5.1197287E-2],"split_indices":[119,119,119,119,141,141,119,125,138,55,0,141,117,10,138,0,0,0,0,0,0,0,0,0,0,0,0,0,0,0,0],"split_type":[0,0,0,0,0,0,0,0,0,0,0,0,0,0,0,0,0,0,0,0,0,0,0,0,0,0,0,0,0,0,0],"sum_hessian":[8.068E3,4.418E3,3.65E3,1.339E3,3.079E3,2.452E3,1.198E3,5.91E2,7.48E2,9.53E2,2.126E3,1.744E3,7.08E2,5.42E2,6.56E2,2.52E2,3.39E2,8.2E1,6.66E2,2.83E2,6.7E2,1.259E3,8.67E2,1.33E2,1.611E3,9E0,6.99E2,5.15E2,2.7E1,2.77E2,3.79E2],"tree_param":{"num_deleted":"0","num_feature":"205","num_nodes":"31","size_leaf_vector":"1"}},{"base_weights":[-2.1414112E-2,-3.9801693E0,4.5076613E0,-7.88989E0,-2.2520266E0,3.019465E0,8.843751E0,-1.0253163E1,-6.7633495E0,-3.6717749E0,-2.4465127E-2,-7.8837836E-1,3.4548032E0,6.442846E0,1.03350725E1,-5.139727E-2,-2.9959314E-2,-2.326995E-2,-3.7614554E-2,-1.2158315E-2,-2.3185072E-2,2.186037E-3,-2.3646925E-2,-6.041772E-3,7.142588E-2,1.9054981E-2,9.085625E-3,2.6348833E-2,8.931798E-2,4.306582E-2,6.9729015E-2],"categories":[],"categories_nodes":[],"categories_segments":[],"categories_sizes":[],"default_left":[0,0,0,0,0,0,0,0,0,0,0,0,0,0,0,0,0,0,0,0,0,0,0,0,0,0,0,0,0,0,0],"id":10,"left_children":[1,3,5,7,9,11,13,15,17,19,21,23,25,27,29,-1,-1,-1,-1,-1,-1,-1,-1,-1,-1,-1,-1,-1,-1,-1,-1],"loss_changes":[1.4456323E5,2.9051672E4,2.424218E4,3.4620156E3,9.434833E3,4.6461855E3,3.3922734E3,1.9573594E3,2.303418E3,2.6258516E3,3.2109868E3,2.8014414E3,2.9870293E3,2.4039043E3,1.8433672E3,0E0,0E0,0E0,0E0,0E0,0E0,0E0,0E0,0E0,0E0,0E0,0E0,0E0,0E0,0E0,0E0],"parents":[2147483647,0,0,1,1,2,2,3,3,4,4,5,5,6,6,7,7,8,8,9,9,10,10,11,11,12,12,13,13,14,14],"right_children":[2,4,6,8,10,12,14,16,18,20,22,24,26,28,30,-1,-1,-1,-1,-1,-1,-1,-1,-1,-1,-1,-1,-1,-1,-1,-1],"split_conditions":[1.4378077E1,-1.520331E2,1.8445097E2,-1.25E1,-8E-1,-4.2E0,8.7E0,-5E0,-1.5E-2,2.1901264E7,1E0,6E-1,2.190094E7,3.46E1,1.15E2,-5.139727E-2,-2.9959314E-2,-2.326995E-2,-3.7614554E-2,-1.2158315E-2,-2.3185072E-2,2.186037E-3,-2.3646925E-2,-6.041772E-3,7.142588E-2,1.9054981E-2,9.085625E-3,2.6348833E-2,8.931798E-2,4.306582E-2,6.9729015E-2],"split_indices":[119,119,119,141,141,141,141,138,177,0,116,177,0,169,123,0,0,0,0,0,0,0,0,0,0,0,0,0,0,0,0],"split_type":[0,0,0,0,0,0,0,0,0,0,0,0,0,0,0,0,0,0,0,0,0,0,0,0,0,0,0,0,0,0,0],"sum_hessian":[8.062E3,4.302E3,3.76E3,1.318E3,2.984E3,2.8E3,9.6E2,4.24E2,8.94E2,1.822E3,1.162E3,2.87E2,2.513E3,3.69E2,5.91E2,3.04E2,1.2E2,4.8E2,4.14E2,1.147E3,6.75E2,1.059E3,1.03E2,2.78E2,9E0,1.563E3,9.5E2,3.57E2,1.2E1,5.33E2,5.8E1],"tree_param":{"num_deleted":"0","num_feature":"205","num_nodes":"31","size_leaf_vector":"1"}},{"base_weights":[-7.9537675E-2,-4.2299747E0,4.294279E0,-8.068433E0,-2.5204704E0,2.736721E0,8.471303E0,-1.015097E1,-6.3776665E0,-4.70769E0,-1.8926419E0,2.1832461E0,4.891519E0,5.2521534E0,9.412916E0,-5.8672205E-2,-3.814089E-2,-1.8932495E-2,-3.5445414E-2,-2.2099977E-2,2.8090047E-2,2.8176429E-3,-1.0639165E-2,2.9876951E-2,8.568517E-3,6.451502E-2,1.9467149E-2,5.263192E-2,1.9196728E-2,3.9259747E-2,6.8730354E-2],"categories":[],"categories_nodes":[],"categories_segments":[],"categories_sizes":[],"default_left":[0,0,0,0,0,0,0,0,0,0,0,0,0,0,0,0,0,0,0,0,0,0,0,0,0,0,0,0,0,0,0],"id":11,"left_children":[1,3,5,7,9,11,13,15,17,19,21,23,25,27,29,-1,-1,-1,-1,-1,-1,-1,-1,-1,-1,-1,-1,-1,-1,-1,-1],"loss_changes":[1.4878217E5,2.7575898E4,2.594011E4,4.515828E3,3.9860508E3,3.4556602E3,3.2473203E3,2.6860195E3,2.4263945E3,2.0612568E3,2.9280283E3,2.5987207E3,2.785754E3,1.4574663E3,2.6914219E3,0E0,0E0,0E0,0E0,0E0,0E0,0E0,0E0,0E0,0E0,0E0,0E0,0E0,0E0,0E0,0E0],"parents":[2147483647,0,0,1,1,2,2,3,3,4,4,5,5,6,6,7,7,8,8,9,9,10,10,11,11,12,12,13,13,14,14],"right_children":[2,4,6,8,10,12,14,16,18,20,22,24,26,28,30,-1,-1,-1,-1,-1,-1,-1,-1,-1,-1,-1,-1,-1,-1,-1,-1],"split_conditions":[5.8217E0,-1.5626157E2,1.786484E2,-2.3222815E2,-5.1E0,7.3E0,-6E-1,-9E0,1.064E2,5.9E0,-2.7E0,-1.68E1,-7.5E0,-2E0,5.11E-1,-5.8672205E-2,-3.814089E-2,-1.8932495E-2,-3.5445414E-2,-2.2099977E-2,2.8090047E-2,2.8176429E-3,-1.0639165E-2,2.9876951E-2,8.568517E-3,6.451502E-2,1.9467149E-2,5.263192E-2,1.9196728E-2,3.9259747E-2,6.8730354E-2],"split_indices":[119,119,119,119,125,142,138,121,123,155,133,139,143,42,161,0,0,0,0,0,0,0,0,0,0,0,0,0,0,0,0],"split_type":[0,0,0,0,0,0,0,0,0,0,0,0,0,0,0,0,0,0,0,0,0,0,0,0,0,0,0,0,0,0,0],"sum_hessian":[8.195E3,4.205E3,3.99E3,1.295E3,2.91E3,2.907E3,1.083E3,5.79E2,7.16E2,6.48E2,2.262E3,2.314E3,5.93E2,2.46E2,8.37E2,1.9E2,3.89E2,3.14E2,4.02E2,6.32E2,1.6E1,3.8E2,1.882E3,1.18E2,2.196E3,2.8E1,5.65E2,2.9E1,2.17E2,7.7E2,6.7E1],"tree_param":{"num_deleted":"0","num_feature":"205","num_nodes":"31","size_leaf_vector":"1"}},{"base_weights":[-7.873193E-2,-3.7592993E0,3.535341E0,-6.633129E0,-1.7767609E0,1.5935708E0,6.272593E0,-4.3824143E0,-8.999493E0,-2.852324E-1,-4.364241E0,3.0153768E0,1.3805138E-1,7.8964195E0,3.3746135E0,-2.7864203E-2,-9.987418E-3,-5.8699917E-2,-3.533709E-2,-5.283937E-3,1.2623136E-2,-2.6737781E-2,-5.17657E-3,3.326335E-3,2.0893382E-2,-7.5490787E-3,7.0702187E-3,6.794851E-3,3.8317163E-2,8.465033E-3,4.1905522E-2],"categories":[],"categories_nodes":[],"categories_segments":[],"categories_sizes":[],"default_left":[0,0,0,0,0,0,0,0,0,0,0,0,0,0,0,0,0,0,0,0,0,0,0,0,0,0,0,0,0,0,0],"id":12,"left_children":[1,3,5,7,9,11,13,15,17,19,21,23,25,27,29,-1,-1,-1,-1,-1,-1,-1,-1,-1,-1,-1,-1,-1,-1,-1,-1],"loss_changes":[1.0836895E5,2.298391E4,2.1835188E4,8.743289E3,9.216418E3,4.974672E3,8.002336E3,3.4240098E3,3.4044336E3,4.3230293E3,4.6693086E3,4.689384E3,3.2017556E3,5.2740156E3,5.445723E3,0E0,0E0,0E0,0E0,0E0,0E0,0E0,0E0,0E0,0E0,0E0,0E0,0E0,0E0,0E0,0E0],"parents":[2147483647,0,0,1,1,2,2,3,3,4,4,5,5,6,6,7,7,8,8,9,9,10,10,11,11,12,12,13,13,14,14],"right_children":[2,4,6,8,10,12,14,16,18,20,22,24,26,28,30,-1,-1,-1,-1,-1,-1,-1,-1,-1,-1,-1,-1,-1,-1,-1,-1],"split_conditions":[0E0,1.4357794E3,7.2E0,1.5394783E3,1.6000294E3,1.4967974E3,1.4677928E3,-5.9E0,-1.82E1,1.5711512E3,4E0,1.4951443E3,-1.5E0,1.44793E3,1.6914398E3,-2.7864203E-2,-9.987418E-3,-5.8699917E-2,-3.533709E-2,-5.283937E-3,1.2623136E-2,-2.6737781E-2,-5.17657E-3,3.326335E-3,2.0893382E-2,-7.5490787E-3,7.0702187E-3,6.794851E-3,3.8317163E-2,8.465033E-3,4.1905522E-2],"split_indices":[141,117,141,118,118,118,118,141,137,117,48,117,147,117,117,0,0,0,0,0,0,0,0,0,0,0,0,0,0,0,0],"split_type":[0,0,0,0,0,0,0,0,0,0,0,0,0,0,0,0,0,0,0,0,0,0,0,0,0,0,0,0,0,0,0],"sum_hessian":[8.146E3,4.036E3,4.11E3,1.647E3,2.389E3,2.405E3,1.705E3,8.45E2,8.02E2,1.516E3,8.73E2,1.216E3,1.189E3,1.092E3,6.13E2,4.44E2,4.01E2,1.53E2,6.49E2,1.176E3,3.4E2,5.72E2,3.01E2,5.23E2,6.93E2,5.25E2,6.64E2,1.17E2,9.75E2,4.95E2,1.18E2],"tree_param":{"num_deleted":"0","num_feature":"205","num_nodes":"31","size_leaf_vector":"1"}},{"base_weights":[-9.944948E-2,-3.8250868E0,4.36026E0,-7.840905E0,-2.114851E0,2.8855877E0,8.347403E0,-1.064363E1,-6.7290554E0,-6.328544E0,-1.6381257E0,1.805163E0,5.2048516E0,7.9485455E0,1.8155954E1,-5.7413243E-3,-4.905982E-2,-1.9747442E-2,-3.587373E-2,-3.0390622E-2,2.5982305E-2,-1.11178495E-2,-3.795806E-4,-2.1075001E-2,9.633803E-3,1.5235933E-2,2.9187152E-2,2.7219793E-2,4.03419E-2,4.9350828E-2,9.701972E-2],"categories":[],"categories_nodes":[],"categories_segments":[],"categories_sizes":[],"default_left":[0,0,0,0,0,0,0,0,0,0,0,0,0,0,0,0,0,0,0,0,0,0,0,0,0,0,0,0,0,0,0],"id":13,"left_children":[1,3,5,7,9,11,13,15,17,19,21,23,25,27,29,-1,-1,-1,-1,-1,-1,-1,-1,-1,-1,-1,-1,-1,-1,-1,-1],"loss_changes":[1.346479E5,3.0307934E4,2.166507E4,4.0590703E3,6.2094883E3,6.7380176E3,3.8035312E3,1.5216133E3,2.9218164E3,2.0834736E3,3.7734854E3,4.4881323E3,2.0752227E3,1.96825E3,8.7138184E2,0E0,0E0,0E0,0E0,0E0,0E0,0E0,0E0,0E0,0E0,0E0,0E0,0E0,0E0,0E0,0E0],"parents":[2147483647,0,0,1,1,2,2,3,3,4,4,5,5,6,6,7,7,8,8,9,9,10,10,11,11,12,12,13,13,14,14],"right_children":[2,4,6,8,10,12,14,16,18,20,22,24,26,28,30,-1,-1,-1,-1,-1,-1,-1,-1,-1,-1,-1,-1,-1,-1,-1,-1],"split_conditions":[1.751152E1,-1.520331E2,1.8445097E2,-2.6542593E2,-1.4E1,6.9E0,4.1464172E2,-9.8E0,1.05E2,6E0,5E-1,-7.8E0,9.518114E1,8.4E0,-1E0,-5.7413243E-3,-4.905982E-2,-1.9747442E-2,-3.587373E-2,-3.0390622E-2,2.5982305E-2,-1.11178495E-2,-3.795806E-4,-2.1075001E-2,9.633803E-3,1.5235933E-2,2.9187152E-2,2.7219793E-2,4.03419E-2,4.9350828E-2,9.701972E-2],"split_indices":[119,119,119,119,137,141,119,149,130,194,141,125,119,141,176,0,0,0,0,0,0,0,0,0,0,0,0,0,0,0,0],"split_type":[0,0,0,0,0,0,0,0,0,0,0,0,0,0,0,0,0,0,0,0,0,0,0,0,0,0,0,0,0,0,0],"sum_hessian":[8.103E3,4.415E3,3.688E3,1.318E3,3.097E3,2.693E3,9.95E2,3.73E2,9.45E2,3.14E2,2.783E3,1.838E3,8.55E2,9.57E2,3.8E1,1.7E1,3.56E2,3.58E2,5.87E2,3.01E2,1.3E1,1.78E3,1.003E3,9.8E1,1.74E3,3.78E2,4.77E2,3.78E2,5.79E2,1.4E1,2.4E1],"tree_param":{"num_deleted":"0","num_feature":"205","num_nodes":"31","size_leaf_vector":"1"}},{"base_weights":[-1.0866163E-2,-3.943231E0,4.628681E0,-8.4492445E0,-2.2357051E0,2.7331743E0,7.7204924E0,-1.0596124E1,-7.1234174E0,-3.1633117E0,-2.7733347E-1,-2.4462364E0,3.081421E0,5.0772247E0,9.215352E0,-7.282026E-2,-4.4286236E-2,-2.8781114E-2,-5.3933702E-2,-1.8041154E-2,-5.8218054E-3,7.483701E-4,-2.1110144E-2,-5.161007E-2,-5.257341E-3,1.4771451E-2,-5.7416377E-3,4.58555E-2,1.8432012E-2,3.8433407E-2,6.472207E-2],"categories":[],"categories_nodes":[],"categories_segments":[],"categories_sizes":[],"default_left":[0,0,0,0,0,0,0,0,0,0,0,0,0,0,0,0,0,0,0,0,0,0,0,0,0,0,0,0,0,0,0],"id":14,"left_children":[1,3,5,7,9,11,13,15,17,19,21,23,25,27,29,-1,-1,-1,-1,-1,-1,-1,-1,-1,-1,-1,-1,-1,-1,-1,-1],"loss_changes":[1.4899944E5,3.3992406E4,2.1936367E4,3.4052266E3,5.8210137E3,4.1948555E3,5.5892188E3,1.4971289E3,2.3091328E3,3.6626562E3,2.0735637E3,1.6791633E3,2.4462793E3,2.4514717E3,2.5306953E3,0E0,0E0,0E0,0E0,0E0,0E0,0E0,0E0,0E0,0E0,0E0,0E0,0E0,0E0,0E0,0E0],"parents":[2147483647,0,0,1,1,2,2,3,3,4,4,5,5,6,6,7,7,8,8,9,9,10,10,11,11,12,12,13,13,14,14],"right_children":[2,4,6,8,10,12,14,16,18,20,22,24,26,28,30,-1,-1,-1,-1,-1,-1,-1,-1,-1,-1,-1,-1,-1,-1,-1,-1],"split_conditions":[1.751152E1,-1.6110484E2,1.4449736E2,-2.5242928E2,4E-1,-6.8E0,7.3E0,-2.2E1,1.192E2,-4.255649E1,2.21E1,-1.32E1,1.6133065E3,-3.4E0,-5E-1,-7.282026E-2,-4.4286236E-2,-2.8781114E-2,-5.3933702E-2,-1.8041154E-2,-5.8218054E-3,7.483701E-4,-2.1110144E-2,-5.161007E-2,-5.257341E-3,1.4771451E-2,-5.7416377E-3,4.58555E-2,1.8432012E-2,3.8433407E-2,6.472207E-2],"split_indices":[119,119,119,119,141,125,141,141,130,119,69,84,118,152,133,0,0,0,0,0,0,0,0,0,0,0,0,0,0,0,0],"split_type":[0,0,0,0,0,0,0,0,0,0,0,0,0,0,0,0,0,0,0,0,0,0,0,0,0,0,0,0,0,0,0],"sum_hessian":[8.166E3,4.42E3,3.746E3,1.214E3,3.206E3,2.323E3,1.423E3,4.62E2,7.52E2,2.175E3,1.031E3,1.46E2,2.177E3,5.15E2,9.08E2,4.1E1,4.21E2,6.71E2,8.1E1,1.455E3,7.2E2,9.38E2,9.3E1,1.7E1,1.29E2,2.057E3,1.2E2,7.5E1,4.4E2,8.28E2,8E1],"tree_param":{"num_deleted":"0","num_feature":"205","num_nodes":"31","size_leaf_vector":"1"}},{"base_weights":[8.519962E-2,-3.769892E0,4.793434E0,-8.575959E0,-2.1807806E0,3.412673E0,8.70544E0,-1.0522733E1,-6.484132E0,-4.471736E0,-1.2553912E0,2.2589715E0,4.740145E0,1.3769095E1,7.9722323E0,-5.1712554E-2,-3.421815E-2,-3.5253055E-2,-1.7467573E-2,-2.771869E-2,-1.3544743E-2,6.304079E-3,-8.618064E-3,7.938934E-3,2.5514072E-2,1.3309718E-2,2.5939649E-2,6.8821244E-2,2.6491737E-2,3.348442E-2,8.447261E-2],"categories":[],"categories_nodes":[],"categories_segments":[],"categories_sizes":[],"default_left":[0,0,0,0,0,0,0,0,0,0,0,0,0,0,0,0,0,0,0,0,0,0,0,0,0,0,0,0,0,0,0],"id":15,"left_children":[1,3,5,7,9,11,13,15,17,19,21,23,25,27,29,-1,-1,-1,-1,-1,-1,-1,-1,-1,-1,-1,-1,-1,-1,-1,-1],"loss_changes":[1.4943367E5,3.4551074E4,1.999514E4,4.531508E3,7.2050596E3,4.1852363E3,3.5171406E3,1.8252812E3,2.0165098E3,2.4556543E3,4.496657E3,2.3810762E3,2.4566367E3,1.6201797E3,3.7282305E3,0E0,0E0,0E0,0E0,0E0,0E0,0E0,0E0,0E0,0E0,0E0,0E0,0E0,0E0,0E0,0E0],"parents":[2147483647,0,0,1,1,2,2,3,3,4,4,5,5,6,6,7,7,8,8,9,9,10,10,11,11,12,12,13,13,14,14],"right_children":[2,4,6,8,10,12,14,16,18,20,22,24,26,28,30,-1,-1,-1,-1,-1,-1,-1,-1,-1,-1,-1,-1,-1,-1,-1,-1],"split_conditions":[2.1575325E1,-1.6960707E2,1.9178436E2,-2.3222815E2,-7.6E0,9.518114E1,-9.1E0,1.41E0,1E0,-9.31587E1,-2.14E0,1E1,4E-1,2E0,4.1464172E2,-5.1712554E-2,-3.421815E-2,-3.5253055E-2,-1.7467573E-2,-2.771869E-2,-1.3544743E-2,6.304079E-3,-8.618064E-3,7.938934E-3,2.5514072E-2,1.3309718E-2,2.5939649E-2,6.8821244E-2,2.6491737E-2,3.348442E-2,8.447261E-2],"split_indices":[119,119,119,119,137,119,146,152,194,119,152,90,138,21,119,0,0,0,0,0,0,0,0,0,0,0,0,0,0,0,0],"split_type":[0,0,0,0,0,0,0,0,0,0,0,0,0,0,0,0,0,0,0,0,0,0,0,0,0,0,0,0,0,0,0],"sum_hessian":[8.232E3,4.526E3,3.706E3,1.124E3,3.402E3,2.74E3,9.66E2,5.81E2,5.43E2,9.78E2,2.424E3,1.467E3,1.273E3,1.21E2,8.45E2,4.09E2,1.72E2,3.42E2,2.01E2,4.3E2,5.48E2,4.97E2,1.927E3,1.296E3,1.71E2,5.01E2,7.72E2,9.8E1,2.3E1,8.16E2,2.9E1],"tree_param":{"num_deleted":"0","num_feature":"205","num_nodes":"31","size_leaf_vector":"1"}},{"base_weights":[1.3547666E-1,-4.722029E0,3.5360625E0,-9.415877E0,-3.1908817E0,1.7140579E0,7.6810703E0,-1.1267324E1,-7.974838E0,-3.9827697E0,-5.624811E-1,7.14046E-1,3.5787187E0,5.602809E0,9.289541E0,-4.0841226E-2,-6.0550798E-2,-6.457091E-2,-3.2983698E-2,-1.1198217E-2,-2.3049265E-2,-1.0970324E-2,5.2612047E-3,5.2665063E-4,1.7580044E-2,-5.5295862E-2,1.6920932E-2,-1.5629854E-2,2.6805682E-2,5.7988036E-2,3.8414378E-2],"categories":[],"categories_nodes":[],"categories_segments":[],"categories_sizes":[],"default_left":[0,0,0,0,0,0,0,0,0,0,0,0,0,0,0,0,0,0,0,0,0,0,0,0,0,0,0,0,0,0,0],"id":16,"left_children":[1,3,5,7,9,11,13,15,17,19,21,23,25,27,29,-1,-1,-1,-1,-1,-1,-1,-1,-1,-1,-1,-1,-1,-1,-1,-1],"loss_changes":[1.3452281E5,2.4075102E4,3.616328E4,2.1400781E3,5.2592637E3,6.201083E3,4.8504844E3,1.6899844E3,1.5370918E3,3.4449668E3,1.9706115E3,4.1978564E3,4.5776064E3,2.6631895E3,1.8420156E3,0E0,0E0,0E0,0E0,0E0,0E0,0E0,0E0,0E0,0E0,0E0,0E0,0E0,0E0,0E0,0E0],"parents":[2147483647,0,0,1,1,2,2,3,3,4,4,5,5,6,6,7,7,8,8,9,9,10,10,11,11,12,12,13,13,14,14],"right_children":[2,4,6,8,10,12,14,16,18,20,22,24,26,28,30,-1,-1,-1,-1,-1,-1,-1,-1,-1,-1,-1,-1,-1,-1,-1,-1],"split_conditions":[-3.0649954E1,-1.9826341E2,1.4449736E2,-6.8E0,6E-1,7.209312E1,8.3E0,1.6098269E3,-3.54E0,1.068E2,1.046E2,1.67E1,-1.01E1,-8.2E-2,-6E-1,-4.0841226E-2,-6.0550798E-2,-6.457091E-2,-3.2983698E-2,-1.1198217E-2,-2.3049265E-2,-1.0970324E-2,5.2612047E-3,5.2665063E-4,1.7580044E-2,-5.5295862E-2,1.6920932E-2,-1.5629854E-2,2.6805682E-2,5.7988036E-2,3.8414378E-2],"split_indices":[119,119,119,125,141,119,141,118,152,134,130,181,125,41,174,0,0,0,0,0,0,0,0,0,0,0,0,0,0,0,0],"split_type":[0,0,0,0,0,0,0,0,0,0,0,0,0,0,0,0,0,0,0,0,0,0,0,0,0,0,0,0,0,0,0],"sum_hessian":[8.143E3,3.353E3,4.79E3,8.24E2,2.529E3,3.328E3,1.462E3,3.59E2,4.65E2,1.943E3,5.86E2,2.167E3,1.161E3,6.39E2,8.23E2,1.96E2,1.63E2,3.3E1,4.32E2,8.9E2,1.053E3,2.8E2,3.06E2,1.833E3,3.34E2,1.7E1,1.144E3,3E1,6.09E2,1.12E2,7.11E2],"tree_param":{"num_deleted":"0","num_feature":"205","num_nodes":"31","size_leaf_vector":"1"}},{"base_weights":[1.6402589E-1,-3.9221942E0,3.5021017E0,-6.6054873E0,-1.9884136E0,1.5213468E0,6.9069047E0,-5.305558E0,-1.059893E1,1.1603785E0,-2.9296799E0,1.4819337E-1,2.951723E0,8.22582E0,3.1701286E0,-3.0764118E-2,-1.3693845E-2,-4.133438E-2,-7.3451035E-2,-9.885063E-3,1.3301953E-2,-1.6041819E-2,2.120065E-3,1.4766643E-2,-4.09567E-3,1.7981559E-2,-1.7665742E-3,2.7720474E-2,4.5288064E-2,8.643471E-3,4.2398106E-2],"categories":[],"categories_nodes":[],"categories_segments":[],"categories_sizes":[],"default_left":[0,0,0,0,0,0,0,0,0,0,0,0,0,0,0,0,0,0,0,0,0,0,0,0,0,0,0,0,0,0,0],"id":17,"left_children":[1,3,5,7,9,11,13,15,17,19,21,23,25,27,29,-1,-1,-1,-1,-1,-1,-1,-1,-1,-1,-1,-1,-1,-1,-1,-1],"loss_changes":[1.1096057E5,1.8963684E4,3.0183172E4,7.9089375E3,6.3057715E3,5.5580435E3,8.0914453E3,4.188674E3,2.740461E3,3.0688625E3,3.8827344E3,4.9515E3,5.166671E3,4.7456875E3,3.3382705E3,0E0,0E0,0E0,0E0,0E0,0E0,0E0,0E0,0E0,0E0,0E0,0E0,0E0,0E0,0E0,0E0],"parents":[2147483647,0,0,1,1,2,2,3,3,4,4,5,5,6,6,7,7,8,8,9,9,10,10,11,11,12,12,13,13,14,14],"right_children":[2,4,6,8,10,12,14,16,18,20,22,24,26,28,30,-1,-1,-1,-1,-1,-1,-1,-1,-1,-1,-1,-1,-1,-1,-1,-1],"split_conditions":[-1.1E0,1.4357794E3,7.3E0,1.6084435E3,1.5060778E3,1.5349332E3,1.4954563E3,1.3735312E3,1.1E1,-5.7E0,1.6050184E3,1.395432E3,1.5861719E3,1.5754968E3,1.702195E3,-3.0764118E-2,-1.3693845E-2,-4.133438E-2,-7.3451035E-2,-9.885063E-3,1.3301953E-2,-1.6041819E-2,2.120065E-3,1.4766643E-2,-4.09567E-3,1.7981559E-2,-1.7665742E-3,2.7720474E-2,4.5288064E-2,8.643471E-3,4.2398106E-2],"split_indices":[141,117,141,118,118,117,118,117,133,141,117,118,118,117,117,0,0,0,0,0,0,0,0,0,0,0,0,0,0,0,0],"split_type":[0,0,0,0,0,0,0,0,0,0,0,0,0,0,0,0,0,0,0,0,0,0,0,0,0,0,0,0,0,0,0],"sum_hessian":[8.134E3,3.657E3,4.477E3,1.531E3,2.126E3,2.831E3,1.646E3,1.156E3,3.75E2,4.89E2,1.637E3,1.445E3,1.386E3,1.216E3,4.3E2,6.62E2,4.94E2,3.11E2,6.4E1,1.72E2,3.17E2,1.36E3,2.77E2,3.64E2,1.081E3,1.041E3,3.45E2,6.16E2,6E2,3.62E2,6.8E1],"tree_param":{"num_deleted":"0","num_feature":"205","num_nodes":"31","size_leaf_vector":"1"}},{"base_weights":[-1.258181E-1,-4.136051E0,4.090145E0,-7.752686E0,-2.4358006E0,2.417357E0,7.8913155E0,-1.0032546E1,-6.0320354E0,-3.5719306E0,-3.2597885E-1,1.5770667E0,4.7812796E0,6.38128E0,1.0152506E1,-5.969805E-2,-3.7885003E-2,-1.9055754E-2,-3.5008922E-2,-1.8757345E-2,-6.2566986E-3,-1.6544877E-2,1.6017306E-3,2.0166043E-2,4.71644E-3,1.9838417E-2,5.9847686E-2,3.0264698E-2,-5.353579E-3,2.9388193E-2,5.008806E-2],"categories":[],"categories_nodes":[],"categories_segments":[],"categories_sizes":[],"default_left":[0,0,0,0,0,0,0,0,0,0,0,0,0,0,0,0,0,0,0,0,0,0,0,0,0,0,0,0,0,0,0],"id":18,"left_children":[1,3,5,7,9,11,13,15,17,19,21,23,25,27,29,-1,-1,-1,-1,-1,-1,-1,-1,-1,-1,-1,-1,-1,-1,-1,-1],"loss_changes":[1.3708027E5,2.5534E4,2.5113023E4,5.1681016E3,6.773084E3,5.443792E3,4.0772266E3,2.8292383E3,2.4318027E3,2.6338027E3,2.3288242E3,3.0798442E3,1.8341445E3,2.5257188E3,1.9220664E3,0E0,0E0,0E0,0E0,0E0,0E0,0E0,0E0,0E0,0E0,0E0,0E0,0E0,0E0,0E0,0E0],"parents":[2147483647,0,0,1,1,2,2,3,3,4,4,5,5,6,6,7,7,8,8,9,9,10,10,11,11,12,12,13,13,14,14],"right_children":[2,4,6,8,10,12,14,16,18,20,22,24,26,28,30,-1,-1,-1,-1,-1,-1,-1,-1,-1,-1,-1,-1,-1,-1,-1,-1],"split_conditions":[5.8217E0,-1.520331E2,1.5818538E2,-2.3222815E2,-3E-1,6.9E0,1.14E1,-9.2E0,1.083E2,2E0,-1.85E1,2.1200198E7,2.44E1,2.230088E7,-1.08E1,-5.969805E-2,-3.7885003E-2,-1.9055754E-2,-3.5008922E-2,-1.8757345E-2,-6.2566986E-3,-1.6544877E-2,1.6017306E-3,2.0166043E-2,4.71644E-3,1.9838417E-2,5.9847686E-2,3.0264698E-2,-5.353579E-3,2.9388193E-2,5.008806E-2],"split_indices":[119,119,119,119,141,141,141,121,134,190,169,0,137,0,84,0,0,0,0,0,0,0,0,0,0,0,0,0,0,0,0],"split_type":[0,0,0,0,0,0,0,0,0,0,0,0,0,0,0,0,0,0,0,0,0,0,0,0,0,0,0,0,0,0,0],"sum_hessian":[8.107E3,4.155E3,3.952E3,1.328E3,2.827E3,2.745E3,1.207E3,5.7E2,7.58E2,1.837E3,9.9E2,2.026E3,7.19E2,7.25E2,4.82E2,1.69E2,4.01E2,3.96E2,3.62E2,1.403E3,4.34E2,1.66E2,8.24E2,2.96E2,1.73E3,6.96E2,2.3E1,6.84E2,4.1E1,1.21E2,3.61E2],"tree_param":{"num_deleted":"0","num_feature":"205","num_nodes":"31","size_leaf_vector":"1"}},{"base_weights":[-2.3354547E-2,-4.1830025E0,4.2665753E0,-9.279157E0,-2.9395833E0,2.8596957E0,8.532848E0,-1.124699E1,-7.507314E0,-5.2122064E0,-1.9070356E0,2.052574E0,4.89077E0,7.2939005E0,1.1195724E1,2.9913401E-3,-5.1070977E-2,-3.544415E-2,9.092358E-3,-2.9808754E-2,-1.213766E-2,7.907439E-4,-1.1348186E-2,-1.0778508E-2,1.0213826E-2,1.4895684E-2,2.8190618E-2,2.982754E-2,6.0503375E-2,6.983429E-2,4.418076E-2],"categories":[],"categories_nodes":[],"categories_segments":[],"categories_sizes":[],"default_left":[0,0,0,0,0,0,0,0,0,0,0,0,0,0,0,0,0,0,0,0,0,0,0,0,0,0,0,0,0,0,0],"id":19,"left_children":[1,3,5,7,9,11,13,15,17,19,21,23,25,27,29,-1,-1,-1,-1,-1,-1,-1,-1,-1,-1,-1,-1,-1,-1,-1,-1],"loss_changes":[1.4439661E5,2.6009406E4,2.3886883E4,2.7517266E3,7.740291E3,4.9007305E3,3.2026406E3,1.3405703E3,2.0522676E3,3.8619902E3,3.1168223E3,2.4598008E3,1.9010371E3,2.326289E3,1.6408164E3,0E0,0E0,0E0,0E0,0E0,0E0,0E0,0E0,0E0,0E0,0E0,0E0,0E0,0E0,0E0,0E0],"parents":[2147483647,0,0,1,1,2,2,3,3,4,4,5,5,6,6,7,7,8,8,9,9,10,10,11,11,12,12,13,13,14,14],"right_children":[2,4,6,8,10,12,14,16,18,20,22,24,26,28,30,-1,-1,-1,-1,-1,-1,-1,-1,-1,-1,-1,-1,-1,-1,-1,-1],"split_conditions":[4.1525874E0,-2.0203497E2,1.8445097E2,-1.2E1,-6.5E0,8.8E0,1.37E1,-3.26E1,2.47E1,-8.585634E1,-1.87E0,-7.8E0,1.17E2,6.67E-1,1.23E1,2.9913401E-3,-5.1070977E-2,-3.544415E-2,9.092358E-3,-2.9808754E-2,-1.213766E-2,7.907439E-4,-1.1348186E-2,-1.0778508E-2,1.0213826E-2,1.4895684E-2,2.8190618E-2,2.982754E-2,6.0503375E-2,6.983429E-2,4.418076E-2],"split_indices":[119,119,119,137,141,137,141,181,169,119,152,125,25,174,34,0,0,0,0,0,0,0,0,0,0,0,0,0,0,0,0],"split_type":[0,0,0,0,0,0,0,0,0,0,0,0,0,0,0,0,0,0,0,0,0,0,0,0,0,0,0,0,0,0,0],"sum_hessian":[8.091E3,4.108E3,3.983E3,8.05E2,3.303E3,2.996E3,9.87E2,3.8E2,4.25E2,1.031E3,2.272E3,2.145E3,8.51E2,6.75E2,3.12E2,9E0,3.71E2,4.04E2,2.1E1,6.37E2,3.94E2,5.44E2,1.728E3,1.15E2,2.03E3,4.2E2,4.31E2,6.22E2,5.3E1,6.4E1,2.48E2],"tree_param":{"num_deleted":"0","num_feature":"205","num_nodes":"31","size_leaf_vector":"1"}},{"base_weights":[-1.1128976E-1,-3.8162224E0,4.325421E0,-7.8555746E0,-2.1206677E0,2.6057377E0,7.8141227E0,-1.02150755E1,-6.2953844E0,-3.1659818E0,5.557225E-2,-4.288954E0,2.8832881E0,5.7539577E0,9.6918335E0,-5.2259516E-2,-2.990784E-2,-2.6079869E-2,-6.8722494E-2,-1.5486406E-2,5.362625E-3,-1.4101817E-2,4.576479E-3,-4.5809317E-2,-5.6903013E-3,6.8784677E-3,1.8023597E-2,-2.754055E-3,3.0119663E-2,3.9525468E-2,7.234291E-2],"categories":[],"categories_nodes":[],"categories_segments":[],"categories_sizes":[],"default_left":[0,0,0,0,0,0,0,0,0,0,0,0,0,0,0,0,0,0,0,0,0,0,0,0,0,0,0,0,0,0,0],"id":20,"left_children":[1,3,5,7,9,11,13,15,17,19,21,23,25,27,29,-1,-1,-1,-1,-1,-1,-1,-1,-1,-1,-1,-1,-1,-1,-1,-1],"loss_changes":[1.3291323E5,3.0162098E4,2.2055203E4,4.7493203E3,7.0653457E3,4.7221074E3,4.6575234E3,2.7953477E3,2.8576973E3,3.0630137E3,3.195029E3,1.7200349E3,3.7379414E3,3.8997852E3,3.1224102E3,0E0,0E0,0E0,0E0,0E0,0E0,0E0,0E0,0E0,0E0,0E0,0E0,0E0,0E0,0E0,0E0],"parents":[2147483647,0,0,1,1,2,2,3,3,4,4,5,5,6,6,7,7,8,8,9,9,10,10,11,11,12,12,13,13,14,14],"right_children":[2,4,6,8,10,12,14,16,18,20,22,24,26,28,30,-1,-1,-1,-1,-1,-1,-1,-1,-1,-1,-1,-1,-1,-1,-1,-1],"split_conditions":[1.751152E1,-1.520331E2,1.6116786E2,-2.3641429E2,4E-1,-7.8E0,4.2E0,1.64E0,1.4E1,1.77E1,-1.62E0,-6E-1,7.35577E1,-5.1E-1,3.4828586E2,-5.2259516E-2,-2.990784E-2,-2.6079869E-2,-6.8722494E-2,-1.5486406E-2,5.362625E-3,-1.4101817E-2,4.576479E-3,-4.5809317E-2,-5.6903013E-3,6.8784677E-3,1.8023597E-2,-2.754055E-3,3.0119663E-2,3.9525468E-2,7.234291E-2],"split_indices":[119,119,119,119,141,125,138,152,110,48,31,148,119,11,119,0,0,0,0,0,0,0,0,0,0,0,0,0,0,0,0],"split_type":[0,0,0,0,0,0,0,0,0,0,0,0,0,0,0,0,0,0,0,0,0,0,0,0,0,0,0,0,0,0,0],"sum_hessian":[8.085E3,4.406E3,3.679E3,1.302E3,3.104E3,2.465E3,1.214E3,5.17E2,7.85E2,2.097E3,1.007E3,9.5E1,2.37E3,5.8E2,6.34E2,3.53E2,1.64E2,7.53E2,3.2E1,1.949E3,1.48E2,2.33E2,7.74E2,3.1E1,6.4E1,1.12E3,1.25E3,8.2E1,4.98E2,5.7E2,6.4E1],"tree_param":{"num_deleted":"0","num_feature":"205","num_nodes":"31","size_leaf_vector":"1"}},{"base_weights":[8.3434775E-2,-3.9404716E0,4.319076E0,-7.50697E0,-2.2832396E0,2.497191E0,7.4495096E0,-1.0370345E1,-6.495698E0,-3.3895185E0,-2.7903345E-1,1.2522154E0,4.140093E0,5.305298E0,9.14664E0,-5.520734E-2,-3.485326E-2,-1.865797E-2,-3.4513235E-2,-4.6598196E-2,-1.4267727E-2,2.6506664E-2,-3.2077103E-3,7.037881E-4,1.736289E-2,-3.097339E-3,2.1352518E-2,1.8346932E-2,3.629696E-2,2.9289776E-2,4.6143297E-2],"categories":[],"categories_nodes":[],"categories_segments":[],"categories_sizes":[],"default_left":[0,0,0,0,0,0,0,0,0,0,0,0,0,0,0,0,0,0,0,0,0,0,0,0,0,0,0,0,0,0,0],"id":21,"left_children":[1,3,5,7,9,11,13,15,17,19,21,23,25,27,29,-1,-1,-1,-1,-1,-1,-1,-1,-1,-1,-1,-1,-1,-1,-1,-1],"loss_changes":[1.3911034E5,2.4720715E4,2.2660586E4,3.79675E3,6.33371E3,5.135292E3,5.285664E3,1.7489219E3,2.8907812E3,2.1501973E3,2.839444E3,4.175215E3,3.5948066E3,2.1470996E3,2.5900156E3,0E0,0E0,0E0,0E0,0E0,0E0,0E0,0E0,0E0,0E0,0E0,0E0,0E0,0E0,0E0,0E0],"parents":[2147483647,0,0,1,1,2,2,3,3,4,4,5,5,6,6,7,7,8,8,9,9,10,10,11,11,12,12,13,13,14,14],"right_children":[2,4,6,8,10,12,14,16,18,20,22,24,26,28,30,-1,-1,-1,-1,-1,-1,-1,-1,-1,-1,-1,-1,-1,-1,-1,-1],"split_conditions":[5.8217E0,-1.520331E2,1.4449736E2,-2.7164587E2,-4E-1,7.5088234E1,8.4E0,1.03E2,1.011E2,-3E0,-1.42E1,8.8E0,-3.6E0,1.9E0,2.0050102E2,-5.520734E-2,-3.485326E-2,-1.865797E-2,-3.4513235E-2,-4.6598196E-2,-1.4267727E-2,2.6506664E-2,-3.2077103E-3,7.037881E-4,1.736289E-2,-3.097339E-3,2.1352518E-2,1.8346932E-2,3.629696E-2,2.9289776E-2,4.6143297E-2],"split_indices":[119,119,119,119,141,119,141,122,135,188,139,181,125,155,119,0,0,0,0,0,0,0,0,0,0,0,0,0,0,0,0],"split_type":[0,0,0,0,0,0,0,0,0,0,0,0,0,0,0,0,0,0,0,0,0,0,0,0,0,0,0,0,0,0,0],"sum_hessian":[8.161E3,4.185E3,3.976E3,1.327E3,2.858E3,2.514E3,1.462E3,3.45E2,9.82E2,1.841E3,1.017E3,1.431E3,1.083E3,6.47E2,8.15E2,1.86E2,1.59E2,3.58E2,6.24E2,4.1E1,1.8E3,6.7E1,9.5E2,1.016E3,4.15E2,1.34E2,9.49E2,4.63E2,1.84E2,2.75E2,5.4E2],"tree_param":{"num_deleted":"0","num_feature":"205","num_nodes":"31","size_leaf_vector":"1"}},{"base_weights":[-3.9362635E-2,-3.77742E0,4.317853E0,-7.5684977E0,-2.1550286E0,2.1353939E0,6.568979E0,-9.309152E0,-6.177376E0,-3.419206E0,-2.2852941E-1,-4.5739E0,2.491894E0,4.3561454E0,8.366194E0,-9.669663E-2,-3.993579E-2,-2.4548547E-2,-4.9806163E-2,-4.2491104E-2,-1.4115017E-2,-2.707356E-2,8.9775276E-4,5.681039E-3,-2.904853E-2,-1.1151222E-3,1.3887491E-2,3.8144764E-2,1.6960844E-2,4.5384176E-2,3.0768238E-2],"categories":[],"categories_nodes":[],"categories_segments":[],"categories_sizes":[],"default_left":[0,0,0,0,0,0,0,0,0,0,0,0,0,0,0,0,0,0,0,0,0,0,0,0,0,0,0,0,0,0,0],"id":22,"left_children":[1,3,5,7,9,11,13,15,17,19,21,23,25,27,29,-1,-1,-1,-1,-1,-1,-1,-1,-1,-1,-1,-1,-1,-1,-1,-1],"loss_changes":[1.313404E5,2.6679414E4,1.8278305E4,3.1077188E3,7.400841E3,4.5271484E3,7.258492E3,1.9460859E3,2.274539E3,2.5825E3,3.0685588E3,1.1213967E3,3.1872559E3,1.8093545E3,2.6490625E3,0E0,0E0,0E0,0E0,0E0,0E0,0E0,0E0,0E0,0E0,0E0,0E0,0E0,0E0,0E0,0E0],"parents":[2147483647,0,0,1,1,2,2,3,3,4,4,5,5,6,6,7,7,8,8,9,9,10,10,11,11,12,12,13,13,14,14],"right_children":[2,4,6,8,10,12,14,16,18,20,22,24,26,28,30,-1,-1,-1,-1,-1,-1,-1,-1,-1,-1,-1,-1,-1,-1,-1,-1],"split_conditions":[1.625509E1,-1.5428621E2,1.14253174E2,-2.3222815E2,-8E-1,-7.8E0,7.3E0,8.83E1,1.186E2,-1.27E1,-1.05E0,-1E0,1.131E2,1.121E2,4E1,-9.669663E-2,-3.993579E-2,-2.4548547E-2,-4.9806163E-2,-4.2491104E-2,-1.4115017E-2,-2.707356E-2,8.9775276E-4,5.681039E-3,-2.904853E-2,-1.1151222E-3,1.3887491E-2,3.8144764E-2,1.6960844E-2,4.5384176E-2,3.0768238E-2],"split_indices":[119,119,119,119,141,125,141,135,127,125,11,191,25,4,107,0,0,0,0,0,0,0,0,0,0,0,0,0,0,0,0],"split_type":[0,0,0,0,0,0,0,0,0,0,0,0,0,0,0,0,0,0,0,0,0,0,0,0,0,0,0,0,0,0,0],"sum_hessian":[8.063E3,4.34E3,3.723E3,1.3E3,3.04E3,1.891E3,1.832E3,5.76E2,7.24E2,1.835E3,1.205E3,9.5E1,1.796E3,8.22E2,1.01E3,1.2E1,5.64E2,6.45E2,7.9E1,6.5E1,1.77E3,8.2E1,1.123E3,2.4E1,7.1E1,3.42E2,1.454E3,8.9E1,7.33E2,4.31E2,5.79E2],"tree_param":{"num_deleted":"0","num_feature":"205","num_nodes":"31","size_leaf_vector":"1"}},{"base_weights":[-1.3495858E-1,-3.687393E0,4.2251534E0,-7.6208596E0,-2.2356923E0,2.8934338E0,8.214406E0,-1.0029061E1,-6.2601423E0,-4.0161967E0,-1.144634E0,-4.225269E0,3.1683788E0,1.3212027E1,7.461821E0,-3.7918728E-2,-6.3810274E-2,-1.5711388E-2,-3.2755695E-2,-2.6535887E-2,-1.2549623E-2,3.2241148E-4,-1.1384704E-2,1.7857615E-2,-2.8278492E-2,1.1896733E-2,2.6271308E-2,1.6973379E-4,6.494353E-2,2.7409246E-2,4.5055423E-2],"categories":[],"categories_nodes":[],"categories_segments":[],"categories_sizes":[],"default_left":[0,0,0,0,0,0,0,0,0,0,0,0,0,0,0,0,0,0,0,0,0,0,0,0,0,0,0,0,0,0,0],"id":23,"left_children":[1,3,5,7,9,11,13,15,17,19,21,23,25,27,29,-1,-1,-1,-1,-1,-1,-1,-1,-1,-1,-1,-1,-1,-1,-1,-1],"loss_changes":[1.2666708E5,2.5715328E4,1.9483086E4,3.9351719E3,6.388824E3,5.394164E3,3.3895E3,2.7272578E3,2.3812734E3,2.905998E3,3.5527915E3,1.8453867E3,3.508996E3,2.285412E3,2.7126133E3,0E0,0E0,0E0,0E0,0E0,0E0,0E0,0E0,0E0,0E0,0E0,0E0,0E0,0E0,0E0,0E0],"parents":[2147483647,0,0,1,1,2,2,3,3,4,4,5,5,6,6,7,7,8,8,9,9,10,10,11,11,12,12,13,13,14,14],"right_children":[2,4,6,8,10,12,14,16,18,20,22,24,26,28,30,-1,-1,-1,-1,-1,-1,-1,-1,-1,-1,-1,-1,-1,-1,-1,-1],"split_conditions":[1.8476126E1,-1.6110484E2,1.9178436E2,-6.9E0,-7.905928E1,-7.8E0,-9.1E0,7.2E0,0E0,-4.7E0,2E0,1.23E1,1.38E1,-5.6E0,2.8158026E2,-3.7918728E-2,-6.3810274E-2,-1.5711388E-2,-3.2755695E-2,-2.6535887E-2,-1.2549623E-2,3.2241148E-4,-1.1384704E-2,1.7857615E-2,-2.8278492E-2,1.1896733E-2,2.6271308E-2,1.6973379E-4,6.494353E-2,2.7409246E-2,4.5055423E-2],"split_indices":[119,119,119,125,119,125,146,133,192,142,129,13,137,142,119,0,0,0,0,0,0,0,0,0,0,0,0,0,0,0,0],"split_type":[0,0,0,0,0,0,0,0,0,0,0,0,0,0,0,0,0,0,0,0,0,0,0,0,0,0,0,0,0,0,0],"sum_hessian":[8.177E3,4.506E3,3.671E3,1.214E3,3.292E3,2.753E3,9.18E2,4.37E2,7.77E2,1.25E3,2.042E3,1.02E2,2.651E3,1.19E2,7.99E2,3.29E2,1.08E2,2.31E2,5.46E2,4.66E2,7.84E2,1.102E3,9.4E2,2.1E1,8.1E1,2.26E3,3.91E2,1.2E1,1.07E2,5.46E2,2.53E2],"tree_param":{"num_deleted":"0","num_feature":"205","num_nodes":"31","size_leaf_vector":"1"}},{"base_weights":[-7.746944E-3,-3.720455E0,4.468891E0,-7.6572986E0,-1.9953095E0,2.1908772E0,7.075045E0,-9.880763E0,-5.954664E0,-4.1274257E0,-8.545516E-1,-2.8130593E0,2.6378572E0,5.6962543E0,9.853258E0,-5.4371633E-2,-3.744772E-2,-2.3843478E-2,-4.411046E-2,-2.7808407E-2,-1.412362E-2,-9.303277E-3,1.4744696E-3,-1.9352742E-2,1.863533E-2,8.434927E-3,2.0309055E-2,4.6758007E-2,2.3269184E-2,3.9275367E-2,6.182476E-2],"categories":[],"categories_nodes":[],"categories_segments":[],"categories_sizes":[],"default_left":[0,0,0,0,0,0,0,0,0,0,0,0,0,0,0,0,0,0,0,0,0,0,0,0,0,0,0,0,0,0,0],"id":24,"left_children":[1,3,5,7,9,11,13,15,17,19,21,23,25,27,29,-1,-1,-1,-1,-1,-1,-1,-1,-1,-1,-1,-1,-1,-1,-1,-1],"loss_changes":[1.3518833E5,3.0182156E4,2.1875664E4,5.0853906E3,7.515E3,4.405916E3,6.5457656E3,1.9342266E3,1.7095215E3,2.156209E3,2.9882964E3,1.7770355E3,2.5708008E3,2.4161094E3,2.2162852E3,0E0,0E0,0E0,0E0,0E0,0E0,0E0,0E0,0E0,0E0,0E0,0E0,0E0,0E0,0E0,0E0],"parents":[2147483647,0,0,1,1,2,2,3,3,4,4,5,5,6,6,7,7,8,8,9,9,10,10,11,11,12,12,13,13,14,14],"right_children":[2,4,6,8,10,12,14,16,18,20,22,24,26,28,30,-1,-1,-1,-1,-1,-1,-1,-1,-1,-1,-1,-1,-1,-1,-1,-1],"split_conditions":[1.8476126E1,-1.520331E2,1.23362274E2,-2.3222815E2,-4.9E0,-5.9E0,1.16E1,-8.2E0,1.184E2,1.4344526E3,-2.3E0,1.75E1,6.9E0,-8.8E0,4.2E-2,-5.4371633E-2,-3.744772E-2,-2.3843478E-2,-4.411046E-2,-2.7808407E-2,-1.412362E-2,-9.303277E-3,1.4744696E-3,-1.9352742E-2,1.863533E-2,8.434927E-3,2.0309055E-2,4.6758007E-2,2.3269184E-2,3.9275367E-2,6.182476E-2],"split_indices":[119,119,119,119,141,141,141,121,127,117,178,178,141,150,41,0,0,0,0,0,0,0,0,0,0,0,0,0,0,0,0],"split_type":[0,0,0,0,0,0,0,0,0,0,0,0,0,0,0,0,0,0,0,0,0,0,0,0,0,0,0,0,0,0,0],"sum_hessian":[8.133E3,4.446E3,3.687E3,1.354E3,3.092E3,1.968E3,1.719E3,5.86E2,7.68E2,1.077E3,2.015E3,1.61E2,1.807E3,1.15E3,5.69E2,2.16E2,3.7E2,6.74E2,9.4E1,3.25E2,7.52E2,9.83E2,1.032E3,1.32E2,2.9E1,1.315E3,4.92E2,9.4E1,1.056E3,4.61E2,1.08E2],"tree_param":{"num_deleted":"0","num_feature":"205","num_nodes":"31","size_leaf_vector":"1"}},{"base_weights":[-1.6148692E-2,-3.5740516E0,4.3428063E0,-7.69366E0,-1.8561854E0,2.390999E0,7.3443756E0,-1.0323214E1,-6.3162637E0,-3.245352E0,-4.3609366E-1,-1.9204708E0,2.7763581E0,5.104465E0,1.0120948E1,-7.800476E-2,-4.3574646E-2,-3.737997E-2,-2.3128118E-2,-1.3779691E-2,-5.9505727E-2,3.8191164E-3,-9.438071E-3,-3.7499793E-2,-8.2958833E-4,1.6953208E-2,5.917369E-3,1.1192863E-2,2.749328E-2,4.166361E-2,6.370528E-2],"categories":[],"categories_nodes":[],"categories_segments":[],"categories_sizes":[],"default_left":[0,0,0,0,0,0,0,0,0,0,0,0,0,0,0,0,0,0,0,0,0,0,0,0,0,0,0,0,0,0,0],"id":25,"left_children":[1,3,5,7,9,11,13,15,17,19,21,23,25,27,29,-1,-1,-1,-1,-1,-1,-1,-1,-1,-1,-1,-1,-1,-1,-1,-1],"loss_changes":[1.2794478E5,3.2130695E4,2.1702453E4,4.7946562E3,6.321204E3,3.7373066E3,9.044555E3,1.4934648E3,2.0066797E3,2.1441523E3,3.4981035E3,2.0852236E3,3.1234824E3,2.2932188E3,1.883875E3,0E0,0E0,0E0,0E0,0E0,0E0,0E0,0E0,0E0,0E0,0E0,0E0,0E0,0E0,0E0,0E0],"parents":[2147483647,0,0,1,1,2,2,3,3,4,4,5,5,6,6,7,7,8,8,9,9,10,10,11,11,12,12,13,13,14,14],"right_children":[2,4,6,8,10,12,14,16,18,20,22,24,26,28,30,-1,-1,-1,-1,-1,-1,-1,-1,-1,-1,-1,-1,-1,-1,-1,-1],"split_conditions":[2.1575325E1,-1.520331E2,7.3E0,-1.22E1,-2.6E0,-5.9E0,1.884584E2,-2.38E1,1.3475002E3,1.234E2,4E-1,1.4780428E3,5E0,8.073691E1,3.4828586E2,-7.800476E-2,-4.3574646E-2,-3.737997E-2,-2.3128118E-2,-1.3779691E-2,-5.9505727E-2,3.8191164E-3,-9.438071E-3,-3.7499793E-2,-8.2958833E-4,1.6953208E-2,5.917369E-3,1.1192863E-2,2.749328E-2,4.166361E-2,6.370528E-2],"split_indices":[119,119,141,141,137,141,119,141,117,122,143,117,113,119,119,0,0,0,0,0,0,0,0,0,0,0,0,0,0,0,0],"split_type":[0,0,0,0,0,0,0,0,0,0,0,0,0,0,0,0,0,0,0,0,0,0,0,0,0,0,0,0,0,0,0],"sum_hessian":[8.249E3,4.542E3,3.707E3,1.336E3,3.206E3,2.247E3,1.46E3,4.58E2,8.78E2,1.62E3,1.586E3,1.84E2,2.063E3,8.09E2,6.51E2,2.7E1,4.31E2,2.96E2,5.82E2,1.6E3,2E1,8.98E2,6.88E2,3.8E1,1.46E2,1.19E3,8.73E2,2.44E2,5.65E2,5.6E2,9.1E1],"tree_param":{"num_deleted":"0","num_feature":"205","num_nodes":"31","size_leaf_vector":"1"}},{"base_weights":[-6.062149E-2,-3.6345518E0,3.5122073E0,-6.786741E0,-1.5462445E0,1.9125363E0,6.872715E0,-9.928749E0,-5.4460797E0,-4.0906696E0,-5.953311E-1,2.9768765E0,-5.125831E-1,8.191922E0,2.4908354E0,-5.2151717E-2,-3.4560118E-2,-2.1021105E-2,-4.215095E-2,-2.3251085E-2,-4.2487266E-3,-5.7398863E-3,7.6603564E-3,6.1272634E-3,2.2703493E-2,-7.7671213E-3,7.6763253E-3,4.7183973E-3,3.867631E-2,4.229324E-3,3.6154486E-2],"categories":[],"categories_nodes":[],"categories_segments":[],"categories_sizes":[],"default_left":[0,0,0,0,0,0,0,0,0,0,0,0,0,0,0,0,0,0,0,0,0,0,0,0,0,0,0,0,0,0,0],"id":26,"left_children":[1,3,5,7,9,11,13,15,17,19,21,23,25,27,29,-1,-1,-1,-1,-1,-1,-1,-1,-1,-1,-1,-1,-1,-1,-1,-1],"loss_changes":[1.0529234E5,2.7124E4,2.2151805E4,6.8789844E3,5.995759E3,7.216038E3,7.6652188E3,1.8676445E3,3.2382227E3,2.446912E3,2.9487085E3,6.6498105E3,2.381146E3,3.9667734E3,2.6762651E3,0E0,0E0,0E0,0E0,0E0,0E0,0E0,0E0,0E0,0E0,0E0,0E0,0E0,0E0,0E0,0E0],"parents":[2147483647,0,0,1,1,2,2,3,3,4,4,5,5,6,6,7,7,8,8,9,9,10,10,11,11,12,12,13,13,14,14],"right_children":[2,4,6,8,10,12,14,16,18,20,22,24,26,28,30,-1,-1,-1,-1,-1,-1,-1,-1,-1,-1,-1,-1,-1,-1,-1,-1],"split_conditions":[0E0,1.4357794E3,8.8E0,-1.18E1,-8E0,1.5452373E3,1.4933029E3,-1.66E1,1.6133065E3,4.4E0,1.5940704E3,1.538301E3,1.6097728E3,1.4391271E3,8E-1,-5.2151717E-2,-3.4560118E-2,-2.1021105E-2,-4.215095E-2,-2.3251085E-2,-4.2487266E-3,-5.7398863E-3,7.6603564E-3,6.1272634E-3,2.2703493E-2,-7.7671213E-3,7.6763253E-3,4.7183973E-3,3.867631E-2,4.229324E-3,3.6154486E-2],"split_indices":[141,117,141,141,141,118,118,137,118,48,117,117,117,117,133,0,0,0,0,0,0,0,0,0,0,0,0,0,0,0,0],"split_type":[0,0,0,0,0,0,0,0,0,0,0,0,0,0,0,0,0,0,0,0,0,0,0,0,0,0,0,0,0,0,0],"sum_hessian":[8.245E3,4.122E3,4.123E3,1.642E3,2.48E3,2.794E3,1.329E3,4.9E2,1.152E3,6.74E2,1.806E3,1.942E3,8.52E2,1.021E3,3.08E2,2.6E2,2.3E2,9.85E2,1.67E2,4.91E2,1.83E2,1.388E3,4.18E2,1.117E3,8.25E2,5.49E2,3.03E2,7.3E1,9.48E2,2.43E2,6.5E1],"tree_param":{"num_deleted":"0","num_feature":"205","num_nodes":"31","size_leaf_vector":"1"}},{"base_weights":[1.45432E-2,-3.4248729E0,3.4975634E0,-6.3325977E0,-1.5482442E0,1.6314887E0,6.212741E0,-9.558262E0,-4.42982E0,6.280381E-1,-2.9026535E0,2.6141047E0,-5.690091E-1,8.252815E0,3.5154972E0,-4.4180058E-2,-4.0398026E-3,-8.366492E-3,-2.7005494E-2,-5.740243E-2,3.706618E-3,-1.5225644E-2,8.441556E-3,5.757962E-3,1.9707086E-2,6.443297E-3,-9.7018825E-3,1.3764124E-2,4.1409332E-2,1.1180235E-2,4.0591285E-2],"categories":[],"categories_nodes":[],"categories_segments":[],"categories_sizes":[],"default_left":[0,0,0,0,0,0,0,0,0,0,0,0,0,0,0,0,0,0,0,0,0,0,0,0,0,0,0,0,0,0,0],"id":27,"left_children":[1,3,5,7,9,11,13,15,17,19,21,23,25,27,29,-1,-1,-1,-1,-1,-1,-1,-1,-1,-1,-1,-1,-1,-1,-1,-1],"loss_changes":[9.753641E4,2.234093E4,2.048482E4,9.826984E3,7.343874E3,5.188739E3,9.040453E3,2.168414E3,4.2814277E3,2.7142068E3,3.9745361E3,3.9957715E3,2.435704E3,5.294801E3,3.9534512E3,0E0,0E0,0E0,0E0,0E0,0E0,0E0,0E0,0E0,0E0,0E0,0E0,0E0,0E0,0E0,0E0],"parents":[2147483647,0,0,1,1,2,2,3,3,4,4,5,5,6,6,7,7,8,8,9,9,10,10,11,11,12,12,13,13,14,14],"right_children":[2,4,6,8,10,12,14,16,18,20,22,24,26,28,30,-1,-1,-1,-1,-1,-1,-1,-1,-1,-1,-1,-1,-1,-1,-1,-1],"split_conditions":[1E-1,1.4344526E3,7.2E0,-1.01E1,1.5407383E3,1.5452373E3,1.4372123E3,3.3E0,1.489731E3,-1.39E1,1.85E1,1.538301E3,-7E-1,1.4805242E3,1.702195E3,-4.4180058E-2,-4.0398026E-3,-8.366492E-3,-2.7005494E-2,-5.740243E-2,3.706618E-3,-1.5225644E-2,8.441556E-3,5.757962E-3,1.9707086E-2,6.443297E-3,-9.7018825E-3,1.3764124E-2,4.1409332E-2,1.1180235E-2,4.0591285E-2],"split_indices":[141,117,141,141,118,118,118,142,118,125,181,117,146,117,117,0,0,0,0,0,0,0,0,0,0,0,0,0,0,0,0],"split_type":[0,0,0,0,0,0,0,0,0,0,0,0,0,0,0,0,0,0,0,0,0,0,0,0,0,0,0,0,0,0,0],"sum_hessian":[8.141E3,4.096E3,4.045E3,1.606E3,2.49E3,2.398E3,1.647E3,5.95E2,1.011E3,9.55E2,1.535E3,1.658E3,7.4E2,9.37E2,7.1E2,5.67E2,2.8E1,4.02E2,6.09E2,1.4E1,9.41E2,1.381E3,1.54E2,9.68E2,6.9E2,3.29E2,4.11E2,1.66E2,7.71E2,6.05E2,1.05E2],"tree_param":{"num_deleted":"0","num_feature":"205","num_nodes":"31","size_leaf_vector":"1"}},{"base_weights":[9.86159E-2,-3.4345837E0,4.2436795E0,-7.088671E0,-1.6032088E0,2.9423313E0,8.125066E0,-1.0017587E1,-5.8098335E0,-4.7333694E0,-1.2129246E0,2.0432878E0,4.4970846E0,6.715354E0,1.1276619E1,-4.746875E-2,-1.6679354E-2,-2.2206612E-2,-4.1703973E-2,-1.1505764E-2,-4.057348E-2,-7.578318E-3,7.4867816E-3,7.813315E-3,3.26671E-2,8.425938E-3,2.4236366E-2,2.0497836E-2,3.7388574E-2,8.286219E-2,4.4679046E-2],"categories":[],"categories_nodes":[],"categories_segments":[],"categories_sizes":[],"default_left":[0,0,0,0,0,0,0,0,0,0,0,0,0,0,0,0,0,0,0,0,0,0,0,0,0,0,0,0,0,0,0],"id":28,"left_children":[1,3,5,7,9,11,13,15,17,19,21,23,25,27,29,-1,-1,-1,-1,-1,-1,-1,-1,-1,-1,-1,-1,-1,-1,-1,-1],"loss_changes":[1.1748419E5,2.8965625E4,1.8623875E4,5.372172E3,3.5165186E3,3.8548809E3,4.0640586E3,1.9068516E3,2.848336E3,2.9998652E3,3.723881E3,2.5859268E3,2.5585586E3,2.2852812E3,2.3975E3,0E0,0E0,0E0,0E0,0E0,0E0,0E0,0E0,0E0,0E0,0E0,0E0,0E0,0E0,0E0,0E0],"parents":[2147483647,0,0,1,1,2,2,3,3,4,4,5,5,6,6,7,7,8,8,9,9,10,10,11,11,12,12,13,13,14,14],"right_children":[2,4,6,8,10,12,14,16,18,20,22,24,26,28,30,-1,-1,-1,-1,-1,-1,-1,-1,-1,-1,-1,-1,-1,-1,-1,-1],"split_conditions":[1.751152E1,-1.4150076E2,1.884584E2,-1.25E1,-1.04E1,5.9E0,1.37E1,1.114E2,1.16E2,3.09E0,1.71E1,1.12E1,-8.9E0,0E0,2.6E0,-4.746875E-2,-1.6679354E-2,-2.2206612E-2,-4.1703973E-2,-1.1505764E-2,-4.057348E-2,-7.578318E-3,7.4867816E-3,7.813315E-3,3.26671E-2,8.425938E-3,2.4236366E-2,2.0497836E-2,3.7388574E-2,8.286219E-2,4.4679046E-2],"split_indices":[119,119,119,141,141,141,141,126,123,154,178,149,51,193,121,0,0,0,0,0,0,0,0,0,0,0,0,0,0,0,0],"split_type":[0,0,0,0,0,0,0,0,0,0,0,0,0,0,0,0,0,0,0,0,0,0,0,0,0,0,0,0,0,0,0],"sum_hessian":[8.021E3,4.33E3,3.691E3,1.445E3,2.885E3,2.765E3,9.26E2,4.38E2,1.007E3,3.19E2,2.566E3,1.753E3,1.012E3,6.41E2,2.85E2,3.93E2,4.5E1,8.27E2,1.8E2,2.16E2,1.03E2,2.19E3,3.76E2,1.667E3,8.6E1,2.78E2,7.34E2,2.92E2,3.49E2,3.8E1,2.47E2],"tree_param":{"num_deleted":"0","num_feature":"205","num_nodes":"31","size_leaf_vector":"1"}},{"base_weights":[1.3577523E-2,-3.6308396E0,4.321418E0,-7.503674E0,-1.9819769E0,2.4028108E0,7.223408E0,-6.637821E0,-1.0655396E1,-4.442206E0,-1.3489342E0,-4.241641E0,2.6956484E0,6.1567903E0,1.146378E1,-4.019364E-2,-2.4049403E-2,-5.0871756E-2,-1.1400817E-2,-2.3335608E-2,1.4947725E-3,1.8321164E-2,-7.0509855E-3,1.9231385E-2,-2.9667772E-2,6.2285946E-3,1.5609252E-2,4.3146894E-3,2.8779585E-2,7.1407266E-2,4.1821126E-2],"categories":[],"categories_nodes":[],"categories_segments":[],"categories_sizes":[],"default_left":[0,0,0,0,0,0,0,0,0,0,0,0,0,0,0,0,0,0,0,0,0,0,0,0,0,0,0,0,0,0,0],"id":29,"left_children":[1,3,5,7,9,11,13,15,17,19,21,23,25,27,29,-1,-1,-1,-1,-1,-1,-1,-1,-1,-1,-1,-1,-1,-1,-1,-1],"loss_changes":[1.28578555E5,2.8314035E4,2.0880992E4,3.5653125E3,4.838967E3,4.401866E3,6.7053906E3,3.0245469E3,1.9007715E3,2.5320166E3,3.3199053E3,2.0331245E3,2.311791E3,2.1306094E3,2.7232852E3,0E0,0E0,0E0,0E0,0E0,0E0,0E0,0E0,0E0,0E0,0E0,0E0,0E0,0E0,0E0,0E0],"parents":[2147483647,0,0,1,1,2,2,3,3,4,4,5,5,6,6,7,7,8,8,9,9,10,10,11,11,12,12,13,13,14,14],"right_children":[2,4,6,8,10,12,14,16,18,20,22,24,26,28,30,-1,-1,-1,-1,-1,-1,-1,-1,-1,-1,-1,-1,-1,-1,-1,-1],"split_conditions":[1.751152E1,-1.520331E2,1.4245491E2,1.158E2,-1E1,-7.8E0,2.8158026E2,-2.5242928E2,5.4E0,9.1E-2,-1.42E1,1.22E1,-2.9E0,-8.2E-2,-9.9E0,-4.019364E-2,-2.4049403E-2,-5.0871756E-2,-1.1400817E-2,-2.3335608E-2,1.4947725E-3,1.8321164E-2,-7.0509855E-3,1.9231385E-2,-2.9667772E-2,6.2285946E-3,1.5609252E-2,4.3146894E-3,2.8779585E-2,7.1407266E-2,4.1821126E-2],"split_indices":[119,119,119,123,137,125,119,119,142,162,139,13,181,41,133,0,0,0,0,0,0,0,0,0,0,0,0,0,0,0,0],"split_type":[0,0,0,0,0,0,0,0,0,0,0,0,0,0,0,0,0,0,0,0,0,0,0,0,0,0,0,0,0,0,0],"sum_hessian":[8.189E3,4.436E3,3.753E3,1.324E3,3.112E3,2.26E3,1.493E3,1.04E3,2.84E2,6.36E2,2.476E3,9.5E1,2.165E3,1.194E3,2.99E2,3.42E2,6.98E2,2.57E2,2.7E1,5.42E2,9.4E1,1.05E2,2.371E3,2.1E1,7.4E1,8.5E2,1.315E3,7.5E1,1.119E3,8.9E1,2.1E2],"tree_param":{"num_deleted":"0","num_feature":"205","num_nodes":"31","size_leaf_vector":"1"}},{"base_weights":[-1.0241847E-1,-4.0487256E0,3.8612602E0,-7.358346E0,-2.395659E0,1.9360399E0,6.5433197E0,-1.0126597E1,-5.5218015E0,-3.507949E0,-3.6460605E-1,-2.7318301E0,2.3524828E0,5.04656E0,9.558066E0,-1.2222139E-2,-4.6456017E-2,-1.9175768E-2,-3.5054337E-2,-2.392403E-2,-1.2284412E-2,4.185367E-2,-2.8039902E-3,-3.6983203E-2,-6.552897E-4,7.695052E-3,1.779602E-2,2.519879E-2,4.055514E-3,3.510123E-2,5.5365324E-2],"categories":[],"categories_nodes":[],"categories_segments":[],"categories_sizes":[],"default_left":[0,0,0,0,0,0,0,0,0,0,0,0,0,0,0,0,0,0,0,0,0,0,0,0,0,0,0,0,0,0,0],"id":30,"left_children":[1,3,5,7,9,11,13,15,17,19,21,23,25,27,29,-1,-1,-1,-1,-1,-1,-1,-1,-1,-1,-1,-1,-1,-1,-1,-1],"loss_changes":[1.264946E5,2.2153414E4,2.081798E4,6.819914E3,6.1029893E3,4.5696113E3,7.5691094E3,1.4384883E3,2.2896309E3,2.412086E3,2.5229646E3,2.78771E3,2.2006182E3,3.0041426E3,2.6168945E3,0E0,0E0,0E0,0E0,0E0,0E0,0E0,0E0,0E0,0E0,0E0,0E0,0E0,0E0,0E0,0E0],"parents":[2147483647,0,0,1,1,2,2,3,3,4,4,5,5,6,6,7,7,8,8,9,9,10,10,11,11,12,12,13,13,14,14],"right_children":[2,4,6,8,10,12,14,16,18,20,22,24,26,28,30,-1,-1,-1,-1,-1,-1,-1,-1,-1,-1,-1,-1,-1,-1,-1,-1],"split_conditions":[1.2085105E0,-1.520331E2,1.23362274E2,-1.18E1,-5E-1,-6.1E0,1.16E1,9.78E1,1.094E2,-1.1E1,-2E0,-4.2E-1,1.56E1,2E0,1E1,-1.2222139E-2,-4.6456017E-2,-1.9175768E-2,-3.5054337E-2,-2.392403E-2,-1.2284412E-2,4.185367E-2,-2.8039902E-3,-3.6983203E-2,-6.552897E-4,7.695052E-3,1.779602E-2,2.519879E-2,4.055514E-3,3.510123E-2,5.5365324E-2],"split_indices":[119,119,119,137,141,141,141,134,131,137,195,153,172,191,101,0,0,0,0,0,0,0,0,0,0,0,0,0,0,0,0],"split_type":[0,0,0,0,0,0,0,0,0,0,0,0,0,0,0,0,0,0,0,0,0,0,0,0,0,0,0,0,0,0,0],"sum_hessian":[8.086E3,4.052E3,4.034E3,1.349E3,2.703E3,2.349E3,1.685E3,5.37E2,8.12E2,1.746E3,9.57E2,1.92E2,2.157E3,1.127E3,5.58E2,2.6E1,5.11E2,5.44E2,2.68E2,4.85E2,1.261E3,2.5E1,9.32E2,6E1,1.32E2,1.578E3,5.79E2,9.74E2,1.53E2,3.61E2,1.97E2],"tree_param":{"num_deleted":"0","num_feature":"205","num_nodes":"31","size_leaf_vector":"1"}},{"base_weights":[-1.350124E-1,-3.3506482E0,4.732187E0,-7.792113E0,-1.9023749E0,2.9730432E0,7.428776E0,-9.583007E0,-6.1577387E0,-3.2590857E0,-5.3734805E-2,-1.707591E0,3.4218473E0,5.371121E0,8.994321E0,-5.6989737E-2,-3.7325922E-2,-1.2416399E-2,-3.168817E-2,-1.2284592E-2,-2.451073E-2,3.718203E-2,-1.5808312E-3,-4.5318987E-2,-8.504703E-4,1.7954381E-2,4.5578643E-3,2.2012899E-2,8.752942E-2,2.6061812E-2,4.306403E-2],"categories":[],"categories_nodes":[],"categories_segments":[],"categories_sizes":[],"default_left":[0,0,0,0,0,0,0,0,0,0,0,0,0,0,0,0,0,0,0,0,0,0,0,0,0,0,0,0,0,0,0],"id":31,"left_children":[1,3,5,7,9,11,13,15,17,19,21,23,25,27,29,-1,-1,-1,-1,-1,-1,-1,-1,-1,-1,-1,-1,-1,-1,-1,-1],"loss_changes":[1.25754055E5,3.1106805E4,1.514268E4,3.4393047E3,9.1497E3,4.0701113E3,4.0275469E3,2.0742188E3,2.0754844E3,2.3033262E3,3.9584321E3,2.1796926E3,2.6757598E3,3.0591787E3,1.5938516E3,0E0,0E0,0E0,0E0,0E0,0E0,0E0,0E0,0E0,0E0,0E0,0E0,0E0,0E0,0E0,0E0],"parents":[2147483647,0,0,1,1,2,2,3,3,4,4,5,5,6,6,7,7,8,8,9,9,10,10,11,11,12,12,13,13,14,14],"right_children":[2,4,6,8,10,12,14,16,18,20,22,24,26,28,30,-1,-1,-1,-1,-1,-1,-1,-1,-1,-1,-1,-1,-1,-1,-1,-1],"split_conditions":[3.876994E1,-1.6110484E2,1.5818538E2,-2.3222815E2,-9E-1,-4.5E0,8.7E0,-1.84E1,1.009E2,1.121E2,-1.64E1,-8.1E0,1.5334908E3,1.268E2,1.884584E2,-5.6989737E-2,-3.7325922E-2,-1.2416399E-2,-3.168817E-2,-1.2284592E-2,-2.451073E-2,3.718203E-2,-1.5808312E-3,-4.5318987E-2,-8.504703E-4,1.7954381E-2,4.5578643E-3,2.2012899E-2,8.752942E-2,2.6061812E-2,4.306403E-2],"split_indices":[119,119,119,119,141,141,141,137,134,135,139,60,118,4,119,0,0,0,0,0,0,0,0,0,0,0,0,0,0,0,0],"split_type":[0,0,0,0,0,0,0,0,0,0,0,0,0,0,0,0,0,0,0,0,0,0,0,0,0,0,0,0,0,0,0],"sum_hessian":[8.034E3,4.838E3,3.196E3,1.189E3,3.649E3,1.935E3,1.261E3,5.66E2,6.23E2,2.104E3,1.545E3,1.69E2,1.766E3,5.46E2,7.15E2,1.45E2,4.21E2,1.44E2,4.79E2,1.737E3,3.67E2,5.3E1,1.492E3,2.5E1,1.44E2,1.395E3,3.71E2,5.32E2,1.4E1,1.38E2,5.77E2],"tree_param":{"num_deleted":"0","num_feature":"205","num_nodes":"31","size_leaf_vector":"1"}},{"base_weights":[-1.06687516E-1,-3.6151955E0,4.2545314E0,-7.442143E0,-1.9855613E0,2.4464624E0,7.045185E0,-1.0327338E1,-6.040328E0,-3.105268E0,-3.4932086E-1,-5.638149E0,2.7822063E0,4.8278213E0,8.362895E0,-5.752727E-2,-4.044348E-2,-2.8698107E-2,-3.6116808E-3,-1.7959757E-2,-6.800051E-3,6.706162E-3,-7.036036E-3,2.1172356E-2,-3.319459E-2,8.800334E-3,2.028285E-2,1.4576701E-2,3.2055154E-2,3.8491707E-2,1.800709E-3],"categories":[],"categories_nodes":[],"categories_segments":[],"categories_sizes":[],"default_left":[0,0,0,0,0,0,0,0,0,0,0,0,0,0,0,0,0,0,0,0,0,0,0,0,0,0,0,0,0,0,0],"id":32,"left_children":[1,3,5,7,9,11,13,15,17,19,21,23,25,27,29,-1,-1,-1,-1,-1,-1,-1,-1,-1,-1,-1,-1,-1,-1,-1,-1],"loss_changes":[1.2395428E5,2.7982543E4,1.8205086E4,5.377125E3,5.766209E3,5.9553057E3,4.116125E3,1.3139883E3,2.0857188E3,2.7857168E3,2.962719E3,1.7159524E3,2.9987773E3,1.9441885E3,2.3544453E3,0E0,0E0,0E0,0E0,0E0,0E0,0E0,0E0,0E0,0E0,0E0,0E0,0E0,0E0,0E0,0E0],"parents":[2147483647,0,0,1,1,2,2,3,3,4,4,5,5,6,6,7,7,8,8,9,9,10,10,11,11,12,12,13,13,14,14],"right_children":[2,4,6,8,10,12,14,16,18,20,22,24,26,28,30,-1,-1,-1,-1,-1,-1,-1,-1,-1,-1,-1,-1,-1,-1,-1,-1],"split_conditions":[2.1575325E1,-1.520331E2,1.4449736E2,-1.25E1,-8E-1,-7.8E0,7.3E0,-2.67E-1,6E0,-4.9212402E1,-6.9E-1,1.22E1,1.35E1,1E0,8.2E0,-5.752727E-2,-4.044348E-2,-2.8698107E-2,-3.6116808E-3,-1.7959757E-2,-6.800051E-3,6.706162E-3,-7.036036E-3,2.1172356E-2,-3.319459E-2,8.800334E-3,2.028285E-2,1.4576701E-2,3.2055154E-2,3.8491707E-2,1.800709E-3],"split_indices":[119,119,119,141,141,125,141,183,142,119,152,13,172,139,150,0,0,0,0,0,0,0,0,0,0,0,0,0,0,0,0],"split_type":[0,0,0,0,0,0,0,0,0,0,0,0,0,0,0,0,0,0,0,0,0,0,0,0,0,0,0,0,0,0,0],"sum_hessian":[8.1E3,4.489E3,3.611E3,1.34E3,3.149E3,2.192E3,1.419E3,4.37E2,9.03E2,1.869E3,1.28E3,8.7E1,2.105E3,5.3E2,8.89E2,1.33E2,3.04E2,8.32E2,7.1E1,1.162E3,7.07E2,5.11E2,7.69E2,1.3E1,7.4E1,1.462E3,6.43E2,3.25E2,2.05E2,8.53E2,3.6E1],"tree_param":{"num_deleted":"0","num_feature":"205","num_nodes":"31","size_leaf_vector":"1"}},{"base_weights":[-2.5367944E-2,-3.6456656E0,3.3811421E0,-5.8795857E0,-1.3501425E0,1.5378288E0,6.1560216E0,-7.590818E0,-2.746191E0,4.768711E-1,-3.0215797E0,2.7456124E0,-6.6375124E-1,7.877921E0,3.0119731E0,-2.562595E-2,-4.0255327E-2,-4.9182153E-3,-2.9201083E-2,-2.945738E-3,1.5754754E-2,-1.8597063E-2,-1.6028959E-3,5.2099205E-3,2.2676181E-2,-8.706211E-3,8.979818E-3,2.5383476E-2,4.516078E-2,2.8089251E-2,7.670574E-3],"categories":[],"categories_nodes":[],"categories_segments":[],"categories_sizes":[],"default_left":[0,0,0,0,0,0,0,0,0,0,0,0,0,0,0,0,0,0,0,0,0,0,0,0,0,0,0,0,0,0,0],"id":33,"left_children":[1,3,5,7,9,11,13,15,17,19,21,23,25,27,29,-1,-1,-1,-1,-1,-1,-1,-1,-1,-1,-1,-1,-1,-1,-1,-1],"loss_changes":[9.942428E4,2.0031832E4,2.1232867E4,1.05994375E4,5.8921606E3,6.6410312E3,8.951488E3,3.4310781E3,4.3999814E3,3.2493352E3,3.1572852E3,6.0051123E3,3.105874E3,5.2926953E3,2.4922124E3,0E0,0E0,0E0,0E0,0E0,0E0,0E0,0E0,0E0,0E0,0E0,0E0,0E0,0E0,0E0,0E0],"parents":[2147483647,0,0,1,1,2,2,3,3,4,4,5,5,6,6,7,7,8,8,9,9,10,10,11,11,12,12,13,13,14,14],"right_children":[2,4,6,8,10,12,14,16,18,20,22,24,26,28,30,-1,-1,-1,-1,-1,-1,-1,-1,-1,-1,-1,-1,-1,-1,-1,-1],"split_conditions":[-2E-1,-5.9E0,7.2E0,1.4741149E3,1.5314764E3,1.5347714E3,1.4652256E3,1.071E2,1.6506632E3,1.5224207E3,1.5722583E3,1.5359932E3,1.6097728E3,1.5743174E3,1.131E2,-2.562595E-2,-4.0255327E-2,-4.9182153E-3,-2.9201083E-2,-2.945738E-3,1.5754754E-2,-1.8597063E-2,-1.6028959E-3,5.2099205E-3,2.2676181E-2,-8.706211E-3,8.979818E-3,2.5383476E-2,4.516078E-2,2.8089251E-2,7.670574E-3],"split_indices":[141,141,141,117,118,118,118,134,118,117,117,117,117,117,8,0,0,0,0,0,0,0,0,0,0,0,0,0,0,0,0],"split_type":[0,0,0,0,0,0,0,0,0,0,0,0,0,0,0,0,0,0,0,0,0,0,0,0,0,0,0,0,0,0,0],"sum_hessian":[8.061E3,3.908E3,4.153E3,1.98E3,1.928E3,2.496E3,1.657E3,1.28E3,7E2,9.21E2,1.007E3,1.612E3,8.84E2,1.07E3,5.87E2,5.84E2,6.96E2,4.92E2,2.08E2,6.72E2,2.49E2,6.97E2,3.1E2,9.72E2,6.4E2,5.96E2,2.88E2,5.58E2,5.12E2,1.62E2,4.25E2],"tree_param":{"num_deleted":"0","num_feature":"205","num_nodes":"31","size_leaf_vector":"1"}},{"base_weights":[5.120477E-3,-3.4692242E0,4.163509E0,-7.2948394E0,-1.9852581E0,2.9707966E0,8.428868E0,-9.253025E0,-5.507176E0,-9.077896E-1,-3.1422246E0,1.5763961E0,4.12789E0,1.1196875E1,7.239182E0,-5.322547E-2,-3.519119E-2,-1.9454423E-2,-3.913073E-2,-8.863353E-3,2.5852032E-3,-1.1606468E-2,-2.8018706E-2,-3.0595195E-2,7.983157E-3,2.2334369E-2,1.135993E-2,3.3614945E-2,5.9278786E-2,2.3949962E-2,4.0119153E-2],"categories":[],"categories_nodes":[],"categories_segments":[],"categories_sizes":[],"default_left":[0,0,0,0,0,0,0,0,0,0,0,0,0,0,0,0,0,0,0,0,0,0,0,0,0,0,0,0,0,0,0],"id":34,"left_children":[1,3,5,7,9,11,13,15,17,19,21,23,25,27,29,-1,-1,-1,-1,-1,-1,-1,-1,-1,-1,-1,-1,-1,-1,-1,-1],"loss_changes":[1.1821012E5,2.5289555E4,1.8924957E4,4.3221875E3,3.9993105E3,4.688883E3,2.6239414E3,2.0792852E3,2.387379E3,2.7207168E3,2.549875E3,2.5513186E3,2.2671816E3,1.8597715E3,1.8670215E3,0E0,0E0,0E0,0E0,0E0,0E0,0E0,0E0,0E0,0E0,0E0,0E0,0E0,0E0,0E0,0E0],"parents":[2147483647,0,0,1,1,2,2,3,3,4,4,5,5,6,6,7,7,8,8,9,9,10,10,11,11,12,12,13,13,14,14],"right_children":[2,4,6,8,10,12,14,16,18,20,22,24,26,28,30,-1,-1,-1,-1,-1,-1,-1,-1,-1,-1,-1,-1,-1,-1,-1,-1],"split_conditions":[1.751152E1,-1.6110484E2,2.0398734E2,-2.3222815E2,2.2E0,8.073691E1,-8.7E0,-9.2E0,4E0,-8E-1,2.2301092E7,-1.16E1,6E0,1.5754968E3,6.2E0,-5.322547E-2,-3.519119E-2,-1.9454423E-2,-3.913073E-2,-8.863353E-3,2.5852032E-3,-1.1606468E-2,-2.8018706E-2,-3.0595195E-2,7.983157E-3,2.2334369E-2,1.135993E-2,3.3614945E-2,5.9278786E-2,2.3949962E-2,4.0119153E-2],"split_indices":[119,119,119,119,129,119,133,121,198,125,0,121,113,117,121,0,0,0,0,0,0,0,0,0,0,0,0,0,0,0,0],"split_type":[0,0,0,0,0,0,0,0,0,0,0,0,0,0,0,0,0,0,0,0,0,0,0,0,0,0,0,0,0,0,0],"sum_hessian":[8.181E3,4.457E3,3.724E3,1.245E3,3.212E3,2.911E3,8.13E2,5.93E2,6.52E2,1.664E3,1.548E3,1.321E3,1.59E3,2.43E2,5.7E2,1.88E2,4.05E2,4.9E2,1.62E2,9.6E2,7.04E2,1.332E3,2.16E2,3.4E1,1.287E3,1E3,5.9E2,9.3E1,1.5E2,2.86E2,2.84E2],"tree_param":{"num_deleted":"0","num_feature":"205","num_nodes":"31","size_leaf_vector":"1"}},{"base_weights":[1.4974773E-1,-3.243559E0,4.264962E0,-6.31328E0,-1.3771509E0,2.6242213E0,6.829526E0,-9.013704E0,-4.911133E0,-2.6396668E0,-9.39904E-2,1.9541489E0,5.4633927E0,3.0768373E0,7.924009E0,-3.0473555E-3,-4.1363016E-2,-2.8789833E-2,-1.6765676E-2,3.7318673E-3,-1.4353924E-2,-6.6575333E-3,7.840537E-3,1.3024397E-3,1.3749518E-2,-1.0441941E-2,2.6099889E-2,-3.6752602E-4,2.197077E-2,3.231864E-2,5.0148267E-2],"categories":[],"categories_nodes":[],"categories_segments":[],"categories_sizes":[],"default_left":[0,0,0,0,0,0,0,0,0,0,0,0,0,0,0,0,0,0,0,0,0,0,0,0,0,0,0,0,0,0,0],"id":35,"left_children":[1,3,5,7,9,11,13,15,17,19,21,23,25,27,29,-1,-1,-1,-1,-1,-1,-1,-1,-1,-1,-1,-1,-1,-1,-1,-1],"loss_changes":[1.1245313E5,2.527464E4,1.5296555E4,6.2836484E3,4.4448267E3,4.2121113E3,5.808125E3,1.5618789E3,1.9465332E3,2.9118477E3,3.5854106E3,3.434788E3,1.4468125E3,1.9221626E3,2.2707734E3,0E0,0E0,0E0,0E0,0E0,0E0,0E0,0E0,0E0,0E0,0E0,0E0,0E0,0E0,0E0,0E0],"parents":[2147483647,0,0,1,1,2,2,3,3,4,4,5,5,6,6,7,7,8,8,9,9,10,10,11,11,12,12,13,13,14,14],"right_children":[2,4,6,8,10,12,14,16,18,20,22,24,26,28,30,-1,-1,-1,-1,-1,-1,-1,-1,-1,-1,-1,-1,-1,-1,-1,-1],"split_conditions":[1.8476126E1,-1.2501778E2,7.3E0,-2.3222815E2,-1.1E0,1.76E1,9.7218994E1,1E0,-8.5E0,-3.77E-1,-8E-1,7.209312E1,-9.7E0,-2.8E0,3.0797516E2,-3.0473555E-3,-4.1363016E-2,-2.8789833E-2,-1.6765676E-2,3.7318673E-3,-1.4353924E-2,-6.6575333E-3,7.840537E-3,1.3024397E-3,1.3749518E-2,-1.0441941E-2,2.6099889E-2,-3.6752602E-4,2.197077E-2,3.231864E-2,5.0148267E-2],"split_indices":[119,119,141,119,178,178,119,86,141,160,141,119,142,48,119,0,0,0,0,0,0,0,0,0,0,0,0,0,0,0,0],"split_type":[0,0,0,0,0,0,0,0,0,0,0,0,0,0,0,0,0,0,0,0,0,0,0,0,0,0,0,0,0,0,0],"sum_hessian":[8.052E3,4.413E3,3.639E3,1.668E3,2.745E3,2.22E3,1.419E3,5.69E2,1.099E3,1.383E3,1.362E3,1.797E3,4.23E2,3.21E2,1.098E3,2.2E1,5.47E2,4.53E2,6.46E2,2.04E2,1.179E3,7.76E2,5.86E2,7.37E2,1.06E3,2.2E1,4.01E2,1.2E2,2.01E2,9.3E2,1.68E2],"tree_param":{"num_deleted":"0","num_feature":"205","num_nodes":"31","size_leaf_vector":"1"}},{"base_weights":[1.520093E-1,-3.751719E0,3.9742682E0,-7.668701E0,-2.1304953E0,2.42334E0,7.4821973E0,-9.538066E0,-6.2124667E0,-4.2086263E0,-1.1944504E0,-5.1715045E0,2.6892467E0,5.122739E0,8.771791E0,1.720965E-2,-4.3295704E-2,-9.193623E-3,-3.1156896E-2,-3.513653E-2,-1.5303615E-2,-8.763518E-3,8.8618684E-4,-4.0955428E-2,-7.925969E-3,8.546451E-3,2.0917876E-2,2.0967193E-2,7.268995E-2,3.7196048E-2,8.139593E-2],"categories":[],"categories_nodes":[],"categories_segments":[],"categories_sizes":[],"default_left":[0,0,0,0,0,0,0,0,0,0,0,0,0,0,0,0,0,0,0,0,0,0,0,0,0,0,0,0,0,0,0],"id":36,"left_children":[1,3,5,7,9,11,13,15,17,19,21,23,25,27,29,-1,-1,-1,-1,-1,-1,-1,-1,-1,-1,-1,-1,-1,-1,-1,-1],"loss_changes":[1.213517E5,2.5533027E4,2.2339637E4,3.1629766E3,5.5293447E3,5.7603203E3,3.7981484E3,1.7118047E3,2.2542148E3,2.4506904E3,2.1533555E3,1.312637E3,4.2435723E3,1.8877246E3,2.7789297E3,0E0,0E0,0E0,0E0,0E0,0E0,0E0,0E0,0E0,0E0,0E0,0E0,0E0,0E0,0E0,0E0],"parents":[2147483647,0,0,1,1,2,2,3,3,4,4,5,5,6,6,7,7,8,8,9,9,10,10,11,11,12,12,13,13,14,14],"right_children":[2,4,6,8,10,12,14,16,18,20,22,24,26,28,30,-1,-1,-1,-1,-1,-1,-1,-1,-1,-1,-1,-1,-1,-1,-1,-1],"split_conditions":[0E0,-1.6110484E2,1.5818538E2,-1.1E1,-7.6E0,-8.5E0,7.3E0,-5.14E0,-1E0,-1.3E0,8E0,5E-1,6.9E0,1.83E0,4.1464172E2,1.720965E-2,-4.3295704E-2,-9.193623E-3,-3.1156896E-2,-3.513653E-2,-1.5303615E-2,-8.763518E-3,8.8618684E-4,-4.0955428E-2,-7.925969E-3,8.546451E-3,2.0917876E-2,2.0967193E-2,7.268995E-2,3.7196048E-2,8.139593E-2],"split_indices":[119,119,119,137,137,125,141,152,192,143,113,148,141,153,119,0,0,0,0,0,0,0,0,0,0,0,0,0,0,0,0],"split_type":[0,0,0,0,0,0,0,0,0,0,0,0,0,0,0,0,0,0,0,0,0,0,0,0,0,0,0,0,0,0,0],"sum_hessian":[8.132E3,4.023E3,4.109E3,1.177E3,2.846E3,2.85E3,1.259E3,5.14E2,6.63E2,8.83E2,1.963E3,9.6E1,2.754E3,4.46E2,8.13E2,9E0,5.05E2,1.11E2,5.52E2,1.47E2,7.36E2,1.256E3,7.07E2,4.3E1,5.3E1,2.008E3,7.46E2,4.32E2,1.4E1,7.84E2,2.9E1],"tree_param":{"num_deleted":"0","num_feature":"205","num_nodes":"31","size_leaf_vector":"1"}},{"base_weights":[-3.3140857E-2,-3.7589145E0,3.88634E0,-8.467318E0,-2.6450837E0,1.7827628E0,6.3837323E0,-1.2419217E1,-7.253953E0,-3.7487888E0,-6.4381045E-1,2.8344188E0,2.6766303E-1,4.684124E0,8.048809E0,-5.265008E-3,-5.8404073E-2,-4.3809075E-2,-2.7587265E-2,-2.5508646E-2,-1.36799775E-2,-7.3390706E-3,4.556219E-3,-2.8685013E-2,1.3469362E-2,3.2845382E-3,-2.4534428E-2,5.9107013E-2,1.9158494E-2,5.493306E-2,3.2669257E-2],"categories":[],"categories_nodes":[],"categories_segments":[],"categories_sizes":[],"default_left":[0,0,0,0,0,0,0,0,0,0,0,0,0,0,0,0,0,0,0,0,0,0,0,0,0,0,0,0,0,0,0],"id":37,"left_children":[1,3,5,7,9,11,13,15,17,19,21,23,25,27,29,-1,-1,-1,-1,-1,-1,-1,-1,-1,-1,-1,-1,-1,-1,-1,-1],"loss_changes":[1.168524E5,2.1493605E4,2.0472355E4,3.701418E3,7.3243867E3,3.37044E3,5.014664E3,1.5794023E3,1.5796816E3,2.8175117E3,2.0051277E3,2.4375664E3,2.391586E3,2.6781758E3,2.5577617E3,0E0,0E0,0E0,0E0,0E0,0E0,0E0,0E0,0E0,0E0,0E0,0E0,0E0,0E0,0E0,0E0],"parents":[2147483647,0,0,1,1,2,2,3,3,4,4,5,5,6,6,7,7,8,8,9,9,10,10,11,11,12,12,13,13,14,14],"right_children":[2,4,6,8,10,12,14,16,18,20,22,24,26,28,30,-1,-1,-1,-1,-1,-1,-1,-1,-1,-1,-1,-1,-1,-1,-1,-1],"split_conditions":[4.1525874E0,-2.0203497E2,1.14253174E2,-1.76E1,-1.2E0,8E-1,1.9178436E2,9E0,-8.8E0,-1.01E1,8E0,1.3234084E3,9.4E0,-1.122E1,-9.1E0,-5.265008E-3,-5.8404073E-2,-4.3809075E-2,-2.7587265E-2,-2.5508646E-2,-1.36799775E-2,-7.3390706E-3,4.556219E-3,-2.8685013E-2,1.3469362E-2,3.2845382E-3,-2.4534428E-2,5.9107013E-2,1.9158494E-2,5.493306E-2,3.2669257E-2],"split_indices":[119,119,119,137,141,146,119,92,138,141,113,118,129,154,146,0,0,0,0,0,0,0,0,0,0,0,0,0,0,0,0],"split_type":[0,0,0,0,0,0,0,0,0,0,0,0,0,0,0,0,0,0,0,0,0,0,0,0,0,0,0,0,0,0,0],"sum_hessian":[8.001E3,4.102E3,3.899E3,7.84E2,3.318E3,2.117E3,1.782E3,1.83E2,6.01E2,2.138E3,1.18E3,1.249E3,8.68E2,8.83E2,8.99E2,1.2E1,1.71E2,1.66E2,4.35E2,5.25E2,1.613E3,7.35E2,4.45E2,2.7E1,1.222E3,8.03E2,6.5E1,3.4E1,8.49E2,1.18E2,7.81E2],"tree_param":{"num_deleted":"0","num_feature":"205","num_nodes":"31","size_leaf_vector":"1"}},{"base_weights":[-6.4827395E-3,-3.5077314E0,4.1604204E0,-6.4334636E0,-1.7321725E0,2.764596E0,8.480837E0,-8.929901E0,-5.202517E0,-3.1889734E0,-2.2405913E-2,1.8502226E0,4.7380214E0,6.0704E0,9.991374E0,-3.2130923E-2,-4.898109E-2,-3.1341355E-2,-1.606544E-2,-2.1039216E-2,-1.0492552E-2,-6.6291858E-3,6.042664E-3,-1.066007E-2,9.867066E-3,1.8828597E-2,3.9644938E-2,5.9447978E-2,2.279113E-2,4.1144658E-2,7.094339E-2],"categories":[],"categories_nodes":[],"categories_segments":[],"categories_sizes":[],"default_left":[0,0,0,0,0,0,0,0,0,0,0,0,0,0,0,0,0,0,0,0,0,0,0,0,0,0,0,0,0,0,0],"id":38,"left_children":[1,3,5,7,9,11,13,15,17,19,21,23,25,27,29,-1,-1,-1,-1,-1,-1,-1,-1,-1,-1,-1,-1,-1,-1,-1,-1],"loss_changes":[1.1827386E5,2.2872336E4,2.2300016E4,5.076797E3,6.8276377E3,5.039158E3,3.24625E3,1.9031641E3,3.2737559E3,1.88329E3,2.5859434E3,3.092518E3,1.777123E3,2.319204E3,2.2339648E3,0E0,0E0,0E0,0E0,0E0,0E0,0E0,0E0,0E0,0E0,0E0,0E0,0E0,0E0,0E0,0E0],"parents":[2147483647,0,0,1,1,2,2,3,3,4,4,5,5,6,6,7,7,8,8,9,9,10,10,11,11,12,12,13,13,14,14],"right_children":[2,4,6,8,10,12,14,16,18,20,22,24,26,28,30,-1,-1,-1,-1,-1,-1,-1,-1,-1,-1,-1,-1,-1,-1,-1,-1],"split_conditions":[1.751152E1,-1.2501778E2,1.9178436E2,1.3475002E3,-1.4E0,6.9E0,8.7E0,6E-1,-8.7E0,-7.905928E1,-9E-1,-6.7E0,1.6E1,-3.8E0,1.14E2,-3.2130923E-2,-4.898109E-2,-3.1341355E-2,-1.606544E-2,-2.1039216E-2,-1.0492552E-2,-6.6291858E-3,6.042664E-3,-1.066007E-2,9.867066E-3,1.8828597E-2,3.9644938E-2,5.9447978E-2,2.279113E-2,4.1144658E-2,7.094339E-2],"split_indices":[119,119,119,117,141,141,141,68,141,119,151,141,141,152,123,0,0,0,0,0,0,0,0,0,0,0,0,0,0,0,0],"split_type":[0,0,0,0,0,0,0,0,0,0,0,0,0,0,0,0,0,0,0,0,0,0,0,0,0,0,0,0,0,0,0],"sum_hessian":[8.106E3,4.405E3,3.701E3,1.663E3,2.742E3,2.798E3,9.03E2,5.48E2,1.115E3,1.48E3,1.262E3,1.913E3,8.85E2,3.49E2,5.54E2,3.09E2,2.39E2,5.07E2,6.08E2,5.07E2,9.73E2,6.12E2,6.5E2,1.56E2,1.757E3,7.95E2,9E1,3.8E1,3.11E2,4.98E2,5.6E1],"tree_param":{"num_deleted":"0","num_feature":"205","num_nodes":"31","size_leaf_vector":"1"}},{"base_weights":[9.895434E-2,-3.4567664E0,4.2707477E0,-7.2982297E0,-1.7301354E0,2.1823497E0,6.384697E0,-9.570614E0,-5.8634844E0,-4.6252112E0,-1.121602E0,-3.891125E0,2.4515622E0,4.470365E0,7.899574E0,-3.7640166E-2,-6.297269E-2,3.2688487E-2,-2.6761087E-2,-3.614224E-2,-1.569516E-2,-1.7691508E-2,-3.0530752E-3,2.0417696E-2,-2.6192248E-2,4.5362217E-3,1.5324452E-2,3.1831734E-2,1.5878363E-2,3.197308E-2,4.903133E-2],"categories":[],"categories_nodes":[],"categories_segments":[],"categories_sizes":[],"default_left":[0,0,0,0,0,0,0,0,0,0,0,0,0,0,0,0,0,0,0,0,0,0,0,0,0,0,0,0,0,0,0],"id":39,"left_children":[1,3,5,7,9,11,13,15,17,19,21,23,25,27,29,-1,-1,-1,-1,-1,-1,-1,-1,-1,-1,-1,-1,-1,-1,-1,-1],"loss_changes":[1.19870664E5,2.8920547E4,1.6401305E4,4.3687812E3,5.2956094E3,3.0627783E3,5.329367E3,2.516871E3,2.0336367E3,1.9713535E3,3.0838906E3,1.383142E3,2.5791045E3,1.9416895E3,2.158E3,0E0,0E0,0E0,0E0,0E0,0E0,0E0,0E0,0E0,0E0,0E0,0E0,0E0,0E0,0E0,0E0],"parents":[2147483647,0,0,1,1,2,2,3,3,4,4,5,5,6,6,7,7,8,8,9,9,10,10,11,11,12,12,13,13,14,14],"right_children":[2,4,6,8,10,12,14,16,18,20,22,24,26,28,30,-1,-1,-1,-1,-1,-1,-1,-1,-1,-1,-1,-1,-1,-1,-1,-1],"split_conditions":[1.751152E1,-1.520331E2,1.14253174E2,-6.6E0,-1.08E1,-7.8E0,7.2E0,1.174E2,-1.28E1,1.4094906E3,-2.15E1,-2.24E0,-1.9E0,3E0,3.0797516E2,-3.7640166E-2,-6.297269E-2,3.2688487E-2,-2.6761087E-2,-3.614224E-2,-1.569516E-2,-1.7691508E-2,-3.0530752E-3,2.0417696E-2,-2.6192248E-2,4.5362217E-3,1.5324452E-2,3.1831734E-2,1.5878363E-2,3.197308E-2,4.903133E-2],"split_indices":[119,119,119,125,137,125,141,130,121,117,169,152,181,88,119,0,0,0,0,0,0,0,0,0,0,0,0,0,0,0,0],"split_type":[0,0,0,0,0,0,0,0,0,0,0,0,0,0,0,0,0,0,0,0,0,0,0,0,0,0,0,0,0,0,0],"sum_hessian":[8.08E3,4.362E3,3.718E3,1.352E3,3.01E3,1.871E3,1.847E3,5.22E2,8.3E2,5.22E2,2.488E3,7.9E1,1.792E3,8.17E2,1.03E3,4.26E2,9.6E1,1.1E1,8.19E2,1.21E2,4.01E2,3.24E2,2.164E3,1.5E1,6.4E1,7.44E2,1.048E3,1.99E2,6.18E2,8.51E2,1.79E2],"tree_param":{"num_deleted":"0","num_feature":"205","num_nodes":"31","size_leaf_vector":"1"}},{"base_weights":[1.1293853E-1,-3.2624028E0,4.391017E0,-6.8559065E0,-1.7336018E0,2.4280314E0,7.2430034E0,-9.787733E0,-5.4437146E0,-2.9842148E0,1.4290562E-1,-1.010814E1,2.5550969E0,5.2096524E0,8.516838E0,-4.9568977E-2,-2.9546086E-2,-3.1437468E-2,-1.8011248E-2,-4.2191353E-2,-1.2326349E-2,-1.1117036E-2,5.683412E-3,-1.2360021E-2,-7.7864826E-2,1.1886605E-2,-3.1143779E-2,1.646271E-2,3.2578778E-2,4.5965746E-2,3.179211E-2],"categories":[],"categories_nodes":[],"categories_segments":[],"categories_sizes":[],"default_left":[0,0,0,0,0,0,0,0,0,0,0,0,0,0,0,0,0,0,0,0,0,0,0,0,0,0,0,0,0,0,0],"id":40,"left_children":[1,3,5,7,9,11,13,15,17,19,21,23,25,27,29,-1,-1,-1,-1,-1,-1,-1,-1,-1,-1,-1,-1,-1,-1,-1,-1],"loss_changes":[1.1804642E5,2.5089531E4,2.0167242E4,5.6059727E3,7.527866E3,3.4072793E3,3.7724922E3,1.8930508E3,2.0771133E3,2.4850918E3,3.8857407E3,1.1321555E3,2.6553213E3,1.7956348E3,2.1981445E3,0E0,0E0,0E0,0E0,0E0,0E0,0E0,0E0,0E0,0E0,0E0,0E0,0E0,0E0,0E0,0E0],"parents":[2147483647,0,0,1,1,2,2,3,3,4,4,5,5,6,6,7,7,8,8,9,9,10,10,11,11,12,12,13,13,14,14],"right_children":[2,4,6,8,10,12,14,16,18,20,22,24,26,28,30,-1,-1,-1,-1,-1,-1,-1,-1,-1,-1,-1,-1,-1,-1,-1,-1],"split_conditions":[2.1575325E1,-1.520331E2,1.4245491E2,-1.25E1,-8E-1,-1.12E1,7.3E0,-5E0,1.3670294E3,-1.39E1,-5.1E0,-3E0,1E0,6E-1,4E1,-4.9568977E-2,-2.9546086E-2,-3.1437468E-2,-1.8011248E-2,-4.2191353E-2,-1.2326349E-2,-1.1117036E-2,5.683412E-3,-1.2360021E-2,-7.7864826E-2,1.1886605E-2,-3.1143779E-2,1.646271E-2,3.2578778E-2,4.5965746E-2,3.179211E-2],"split_indices":[119,119,119,141,141,125,141,138,117,125,147,169,168,139,107,0,0,0,0,0,0,0,0,0,0,0,0,0,0,0,0],"split_type":[0,0,0,0,0,0,0,0,0,0,0,0,0,0,0,0,0,0,0,0,0,0,0,0,0,0,0,0,0,0,0],"sum_hessian":[8.174E3,4.569E3,3.605E3,1.363E3,3.206E3,2.136E3,1.469E3,4.42E2,9.21E2,1.924E3,1.282E3,2.1E1,2.115E3,5.67E2,9.02E2,3.03E2,1.39E2,4.16E2,5.05E2,5.6E1,1.868E3,3.85E2,8.97E2,1.1E1,1E1,2.087E3,2.8E1,3.36E2,2.31E2,3.74E2,5.28E2],"tree_param":{"num_deleted":"0","num_feature":"205","num_nodes":"31","size_leaf_vector":"1"}},{"base_weights":[-1.1460818E-1,-3.1663027E0,4.522237E0,-7.3074293E0,-1.6059518E0,3.227386E0,7.946641E0,-9.939481E0,-6.1611867E0,-2.9619756E0,1.8845163E-1,2.2542703E0,5.0127463E0,1.3499599E1,7.458905E0,-1.7936798E-2,-4.738097E-2,-3.8294572E-2,-2.4208615E-2,-1.518206E-2,-6.6631305E-4,-4.1706297E-3,8.613528E-3,7.2821733E-3,2.2094894E-2,2.3557663E-2,-1.3709977E-2,8.876702E-2,4.736327E-2,4.306516E-2,2.7982293E-2],"categories":[],"categories_nodes":[],"categories_segments":[],"categories_sizes":[],"default_left":[0,0,0,0,0,0,0,0,0,0,0,0,0,0,0,0,0,0,0,0,0,0,0,0,0,0,0,0,0,0,0],"id":41,"left_children":[1,3,5,7,9,11,13,15,17,19,21,23,25,27,29,-1,-1,-1,-1,-1,-1,-1,-1,-1,-1,-1,-1,-1,-1,-1,-1],"loss_changes":[1.1460005E5,3.1547262E4,1.4230516E4,3.9884688E3,8.637291E3,4.0417324E3,2.3211562E3,1.7898906E3,1.5706289E3,2.6580566E3,3.037879E3,2.5094775E3,2.077838E3,1.1653818E3,2.0509922E3,0E0,0E0,0E0,0E0,0E0,0E0,0E0,0E0,0E0,0E0,0E0,0E0,0E0,0E0,0E0,0E0],"parents":[2147483647,0,0,1,1,2,2,3,3,4,4,5,5,6,6,7,7,8,8,9,9,10,10,11,11,12,12,13,13,14,14],"right_children":[2,4,6,8,10,12,14,16,18,20,22,24,26,28,30,-1,-1,-1,-1,-1,-1,-1,-1,-1,-1,-1,-1,-1,-1,-1,-1],"split_conditions":[3.876994E1,-1.520331E2,1.9178436E2,-1.28E1,-8E-1,6.8E0,-9.1E0,-1E0,-2.6542593E2,1.59E1,6E0,1.85E1,1.174E2,1.3412225E3,-2E0,-1.7936798E-2,-4.738097E-2,-3.8294572E-2,-2.4208615E-2,-1.518206E-2,-6.6631305E-4,-4.1706297E-3,8.613528E-3,7.2821733E-3,2.2094894E-2,2.3557663E-2,-1.3709977E-2,8.876702E-2,4.736327E-2,4.306516E-2,2.7982293E-2],"split_indices":[119,119,119,141,141,141,150,182,119,169,113,178,127,118,198,0,0,0,0,0,0,0,0,0,0,0,0,0,0,0,0],"split_type":[0,0,0,0,0,0,0,0,0,0,0,0,0,0,0,0,0,0,0,0,0,0,0,0,0,0,0,0,0,0,0],"sum_hessian":[8.098E3,4.884E3,3.214E3,1.336E3,3.548E3,2.333E3,8.81E2,4.04E2,9.32E2,2.021E3,1.527E3,1.511E3,8.22E2,7E1,8.11E2,4.7E1,3.57E2,2.01E2,7.31E2,1.732E3,2.89E2,9.29E2,5.98E2,1.237E3,2.74E2,7.92E2,3E1,2E1,5E1,2.69E2,5.42E2],"tree_param":{"num_deleted":"0","num_feature":"205","num_nodes":"31","size_leaf_vector":"1"}},{"base_weights":[-2.0030616E-2,-3.7450447E0,3.692877E0,-7.8904767E0,-2.620981E0,2.3796666E0,6.7093277E0,-1.0300019E1,-6.7202344E0,-3.8663268E0,-9.614909E-1,-2.2368083E0,2.79811E0,5.271465E0,8.764273E0,-4.7527775E-2,1.2311808E-2,-3.1475615E-2,3.3106187E-3,-2.0769207E-2,-1.1874789E-2,5.7481374E-3,-7.4384E-3,-3.707703E-2,4.236689E-5,9.578095E-3,2.3623725E-2,4.891162E-2,2.1610025E-2,4.727175E-2,2.5626682E-2],"categories":[],"categories_nodes":[],"categories_segments":[],"categories_sizes":[],"default_left":[0,0,0,0,0,0,0,0,0,0,0,0,0,0,0,0,0,0,0,0,0,0,0,0,0,0,0,0,0,0,0],"id":42,"left_children":[1,3,5,7,9,11,13,15,17,19,21,23,25,27,29,-1,-1,-1,-1,-1,-1,-1,-1,-1,-1,-1,-1,-1,-1,-1,-1],"loss_changes":[1.1271832E5,1.8938125E4,1.6151359E4,2.3979219E3,6.6097656E3,5.498093E3,3.621582E3,1.6426074E3,1.720957E3,1.7749805E3,2.2340176E3,3.2700134E3,4.186992E3,1.5988457E3,2.8540352E3,0E0,0E0,0E0,0E0,0E0,0E0,0E0,0E0,0E0,0E0,0E0,0E0,0E0,0E0,0E0,0E0],"parents":[2147483647,0,0,1,1,2,2,3,3,4,4,5,5,6,6,7,7,8,8,9,9,10,10,11,11,12,12,13,13,14,14],"right_children":[2,4,6,8,10,12,14,16,18,20,22,24,26,28,30,-1,-1,-1,-1,-1,-1,-1,-1,-1,-1,-1,-1,-1,-1,-1,-1],"split_conditions":[1.2085105E0,-1.9826341E2,1.6116786E2,-9.4E0,-2.2E0,-5.9E0,1.16E1,-2.6E0,5.5E-1,6.7E-2,2.5E-1,1.4929673E3,1.97E1,1.119E2,8.9E0,-4.7527775E-2,1.2311808E-2,-3.1475615E-2,3.3106187E-3,-2.0769207E-2,-1.1874789E-2,5.7481374E-3,-7.4384E-3,-3.707703E-2,4.236689E-5,9.578095E-3,2.3623725E-2,4.891162E-2,2.1610025E-2,4.727175E-2,2.5626682E-2],"split_indices":[119,119,119,138,137,141,141,142,11,168,74,117,172,8,125,0,0,0,0,0,0,0,0,0,0,0,0,0,0,0,0],"split_type":[0,0,0,0,0,0,0,0,0,0,0,0,0,0,0,0,0,0,0,0,0,0,0,0,0,0,0,0,0,0,0],"sum_hessian":[8.149E3,4.068E3,4.081E3,8.67E2,3.201E3,2.844E3,1.237E3,2.82E2,5.85E2,1.828E3,1.373E3,2.36E2,2.608E3,7.29E2,5.08E2,2.73E2,9E0,5.56E2,2.9E1,1.075E3,7.53E2,3.31E2,1.042E3,6.3E1,1.73E2,2.088E3,5.2E2,4.5E1,6.84E2,3.08E2,2E2],"tree_param":{"num_deleted":"0","num_feature":"205","num_nodes":"31","size_leaf_vector":"1"}},{"base_weights":[-9.25754E-2,-3.4463398E0,3.9174552E0,-6.9889574E0,-2.147989E0,2.3539531E0,7.1492357E0,-9.235378E0,-5.4589233E0,-3.2901566E0,-4.119269E-1,-4.313397E0,2.7259836E0,6.0895815E0,9.461321E0,-5.10123E-2,-3.1092776E-2,-1.4998132E-2,-3.1844042E-2,-3.339573E-2,-1.2652086E-2,-8.189381E-3,3.96803E-3,-5.6785487E-2,-1.29537545E-2,1.8000212E-2,8.358172E-3,3.815935E-2,2.3336831E-2,3.0690623E-2,5.442345E-2],"categories":[],"categories_nodes":[],"categories_segments":[],"categories_sizes":[],"default_left":[0,0,0,0,0,0,0,0,0,0,0,0,0,0,0,0,0,0,0,0,0,0,0,0,0,0,0,0,0,0,0],"id":43,"left_children":[1,3,5,7,9,11,13,15,17,19,21,23,25,27,29,-1,-1,-1,-1,-1,-1,-1,-1,-1,-1,-1,-1,-1,-1,-1,-1],"loss_changes":[1.105734E5,2.0578457E4,1.890329E4,4.0887734E3,6.4944736E3,6.265501E3,2.9487266E3,2.4027617E3,2.5498945E3,3.6087734E3,2.4512805E3,1.5433735E3,2.6765898E3,1.6997969E3,2.68275E3,0E0,0E0,0E0,0E0,0E0,0E0,0E0,0E0,0E0,0E0,0E0,0E0,0E0,0E0,0E0,0E0],"parents":[2147483647,0,0,1,1,2,2,3,3,4,4,5,5,6,6,7,7,8,8,9,9,10,10,11,11,12,12,13,13,14,14],"right_children":[2,4,6,8,10,12,14,16,18,20,22,24,26,28,30,-1,-1,-1,-1,-1,-1,-1,-1,-1,-1,-1,-1,-1,-1,-1,-1],"split_conditions":[1.8476126E1,-1.6110484E2,1.637191E2,-1.2E1,-1.1E0,-6.8E0,1.42E1,-2.5242928E2,-1E0,-1.76E1,-1.5E0,-5.1E-1,1.1E1,2.5E-1,2.5077089E2,-5.10123E-2,-3.1092776E-2,-1.4998132E-2,-3.1844042E-2,-3.339573E-2,-1.2652086E-2,-8.189381E-3,3.96803E-3,-5.6785487E-2,-1.29537545E-2,1.8000212E-2,8.358172E-3,3.815935E-2,2.3336831E-2,3.0690623E-2,5.442345E-2],"split_indices":[119,119,119,137,141,141,137,119,157,137,147,11,92,53,119,0,0,0,0,0,0,0,0,0,0,0,0,0,0,0,0],"split_type":[0,0,0,0,0,0,0,0,0,0,0,0,0,0,0,0,0,0,0,0,0,0,0,0,0,0,0,0,0,0,0],"sum_hessian":[8.221E3,4.477E3,3.744E3,1.2E3,3.277E3,2.524E3,1.22E3,4.85E2,7.15E2,1.976E3,1.301E3,1.33E2,2.391E3,8.38E2,3.82E2,2.37E2,2.48E2,3.27E2,3.88E2,1.81E2,1.795E3,6.2E2,6.81E2,1.8E1,1.15E2,9.18E2,1.473E3,2.03E2,6.35E2,2.03E2,1.79E2],"tree_param":{"num_deleted":"0","num_feature":"205","num_nodes":"31","size_leaf_vector":"1"}},{"base_weights":[-9.290808E-3,-3.7308657E0,3.756218E0,-8.059961E0,-2.6360612E0,2.2264607E0,6.651307E0,-4.754745E0,-8.777415E0,-3.582976E0,-9.245047E-1,-4.382505E0,2.5580268E0,5.0502872E0,8.253498E0,7.7333823E-3,-2.8398497E-2,-4.341259E-2,-2.730084E-2,-2.4292225E-2,-1.2983279E-2,-2.3117613E-2,-9.801575E-4,8.69813E-3,-2.6058659E-2,5.5752415E-3,1.5809463E-2,8.474101E-3,2.8317316E-2,3.4184434E-2,5.963746E-2],"categories":[],"categories_nodes":[],"categories_segments":[],"categories_sizes":[],"default_left":[0,0,0,0,0,0,0,0,0,0,0,0,0,0,0,0,0,0,0,0,0,0,0,0,0,0,0,0,0,0,0],"id":44,"left_children":[1,3,5,7,9,11,13,15,17,19,21,23,25,27,29,-1,-1,-1,-1,-1,-1,-1,-1,-1,-1,-1,-1,-1,-1,-1,-1],"loss_changes":[1.1399939E5,1.9371285E4,1.789207E4,1.9251875E3,5.287957E3,5.802417E3,3.5526719E3,1.613742E3,1.7800391E3,2.5865547E3,3.5133516E3,1.2174548E3,3.3115957E3,2.9467383E3,1.8607539E3,0E0,0E0,0E0,0E0,0E0,0E0,0E0,0E0,0E0,0E0,0E0,0E0,0E0,0E0,0E0,0E0],"parents":[2147483647,0,0,1,1,2,2,3,3,4,4,5,5,6,6,7,7,8,8,9,9,10,10,11,11,12,12,13,13,14,14],"right_children":[2,4,6,8,10,12,14,16,18,20,22,24,26,28,30,-1,-1,-1,-1,-1,-1,-1,-1,-1,-1,-1,-1,-1,-1,-1,-1],"split_conditions":[1.2085105E0,-1.9826341E2,1.4449736E2,1.008E2,-4E-1,-7.7E0,4.6E0,-1E0,-3.6E0,-1.24E1,-4.9E0,-1E0,5.40126E1,-2.8E-1,3.4828586E2,7.7333823E-3,-2.8398497E-2,-4.341259E-2,-2.730084E-2,-2.4292225E-2,-1.2983279E-2,-2.3117613E-2,-9.801575E-4,8.69813E-3,-2.6058659E-2,5.5752415E-3,1.5809463E-2,8.474101E-3,2.8317316E-2,3.4184434E-2,5.963746E-2],"split_indices":[119,119,119,127,137,125,138,144,125,137,125,179,119,153,119,0,0,0,0,0,0,0,0,0,0,0,0,0,0,0,0],"split_type":[0,0,0,0,0,0,0,0,0,0,0,0,0,0,0,0,0,0,0,0,0,0,0,0,0,0,0,0,0,0,0],"sum_hessian":[8.134E3,4.091E3,4.043E3,8.25E2,3.266E3,2.646E3,1.397E3,1.48E2,6.77E2,2.102E3,1.164E3,1.26E2,2.52E3,7E2,6.97E2,3E1,1.18E2,4.84E2,1.93E2,5.33E2,1.569E3,1.63E2,1.001E3,2.4E1,1.02E2,1.106E3,1.414E3,2.11E2,4.89E2,6.34E2,6.3E1],"tree_param":{"num_deleted":"0","num_feature":"205","num_nodes":"31","size_leaf_vector":"1"}},{"base_weights":[1.4427537E-1,-3.3817427E0,4.26488E0,-6.890223E0,-1.8313059E0,2.9259582E0,8.112699E0,-8.823345E0,-5.4398026E0,-2.7241678E0,-4.52195E-1,-7.450814E-1,3.3851068E0,1.1077706E1,7.003039E0,-4.821106E-2,-3.0065786E-2,-2.1495152E-2,-4.400854E-2,-1.3705681E-2,5.5013928E-3,-7.303447E-3,7.084802E-3,-1.9258268E-2,5.2802935E-3,1.0816821E-2,1.977122E-2,8.9389905E-2,4.4209797E-2,3.2362804E-2,-1.31262615E-2],"categories":[],"categories_nodes":[],"categories_segments":[],"categories_sizes":[],"default_left":[0,0,0,0,0,0,0,0,0,0,0,0,0,0,0,0,0,0,0,0,0,0,0,0,0,0,0,0,0,0,0],"id":45,"left_children":[1,3,5,7,9,11,13,15,17,19,21,23,25,27,29,-1,-1,-1,-1,-1,-1,-1,-1,-1,-1,-1,-1,-1,-1,-1,-1],"loss_changes":[1.1813732E5,2.381932E4,1.9295242E4,3.7282383E3,3.7389297E3,4.6937266E3,3.1301797E3,2.3628828E3,1.9813711E3,2.729997E3,2.9414297E3,2.1683826E3,2.5071367E3,2.4847676E3,2.1889883E3,0E0,0E0,0E0,0E0,0E0,0E0,0E0,0E0,0E0,0E0,0E0,0E0,0E0,0E0,0E0,0E0],"parents":[2147483647,0,0,1,1,2,2,3,3,4,4,5,5,6,6,7,7,8,8,9,9,10,10,11,11,12,12,13,13,14,14],"right_children":[2,4,6,8,10,12,14,16,18,20,22,24,26,28,30,-1,-1,-1,-1,-1,-1,-1,-1,-1,-1,-1,-1,-1,-1,-1,-1],"split_conditions":[1.625509E1,-1.520331E2,1.884584E2,-2.3222815E2,-7E-1,-4E0,-9.2E0,-6.1E0,1.19E2,1E1,8E0,-2.6E-1,9.518114E1,-9E0,4.15004E7,-4.821106E-2,-3.0065786E-2,-2.1495152E-2,-4.400854E-2,-1.3705681E-2,5.5013928E-3,-7.303447E-3,7.084802E-3,-1.9258268E-2,5.2802935E-3,1.0816821E-2,1.977122E-2,8.9389905E-2,4.4209797E-2,3.2362804E-2,-1.31262615E-2],"split_indices":[119,119,119,119,141,141,133,125,127,90,113,11,119,146,0,0,0,0,0,0,0,0,0,0,0,0,0,0,0,0,0],"split_type":[0,0,0,0,0,0,0,0,0,0,0,0,0,0,0,0,0,0,0,0,0,0,0,0,0,0,0,0,0,0,0],"sum_hessian":[8.13E3,4.381E3,3.749E3,1.342E3,3.039E3,2.782E3,9.67E2,5.74E2,7.68E2,1.844E3,1.195E3,3.09E2,2.473E3,2.62E2,7.05E2,2.83E2,2.91E2,6.81E2,8.7E1,1.686E3,1.58E2,7.55E2,4.4E2,1.08E2,2.01E2,1.324E3,1.149E3,2.7E1,2.35E2,6.84E2,2.1E1],"tree_param":{"num_deleted":"0","num_feature":"205","num_nodes":"31","size_leaf_vector":"1"}},{"base_weights":[1.571035E-1,-3.343063E0,4.3616147E0,-6.9991026E0,-1.8099874E0,3.018343E0,7.161283E0,-8.997247E0,-5.4543667E0,-4.077733E0,-1.0241998E0,1.7563571E0,4.3962073E0,5.491815E0,9.272863E0,-4.2564422E-2,-1.8159242E-2,-2.0846386E-2,-3.898039E-2,-2.2620155E-2,-3.3343427E-3,-8.783272E-3,1.6056175E-3,9.589877E-3,-1.861948E-2,1.5441847E-2,2.9806692E-2,2.929368E-2,1.210486E-2,3.4653854E-2,5.2428838E-2],"categories":[],"categories_nodes":[],"categories_segments":[],"categories_sizes":[],"default_left":[0,0,0,0,0,0,0,0,0,0,0,0,0,0,0,0,0,0,0,0,0,0,0,0,0,0,0,0,0,0,0],"id":46,"left_children":[1,3,5,7,9,11,13,15,17,19,21,23,25,27,29,-1,-1,-1,-1,-1,-1,-1,-1,-1,-1,-1,-1,-1,-1,-1,-1],"loss_changes":[1.2029206E5,2.4986293E4,1.3945375E4,4.030004E3,5.5945654E3,4.3556875E3,4.204824E3,1.7089297E3,1.825541E3,2.769335E3,3.1127712E3,3.2120986E3,2.5238086E3,2.0749082E3,1.9082891E3,0E0,0E0,0E0,0E0,0E0,0E0,0E0,0E0,0E0,0E0,0E0,0E0,0E0,0E0,0E0,0E0],"parents":[2147483647,0,0,1,1,2,2,3,3,4,4,5,5,6,6,7,7,8,8,9,9,10,10,11,11,12,12,13,13,14,14],"right_children":[2,4,6,8,10,12,14,16,18,20,22,24,26,28,30,-1,-1,-1,-1,-1,-1,-1,-1,-1,-1,-1,-1,-1,-1,-1,-1],"split_conditions":[1.8476126E1,-1.520331E2,8.8E0,-2.3222815E2,-6.5E0,9.518114E1,2.0050102E2,1.8E0,1.123E2,3.5E-1,-3.0649954E1,1.6704655E3,2.1E0,1.08E2,1.5E1,-4.2564422E-2,-1.8159242E-2,-2.0846386E-2,-3.898039E-2,-2.2620155E-2,-3.3343427E-3,-8.783272E-3,1.6056175E-3,9.589877E-3,-1.861948E-2,1.5441847E-2,2.9806692E-2,2.929368E-2,1.210486E-2,3.4653854E-2,5.2428838E-2],"split_indices":[119,119,141,119,141,119,119,121,135,183,119,117,155,123,103,0,0,0,0,0,0,0,0,0,0,0,0,0,0,0,0],"split_type":[0,0,0,0,0,0,0,0,0,0,0,0,0,0,0,0,0,0,0,0,0,0,0,0,0,0,0,0,0,0,0],"sum_hessian":[8.173E3,4.46E3,3.713E3,1.317E3,3.143E3,2.51E3,1.203E3,5.73E2,7.44E2,8.08E2,2.335E3,1.311E3,1.199E3,6.73E2,5.3E2,5.08E2,6.5E1,6.1E2,1.34E2,6.16E2,1.92E2,1.38E3,9.55E2,1.227E3,8.4E1,8.65E2,3.34E2,4.77E2,1.96E2,3.41E2,1.89E2],"tree_param":{"num_deleted":"0","num_feature":"205","num_nodes":"31","size_leaf_vector":"1"}},{"base_weights":[1.1025092E-1,-4.043935E0,2.9778671E0,-9.225802E0,-2.9950287E0,1.456321E0,6.4766755E0,-1.8132673E1,-8.913381E0,-5.3386273E0,-2.063885E0,1.0926806E0,5.0035934E0,4.8703146E0,7.9312286E0,-4.152078E-2,-1.1469721E-1,-4.273239E-2,-2.5453547E-2,3.0208739E-2,-2.5054146E-2,-1.7303888E-2,-6.330075E-3,7.0715165E-3,-5.080265E-3,1.2711478E-2,3.5940904E-2,6.721689E-2,1.9873857E-2,3.28807E-2,6.1196398E-2],"categories":[],"categories_nodes":[],"categories_segments":[],"categories_sizes":[],"default_left":[0,0,0,0,0,0,0,0,0,0,0,0,0,0,0,0,0,0,0,0,0,0,0,0,0,0,0,0,0,0,0],"id":47,"left_children":[1,3,5,7,9,11,13,15,17,19,21,23,25,27,29,-1,-1,-1,-1,-1,-1,-1,-1,-1,-1,-1,-1,-1,-1,-1,-1],"loss_changes":[9.7180875E4,1.8082812E4,2.568195E4,1.4599688E3,6.0356113E3,4.3313867E3,3.3869531E3,1.1121357E3,1.2323164E3,3.1034375E3,2.313165E3,3.4558289E3,2.0545308E3,2.679205E3,2.200754E3,0E0,0E0,0E0,0E0,0E0,0E0,0E0,0E0,0E0,0E0,0E0,0E0,0E0,0E0,0E0,0E0],"parents":[2147483647,0,0,1,1,2,2,3,3,4,4,5,5,6,6,7,7,8,8,9,9,10,10,11,11,12,12,13,13,14,14],"right_children":[2,4,6,8,10,12,14,16,18,20,22,24,26,28,30,-1,-1,-1,-1,-1,-1,-1,-1,-1,-1,-1,-1,-1,-1,-1,-1],"split_conditions":[-3.0649954E1,-2.3222815E2,1.4245491E2,-2.38E1,-8.5E0,1.4E1,8.8E0,1.158E2,6E0,-5.4E0,-1.4150076E2,2.2201056E7,1E0,-4.69E1,4.4E0,-4.152078E-2,-1.1469721E-1,-4.273239E-2,-2.5453547E-2,3.0208739E-2,-2.5054146E-2,-1.7303888E-2,-6.330075E-3,7.0715165E-3,-5.080265E-3,1.2711478E-2,3.5940904E-2,6.721689E-2,1.9873857E-2,3.28807E-2,6.1196398E-2],"split_indices":[119,119,119,141,141,137,141,8,146,143,119,0,190,175,139,0,0,0,0,0,0,0,0,0,0,0,0,0,0,0,0],"split_type":[0,0,0,0,0,0,0,0,0,0,0,0,0,0,0,0,0,0,0,0,0,0,0,0,0,0,0,0,0,0,0],"sum_hessian":[8.157E3,3.331E3,4.826E3,5.6E2,2.771E3,3.364E3,1.462E3,1.8E1,5.42E2,7.87E2,1.984E3,3.052E3,3.12E2,6.96E2,7.66E2,9E0,9E0,4.38E2,1.04E2,2E1,7.67E2,5.06E2,1.478E3,2.491E3,5.61E2,1.86E2,1.26E2,2.4E1,6.72E2,7.07E2,5.9E1],"tree_param":{"num_deleted":"0","num_feature":"205","num_nodes":"31","size_leaf_vector":"1"}},{"base_weights":[-1.2931179E-1,-3.3312323E0,3.837551E0,-6.991169E0,-1.7533063E0,2.4828224E0,7.16241E0,-9.222055E0,-5.601457E0,-2.8548074E0,-2.332778E-1,1.61455E0,4.543496E0,6.708054E0,1.4072387E1,-5.262147E-2,-3.520646E-2,-3.6431994E-2,-2.0142162E-2,-1.3692343E-2,1.4985856E-2,9.703993E-3,-3.877366E-3,-1.9236071E-2,8.36512E-3,8.511507E-3,2.464444E-2,6.04521E-2,2.7983014E-2,8.279802E-2,4.8224464E-2],"categories":[],"categories_nodes":[],"categories_segments":[],"categories_sizes":[],"default_left":[0,0,0,0,0,0,0,0,0,0,0,0,0,0,0,0,0,0,0,0,0,0,0,0,0,0,0,0,0,0,0],"id":48,"left_children":[1,3,5,7,9,11,13,15,17,19,21,23,25,27,29,-1,-1,-1,-1,-1,-1,-1,-1,-1,-1,-1,-1,-1,-1,-1,-1],"loss_changes":[1.03528836E5,2.6034125E4,1.6380016E4,4.1736094E3,5.2748145E3,4.6201064E3,3.2442656E3,1.6971172E3,2.2868867E3,2.7295576E3,2.0664092E3,2.992809E3,2.0460146E3,2.5916094E3,8.2780176E2,0E0,0E0,0E0,0E0,0E0,0E0,0E0,0E0,0E0,0E0,0E0,0E0,0E0,0E0,0E0,0E0],"parents":[2147483647,0,0,1,1,2,2,3,3,4,4,5,5,6,6,7,7,8,8,9,9,10,10,11,11,12,12,13,13,14,14],"right_children":[2,4,6,8,10,12,14,16,18,20,22,24,26,28,30,-1,-1,-1,-1,-1,-1,-1,-1,-1,-1,-1,-1,-1,-1,-1,-1],"split_conditions":[1.8476126E1,